digraph Tree {
node [shape=box] ;
0 [label="hematokrit <= 0.422\nentropy = 0.938\nsamples = 7438\nvalue = [2636, 4802]"] ;
1 [label="hbver <= 0.343\nentropy = 0.513\nsamples = 2370\nvalue = [271, 2099]"] ;
0 -> 1 [labeldistance=2.5, labelangle=45, headlabel="True"] ;
17 [label="hematokrit <= 0.404\nentropy = 0.301\nsamples = 1122\nvalue = [60, 1062]"] ;
1 -> 17 ;
91 [label="erytrocyty <= 0.617\nentropy = 0.259\nsamples = 1028\nvalue = [45, 983]"] ;
17 -> 91 ;
191 [label="hemoglobin <= 0.713\nentropy = 0.322\nsamples = 596\nvalue = [35, 561]"] ;
91 -> 191 ;
193 [label="hematokrit <= 0.297\nentropy = 0.266\nsamples = 575\nvalue = [26, 549]"] ;
191 -> 193 ;
221 [label="er-cv <= 0.559\nentropy = 0.141\nsamples = 251\nvalue = [5, 246]"] ;
193 -> 221 ;
299 [label="er-cv <= 0.532\nentropy = 0.22\nsamples = 142\nvalue = [5, 137]"] ;
221 -> 299 ;
301 [label="erytrocyty <= 0.409\nentropy = 0.116\nsamples = 128\nvalue = [2, 126]"] ;
299 -> 301 ;
337 [label="hemoglobin <= 0.434\nentropy = 0.31\nsamples = 36\nvalue = [2, 34]"] ;
301 -> 337 ;
403 [label="entropy = 0.0\nsamples = 21\nvalue = [0, 21]"] ;
337 -> 403 ;
404 [label="entropy = 0.567\nsamples = 15\nvalue = [2, 13]"] ;
337 -> 404 ;
338 [label="entropy = 0.0\nsamples = 92\nvalue = [0, 92]"] ;
301 -> 338 ;
302 [label="entropy = 0.75\nsamples = 14\nvalue = [3, 11]"] ;
299 -> 302 ;
300 [label="entropy = 0.0\nsamples = 109\nvalue = [0, 109]"] ;
221 -> 300 ;
222 [label="hbver <= 0.327\nentropy = 0.346\nsamples = 324\nvalue = [21, 303]"] ;
193 -> 222 ;
275 [label="er-cv <= 0.44\nentropy = 0.383\nsamples = 281\nvalue = [21, 260]"] ;
222 -> 275 ;
319 [label="hbver <= 0.198\nentropy = 0.537\nsamples = 106\nvalue = [13, 93]"] ;
275 -> 319 ;
373 [label="entropy = 0.0\nsamples = 15\nvalue = [0, 15]"] ;
319 -> 373 ;
374 [label="hbver <= 0.228\nentropy = 0.592\nsamples = 91\nvalue = [13, 78]"] ;
319 -> 374 ;
375 [label="entropy = 0.971\nsamples = 15\nvalue = [6, 9]"] ;
374 -> 375 ;
376 [label="hbver <= 0.268\nentropy = 0.443\nsamples = 76\nvalue = [7, 69]"] ;
374 -> 376 ;
377 [label="entropy = 0.0\nsamples = 26\nvalue = [0, 26]"] ;
376 -> 377 ;
378 [label="entropy = 0.584\nsamples = 50\nvalue = [7, 43]"] ;
376 -> 378 ;
320 [label="er-cv <= 0.518\nentropy = 0.268\nsamples = 175\nvalue = [8, 167]"] ;
275 -> 320 ;
321 [label="entropy = 0.0\nsamples = 51\nvalue = [0, 51]"] ;
320 -> 321 ;
322 [label="er-cv <= 0.551\nentropy = 0.345\nsamples = 124\nvalue = [8, 116]"] ;
320 -> 322 ;
421 [label="entropy = 0.696\nsamples = 16\nvalue = [3, 13]"] ;
322 -> 421 ;
422 [label="erytrocyty <= 0.536\nentropy = 0.27\nsamples = 108\nvalue = [5, 103]"] ;
322 -> 422 ;
423 [label="entropy = 0.111\nsamples = 68\nvalue = [1, 67]"] ;
422 -> 423 ;
424 [label="entropy = 0.469\nsamples = 40\nvalue = [4, 36]"] ;
422 -> 424 ;
276 [label="entropy = 0.0\nsamples = 43\nvalue = [0, 43]"] ;
222 -> 276 ;
194 [label="entropy = 0.985\nsamples = 21\nvalue = [9, 12]"] ;
191 -> 194 ;
192 [label="hemoglobin <= 0.868\nentropy = 0.159\nsamples = 432\nvalue = [10, 422]"] ;
91 -> 192 ;
195 [label="erytrocyty <= 0.732\nentropy = 0.099\nsamples = 389\nvalue = [5, 384]"] ;
192 -> 195 ;
367 [label="hematokrit <= 0.365\nentropy = 0.037\nsamples = 252\nvalue = [1, 251]"] ;
195 -> 367 ;
397 [label="entropy = 0.0\nsamples = 213\nvalue = [0, 213]"] ;
367 -> 397 ;
398 [label="er-cv <= 0.437\nentropy = 0.172\nsamples = 39\nvalue = [1, 38]"] ;
367 -> 398 ;
469 [label="entropy = 0.371\nsamples = 14\nvalue = [1, 13]"] ;
398 -> 469 ;
470 [label="entropy = 0.0\nsamples = 25\nvalue = [0, 25]"] ;
398 -> 470 ;
368 [label="hemoglobin <= 0.771\nentropy = 0.19\nsamples = 137\nvalue = [4, 133]"] ;
195 -> 368 ;
369 [label="hemoglobin <= 0.76\nentropy = 0.326\nsamples = 67\nvalue = [4, 63]"] ;
368 -> 369 ;
371 [label="erytrocyty <= 0.749\nentropy = 0.135\nsamples = 53\nvalue = [1, 52]"] ;
369 -> 371 ;
447 [label="entropy = 0.371\nsamples = 14\nvalue = [1, 13]"] ;
371 -> 447 ;
448 [label="entropy = 0.0\nsamples = 39\nvalue = [0, 39]"] ;
371 -> 448 ;
372 [label="entropy = 0.75\nsamples = 14\nvalue = [3, 11]"] ;
369 -> 372 ;
370 [label="entropy = 0.0\nsamples = 70\nvalue = [0, 70]"] ;
368 -> 370 ;
196 [label="er-cv <= 0.433\nentropy = 0.519\nsamples = 43\nvalue = [5, 38]"] ;
192 -> 196 ;
197 [label="entropy = 0.811\nsamples = 20\nvalue = [5, 15]"] ;
196 -> 197 ;
198 [label="entropy = 0.0\nsamples = 23\nvalue = [0, 23]"] ;
196 -> 198 ;
92 [label="erytrocyty <= 0.558\nentropy = 0.633\nsamples = 94\nvalue = [15, 79]"] ;
17 -> 92 ;
431 [label="hemoglobin <= 0.525\nentropy = 0.76\nsamples = 50\nvalue = [11, 39]"] ;
92 -> 431 ;
435 [label="er-cv <= 0.462\nentropy = 0.533\nsamples = 33\nvalue = [4, 29]"] ;
431 -> 435 ;
437 [label="entropy = 0.0\nsamples = 15\nvalue = [0, 15]"] ;
435 -> 437 ;
438 [label="entropy = 0.764\nsamples = 18\nvalue = [4, 14]"] ;
435 -> 438 ;
436 [label="entropy = 0.977\nsamples = 17\nvalue = [7, 10]"] ;
431 -> 436 ;
432 [label="hemoglobin <= 0.76\nentropy = 0.439\nsamples = 44\nvalue = [4, 40]"] ;
92 -> 432 ;
433 [label="entropy = 0.0\nsamples = 30\nvalue = [0, 30]"] ;
432 -> 433 ;
434 [label="entropy = 0.863\nsamples = 14\nvalue = [4, 10]"] ;
432 -> 434 ;
18 [label="hematokrit <= 0.374\nentropy = 0.656\nsamples = 1248\nvalue = [211, 1037]"] ;
1 -> 18 ;
23 [label="hemoglobin <= 0.334\nentropy = 0.524\nsamples = 888\nvalue = [105, 783]"] ;
18 -> 23 ;
67 [label="hematokrit <= 0.33\nentropy = 0.197\nsamples = 196\nvalue = [6, 190]"] ;
23 -> 67 ;
211 [label="hbver <= 0.594\nentropy = 0.062\nsamples = 139\nvalue = [1, 138]"] ;
67 -> 211 ;
365 [label="entropy = 0.0\nsamples = 125\nvalue = [0, 125]"] ;
211 -> 365 ;
366 [label="entropy = 0.371\nsamples = 14\nvalue = [1, 13]"] ;
211 -> 366 ;
212 [label="erytrocyty <= 0.191\nentropy = 0.429\nsamples = 57\nvalue = [5, 52]"] ;
67 -> 212 ;
427 [label="entropy = 0.65\nsamples = 24\nvalue = [4, 20]"] ;
212 -> 427 ;
428 [label="hbver <= 0.487\nentropy = 0.196\nsamples = 33\nvalue = [1, 32]"] ;
212 -> 428 ;
473 [label="entropy = 0.371\nsamples = 14\nvalue = [1, 13]"] ;
428 -> 473 ;
474 [label="entropy = 0.0\nsamples = 19\nvalue = [0, 19]"] ;
428 -> 474 ;
68 [label="erytrocyty <= 0.301\nentropy = 0.592\nsamples = 692\nvalue = [99, 593]"] ;
23 -> 68 ;
69 [label="hbver <= 0.567\nentropy = 0.999\nsamples = 69\nvalue = [36, 33]"] ;
68 -> 69 ;
85 [label="hemoglobin <= 0.389\nentropy = 0.936\nsamples = 54\nvalue = [35, 19]"] ;
69 -> 85 ;
87 [label="entropy = 0.831\nsamples = 19\nvalue = [5, 14]"] ;
85 -> 87 ;
88 [label="hematokrit <= 0.306\nentropy = 0.592\nsamples = 35\nvalue = [30, 5]"] ;
85 -> 88 ;
425 [label="entropy = 0.837\nsamples = 15\nvalue = [11, 4]"] ;
88 -> 425 ;
426 [label="entropy = 0.286\nsamples = 20\nvalue = [19, 1]"] ;
88 -> 426 ;
86 [label="entropy = 0.353\nsamples = 15\nvalue = [1, 14]"] ;
69 -> 86 ;
70 [label="hemoglobin <= 0.671\nentropy = 0.473\nsamples = 623\nvalue = [63, 560]"] ;
68 -> 70 ;
99 [label="hbver <= 0.421\nentropy = 0.411\nsamples = 546\nvalue = [45, 501]"] ;
70 -> 99 ;
101 [label="erytrocyty <= 0.547\nentropy = 0.207\nsamples = 277\nvalue = [9, 268]"] ;
99 -> 101 ;
177 [label="hemoglobin <= 0.484\nentropy = 0.296\nsamples = 172\nvalue = [9, 163]"] ;
101 -> 177 ;
179 [label="er-cv <= 0.605\nentropy = 0.064\nsamples = 132\nvalue = [1, 131]"] ;
177 -> 179 ;
459 [label="entropy = 0.0\nsamples = 92\nvalue = [0, 92]"] ;
179 -> 459 ;
460 [label="erytrocyty <= 0.396\nentropy = 0.169\nsamples = 40\nvalue = [1, 39]"] ;
179 -> 460 ;
467 [label="entropy = 0.371\nsamples = 14\nvalue = [1, 13]"] ;
460 -> 467 ;
468 [label="entropy = 0.0\nsamples = 26\nvalue = [0, 26]"] ;
460 -> 468 ;
180 [label="er-cv <= 0.474\nentropy = 0.722\nsamples = 40\nvalue = [8, 32]"] ;
177 -> 180 ;
399 [label="entropy = 0.439\nsamples = 22\nvalue = [2, 20]"] ;
180 -> 399 ;
400 [label="entropy = 0.918\nsamples = 18\nvalue = [6, 12]"] ;
180 -> 400 ;
178 [label="entropy = 0.0\nsamples = 105\nvalue = [0, 105]"] ;
101 -> 178 ;
102 [label="hematokrit <= 0.227\nentropy = 0.568\nsamples = 269\nvalue = [36, 233]"] ;
99 -> 102 ;
103 [label="entropy = 0.0\nsamples = 48\nvalue = [0, 48]"] ;
102 -> 103 ;
104 [label="erytrocyty <= 0.384\nentropy = 0.641\nsamples = 221\nvalue = [36, 185]"] ;
102 -> 104 ;
117 [label="erytrocyty <= 0.363\nentropy = 0.957\nsamples = 37\nvalue = [14, 23]"] ;
104 -> 117 ;
127 [label="entropy = 0.667\nsamples = 23\nvalue = [4, 19]"] ;
117 -> 127 ;
128 [label="entropy = 0.863\nsamples = 14\nvalue = [10, 4]"] ;
117 -> 128 ;
118 [label="erytrocyty <= 0.557\nentropy = 0.528\nsamples = 184\nvalue = [22, 162]"] ;
104 -> 118 ;
303 [label="hematokrit <= 0.353\nentropy = 0.412\nsamples = 133\nvalue = [11, 122]"] ;
118 -> 303 ;
307 [label="entropy = 0.493\nsamples = 102\nvalue = [11, 91]"] ;
303 -> 307 ;
308 [label="entropy = 0.0\nsamples = 31\nvalue = [0, 31]"] ;
303 -> 308 ;
304 [label="hemoglobin <= 0.496\nentropy = 0.752\nsamples = 51\nvalue = [11, 40]"] ;
118 -> 304 ;
305 [label="entropy = 0.989\nsamples = 16\nvalue = [7, 9]"] ;
304 -> 305 ;
306 [label="entropy = 0.513\nsamples = 35\nvalue = [4, 31]"] ;
304 -> 306 ;
100 [label="hbver <= 0.564\nentropy = 0.785\nsamples = 77\nvalue = [18, 59]"] ;
70 -> 100 ;
129 [label="erytrocyty <= 0.667\nentropy = 0.946\nsamples = 44\nvalue = [16, 28]"] ;
100 -> 129 ;
131 [label="entropy = 0.932\nsamples = 23\nvalue = [15, 8]"] ;
129 -> 131 ;
132 [label="entropy = 0.276\nsamples = 21\nvalue = [1, 20]"] ;
129 -> 132 ;
130 [label="hematokrit <= 0.303\nentropy = 0.33\nsamples = 33\nvalue = [2, 31]"] ;
100 -> 130 ;
411 [label="entropy = 0.592\nsamples = 14\nvalue = [2, 12]"] ;
130 -> 411 ;
412 [label="entropy = 0.0\nsamples = 19\nvalue = [0, 19]"] ;
130 -> 412 ;
24 [label="hbver <= 0.621\nentropy = 0.874\nsamples = 360\nvalue = [106, 254]"] ;
18 -> 24 ;
61 [label="hemoglobin <= 0.286\nentropy = 0.931\nsamples = 291\nvalue = [101, 190]"] ;
24 -> 61 ;
107 [label="erytrocyty <= 0.218\nentropy = 0.527\nsamples = 42\nvalue = [5, 37]"] ;
61 -> 107 ;
257 [label="entropy = 0.0\nsamples = 19\nvalue = [0, 19]"] ;
107 -> 257 ;
258 [label="entropy = 0.755\nsamples = 23\nvalue = [5, 18]"] ;
107 -> 258 ;
108 [label="erytrocyty <= 0.236\nentropy = 0.962\nsamples = 249\nvalue = [96, 153]"] ;
61 -> 108 ;
109 [label="entropy = 0.779\nsamples = 26\nvalue = [20, 6]"] ;
108 -> 109 ;
110 [label="hbver <= 0.46\nentropy = 0.926\nsamples = 223\nvalue = [76, 147]"] ;
108 -> 110 ;
111 [label="hemoglobin <= 0.601\nentropy = 0.808\nsamples = 137\nvalue = [34, 103]"] ;
110 -> 111 ;
113 [label="erytrocyty <= 0.369\nentropy = 0.628\nsamples = 108\nvalue = [17, 91]"] ;
111 -> 113 ;
217 [label="erytrocyty <= 0.324\nentropy = 0.896\nsamples = 32\nvalue = [10, 22]"] ;
113 -> 217 ;
249 [label="entropy = 0.523\nsamples = 17\nvalue = [2, 15]"] ;
217 -> 249 ;
250 [label="entropy = 0.997\nsamples = 15\nvalue = [8, 7]"] ;
217 -> 250 ;
218 [label="hematokrit <= 0.388\nentropy = 0.443\nsamples = 76\nvalue = [7, 69]"] ;
113 -> 218 ;
405 [label="entropy = 0.742\nsamples = 19\nvalue = [4, 15]"] ;
218 -> 405 ;
406 [label="hematokrit <= 0.408\nentropy = 0.297\nsamples = 57\nvalue = [3, 54]"] ;
218 -> 406 ;
407 [label="entropy = 0.0\nsamples = 30\nvalue = [0, 30]"] ;
406 -> 407 ;
408 [label="entropy = 0.503\nsamples = 27\nvalue = [3, 24]"] ;
406 -> 408 ;
114 [label="erytrocyty <= 0.585\nentropy = 0.978\nsamples = 29\nvalue = [17, 12]"] ;
111 -> 114 ;
115 [label="entropy = 0.353\nsamples = 15\nvalue = [14, 1]"] ;
114 -> 115 ;
116 [label="entropy = 0.75\nsamples = 14\nvalue = [3, 11]"] ;
114 -> 116 ;
112 [label="hemoglobin <= 0.7\nentropy = 1.0\nsamples = 86\nvalue = [42, 44]"] ;
110 -> 112 ;
295 [label="hemoglobin <= 0.386\nentropy = 0.983\nsamples = 59\nvalue = [34, 25]"] ;
112 -> 295 ;
449 [label="entropy = 0.977\nsamples = 17\nvalue = [7, 10]"] ;
295 -> 449 ;
450 [label="erytrocyty <= 0.423\nentropy = 0.94\nsamples = 42\nvalue = [27, 15]"] ;
295 -> 450 ;
451 [label="entropy = 0.337\nsamples = 16\nvalue = [15, 1]"] ;
450 -> 451 ;
452 [label="entropy = 0.996\nsamples = 26\nvalue = [12, 14]"] ;
450 -> 452 ;
296 [label="entropy = 0.877\nsamples = 27\nvalue = [8, 19]"] ;
112 -> 296 ;
62 [label="hbver <= 0.694\nentropy = 0.375\nsamples = 69\nvalue = [5, 64]"] ;
24 -> 62 ;
241 [label="hematokrit <= 0.403\nentropy = 0.581\nsamples = 36\nvalue = [5, 31]"] ;
62 -> 241 ;
389 [label="entropy = 0.267\nsamples = 22\nvalue = [1, 21]"] ;
241 -> 389 ;
390 [label="entropy = 0.863\nsamples = 14\nvalue = [4, 10]"] ;
241 -> 390 ;
242 [label="entropy = 0.0\nsamples = 33\nvalue = [0, 33]"] ;
62 -> 242 ;
2 [label="hemoglobin <= 0.288\nentropy = 0.997\nsamples = 5068\nvalue = [2365, 2703]"] ;
0 -> 2 [labeldistance=2.5, labelangle=-45, headlabel="False"] ;
3 [label="hemoglobin <= 0.206\nentropy = 0.707\nsamples = 1199\nvalue = [968, 231]"] ;
2 -> 3 ;
15 [label="hematokrit <= 0.528\nentropy = 0.474\nsamples = 679\nvalue = [610, 69]"] ;
3 -> 15 ;
35 [label="hbver <= 0.499\nentropy = 0.956\nsamples = 53\nvalue = [33, 20]"] ;
15 -> 35 ;
59 [label="erytrocyty <= 0.248\nentropy = 0.592\nsamples = 35\nvalue = [30, 5]"] ;
35 -> 59 ;
201 [label="entropy = 0.874\nsamples = 17\nvalue = [12, 5]"] ;
59 -> 201 ;
202 [label="entropy = 0.0\nsamples = 18\nvalue = [18, 0]"] ;
59 -> 202 ;
60 [label="entropy = 0.65\nsamples = 18\nvalue = [3, 15]"] ;
35 -> 60 ;
36 [label="hbver <= 0.624\nentropy = 0.396\nsamples = 626\nvalue = [577, 49]"] ;
15 -> 36 ;
37 [label="hematokrit <= 0.805\nentropy = 0.189\nsamples = 380\nvalue = [369, 11]"] ;
36 -> 37 ;
119 [label="erytrocyty <= 0.238\nentropy = 0.125\nsamples = 352\nvalue = [346, 6]"] ;
37 -> 119 ;
121 [label="hemoglobin <= 0.09\nentropy = 0.396\nsamples = 64\nvalue = [59, 5]"] ;
119 -> 121 ;
401 [label="entropy = 0.0\nsamples = 19\nvalue = [19, 0]"] ;
121 -> 401 ;
402 [label="hematokrit <= 0.622\nentropy = 0.503\nsamples = 45\nvalue = [40, 5]"] ;
121 -> 402 ;
453 [label="entropy = 0.702\nsamples = 21\nvalue = [17, 4]"] ;
402 -> 453 ;
454 [label="entropy = 0.25\nsamples = 24\nvalue = [23, 1]"] ;
402 -> 454 ;
122 [label="hbver <= 0.608\nentropy = 0.033\nsamples = 288\nvalue = [287, 1]"] ;
119 -> 122 ;
383 [label="entropy = 0.0\nsamples = 253\nvalue = [253, 0]"] ;
122 -> 383 ;
384 [label="hbver <= 0.614\nentropy = 0.187\nsamples = 35\nvalue = [34, 1]"] ;
122 -> 384 ;
471 [label="entropy = 0.371\nsamples = 14\nvalue = [13, 1]"] ;
384 -> 471 ;
472 [label="entropy = 0.0\nsamples = 21\nvalue = [21, 0]"] ;
384 -> 472 ;
120 [label="erytrocyty <= 0.435\nentropy = 0.677\nsamples = 28\nvalue = [23, 5]"] ;
37 -> 120 ;
209 [label="entropy = 0.0\nsamples = 14\nvalue = [14, 0]"] ;
120 -> 209 ;
210 [label="entropy = 0.94\nsamples = 14\nvalue = [9, 5]"] ;
120 -> 210 ;
38 [label="hemoglobin <= 0.147\nentropy = 0.621\nsamples = 246\nvalue = [208, 38]"] ;
36 -> 38 ;
81 [label="hematokrit <= 0.837\nentropy = 0.36\nsamples = 146\nvalue = [136, 10]"] ;
38 -> 81 ;
123 [label="hbver <= 0.689\nentropy = 0.174\nsamples = 115\nvalue = [112, 3]"] ;
81 -> 123 ;
243 [label="entropy = 0.0\nsamples = 77\nvalue = [77, 0]"] ;
123 -> 243 ;
244 [label="hematokrit <= 0.79\nentropy = 0.398\nsamples = 38\nvalue = [35, 3]"] ;
123 -> 244 ;
361 [label="entropy = 0.65\nsamples = 18\nvalue = [15, 3]"] ;
244 -> 361 ;
362 [label="entropy = 0.0\nsamples = 20\nvalue = [20, 0]"] ;
244 -> 362 ;
124 [label="hbver <= 0.705\nentropy = 0.771\nsamples = 31\nvalue = [24, 7]"] ;
81 -> 124 ;
317 [label="entropy = 0.971\nsamples = 15\nvalue = [9, 6]"] ;
124 -> 317 ;
318 [label="entropy = 0.337\nsamples = 16\nvalue = [15, 1]"] ;
124 -> 318 ;
82 [label="hematokrit <= 0.79\nentropy = 0.855\nsamples = 100\nvalue = [72, 28]"] ;
38 -> 82 ;
181 [label="hbver <= 0.738\nentropy = 0.754\nsamples = 83\nvalue = [65, 18]"] ;
82 -> 181 ;
199 [label="hematokrit <= 0.715\nentropy = 0.608\nsamples = 67\nvalue = [57, 10]"] ;
181 -> 199 ;
333 [label="hemoglobin <= 0.167\nentropy = 0.371\nsamples = 42\nvalue = [39, 3]"] ;
199 -> 333 ;
479 [label="entropy = 0.592\nsamples = 14\nvalue = [12, 2]"] ;
333 -> 479 ;
480 [label="hbver <= 0.659\nentropy = 0.222\nsamples = 28\nvalue = [27, 1]"] ;
333 -> 480 ;
481 [label="entropy = 0.0\nsamples = 14\nvalue = [14, 0]"] ;
480 -> 481 ;
482 [label="entropy = 0.371\nsamples = 14\nvalue = [13, 1]"] ;
480 -> 482 ;
334 [label="entropy = 0.855\nsamples = 25\nvalue = [18, 7]"] ;
199 -> 334 ;
200 [label="entropy = 1.0\nsamples = 16\nvalue = [8, 8]"] ;
181 -> 200 ;
182 [label="entropy = 0.977\nsamples = 17\nvalue = [7, 10]"] ;
82 -> 182 ;
16 [label="hbver <= 0.644\nentropy = 0.895\nsamples = 520\nvalue = [358, 162]"] ;
3 -> 16 ;
31 [label="hematokrit <= 0.508\nentropy = 0.787\nsamples = 374\nvalue = [286, 88]"] ;
16 -> 31 ;
45 [label="erytrocyty <= 0.324\nentropy = 0.99\nsamples = 93\nvalue = [52, 41]"] ;
31 -> 45 ;
63 [label="hemoglobin <= 0.242\nentropy = 0.936\nsamples = 54\nvalue = [19, 35]"] ;
45 -> 63 ;
213 [label="entropy = 0.634\nsamples = 25\nvalue = [4, 21]"] ;
63 -> 213 ;
214 [label="erytrocyty <= 0.204\nentropy = 0.999\nsamples = 29\nvalue = [15, 14]"] ;
63 -> 214 ;
287 [label="entropy = 0.837\nsamples = 15\nvalue = [11, 4]"] ;
214 -> 287 ;
288 [label="entropy = 0.863\nsamples = 14\nvalue = [4, 10]"] ;
214 -> 288 ;
64 [label="hbver <= 0.544\nentropy = 0.619\nsamples = 39\nvalue = [33, 6]"] ;
45 -> 64 ;
283 [label="entropy = 0.25\nsamples = 24\nvalue = [23, 1]"] ;
64 -> 283 ;
284 [label="entropy = 0.918\nsamples = 15\nvalue = [10, 5]"] ;
64 -> 284 ;
46 [label="hematokrit <= 0.698\nentropy = 0.651\nsamples = 281\nvalue = [234, 47]"] ;
31 -> 46 ;
47 [label="hbver <= 0.521\nentropy = 0.353\nsamples = 210\nvalue = [196, 14]"] ;
46 -> 47 ;
151 [label="hbver <= 0.283\nentropy = 0.564\nsamples = 83\nvalue = [72, 11]"] ;
47 -> 151 ;
255 [label="entropy = 0.0\nsamples = 20\nvalue = [20, 0]"] ;
151 -> 255 ;
256 [label="hematokrit <= 0.535\nentropy = 0.668\nsamples = 63\nvalue = [52, 11]"] ;
151 -> 256 ;
387 [label="entropy = 0.276\nsamples = 21\nvalue = [20, 1]"] ;
256 -> 387 ;
388 [label="hemoglobin <= 0.245\nentropy = 0.792\nsamples = 42\nvalue = [32, 10]"] ;
256 -> 388 ;
475 [label="entropy = 0.61\nsamples = 20\nvalue = [17, 3]"] ;
388 -> 475 ;
476 [label="entropy = 0.902\nsamples = 22\nvalue = [15, 7]"] ;
388 -> 476 ;
152 [label="hemoglobin <= 0.263\nentropy = 0.161\nsamples = 127\nvalue = [124, 3]"] ;
47 -> 152 ;
219 [label="entropy = 0.0\nsamples = 88\nvalue = [88, 0]"] ;
152 -> 219 ;
220 [label="hbver <= 0.61\nentropy = 0.391\nsamples = 39\nvalue = [36, 3]"] ;
152 -> 220 ;
253 [label="entropy = 0.0\nsamples = 25\nvalue = [25, 0]"] ;
220 -> 253 ;
254 [label="entropy = 0.75\nsamples = 14\nvalue = [11, 3]"] ;
220 -> 254 ;
48 [label="hbver <= 0.517\nentropy = 0.996\nsamples = 71\nvalue = [38, 33]"] ;
46 -> 48 ;
49 [label="hematokrit <= 0.828\nentropy = 0.477\nsamples = 39\nvalue = [35, 4]"] ;
48 -> 49 ;
187 [label="entropy = 0.0\nsamples = 24\nvalue = [24, 0]"] ;
49 -> 187 ;
188 [label="entropy = 0.837\nsamples = 15\nvalue = [11, 4]"] ;
49 -> 188 ;
50 [label="erytrocyty <= 0.579\nentropy = 0.449\nsamples = 32\nvalue = [3, 29]"] ;
48 -> 50 ;
325 [label="entropy = 0.75\nsamples = 14\nvalue = [3, 11]"] ;
50 -> 325 ;
326 [label="entropy = 0.0\nsamples = 18\nvalue = [0, 18]"] ;
50 -> 326 ;
32 [label="erytrocyty <= 0.491\nentropy = 1.0\nsamples = 146\nvalue = [72, 74]"] ;
16 -> 32 ;
83 [label="hematokrit <= 0.665\nentropy = 0.592\nsamples = 28\nvalue = [4, 24]"] ;
32 -> 83 ;
269 [label="entropy = 0.0\nsamples = 14\nvalue = [0, 14]"] ;
83 -> 269 ;
270 [label="entropy = 0.863\nsamples = 14\nvalue = [4, 10]"] ;
83 -> 270 ;
84 [label="erytrocyty <= 0.603\nentropy = 0.983\nsamples = 118\nvalue = [68, 50]"] ;
32 -> 84 ;
329 [label="hematokrit <= 0.687\nentropy = 0.977\nsamples = 34\nvalue = [14, 20]"] ;
84 -> 329 ;
331 [label="entropy = 0.544\nsamples = 16\nvalue = [2, 14]"] ;
329 -> 331 ;
332 [label="entropy = 0.918\nsamples = 18\nvalue = [12, 6]"] ;
329 -> 332 ;
330 [label="erytrocyty <= 0.809\nentropy = 0.94\nsamples = 84\nvalue = [54, 30]"] ;
84 -> 330 ;
439 [label="hbver <= 0.717\nentropy = 0.881\nsamples = 60\nvalue = [42, 18]"] ;
330 -> 439 ;
441 [label="entropy = 0.691\nsamples = 27\nvalue = [22, 5]"] ;
439 -> 441 ;
442 [label="hematokrit <= 0.66\nentropy = 0.967\nsamples = 33\nvalue = [20, 13]"] ;
439 -> 442 ;
443 [label="entropy = 0.863\nsamples = 14\nvalue = [4, 10]"] ;
442 -> 443 ;
444 [label="entropy = 0.629\nsamples = 19\nvalue = [16, 3]"] ;
442 -> 444 ;
440 [label="entropy = 1.0\nsamples = 24\nvalue = [12, 12]"] ;
330 -> 440 ;
4 [label="hbver <= 0.447\nentropy = 0.944\nsamples = 3869\nvalue = [1397, 2472]"] ;
2 -> 4 ;
5 [label="hematokrit <= 0.485\nentropy = 0.948\nsamples = 1451\nvalue = [920, 531]"] ;
4 -> 5 ;
7 [label="hbver <= 0.234\nentropy = 0.901\nsamples = 338\nvalue = [107, 231]"] ;
5 -> 7 ;
165 [label="hbver <= 0.181\nentropy = 0.644\nsamples = 61\nvalue = [10, 51]"] ;
7 -> 165 ;
297 [label="hemoglobin <= 0.659\nentropy = 0.863\nsamples = 28\nvalue = [8, 20]"] ;
165 -> 297 ;
483 [label="entropy = 0.94\nsamples = 14\nvalue = [5, 9]"] ;
297 -> 483 ;
484 [label="entropy = 0.75\nsamples = 14\nvalue = [3, 11]"] ;
297 -> 484 ;
298 [label="hbver <= 0.21\nentropy = 0.33\nsamples = 33\nvalue = [2, 31]"] ;
165 -> 298 ;
409 [label="entropy = 0.0\nsamples = 19\nvalue = [0, 19]"] ;
298 -> 409 ;
410 [label="entropy = 0.592\nsamples = 14\nvalue = [2, 12]"] ;
298 -> 410 ;
166 [label="hemoglobin <= 0.682\nentropy = 0.934\nsamples = 277\nvalue = [97, 180]"] ;
7 -> 166 ;
167 [label="erytrocyty <= 0.55\nentropy = 0.897\nsamples = 246\nvalue = [77, 169]"] ;
166 -> 167 ;
169 [label="hemoglobin <= 0.562\nentropy = 0.949\nsamples = 177\nvalue = [65, 112]"] ;
167 -> 169 ;
171 [label="erytrocyty <= 0.32\nentropy = 0.89\nsamples = 156\nvalue = [48, 108]"] ;
169 -> 171 ;
173 [label="hemoglobin <= 0.358\nentropy = 0.998\nsamples = 36\nvalue = [19, 17]"] ;
171 -> 173 ;
315 [label="entropy = 0.896\nsamples = 16\nvalue = [5, 11]"] ;
173 -> 315 ;
316 [label="entropy = 0.881\nsamples = 20\nvalue = [14, 6]"] ;
173 -> 316 ;
174 [label="er-cv <= 0.574\nentropy = 0.798\nsamples = 120\nvalue = [29, 91]"] ;
171 -> 174 ;
175 [label="er-cv <= 0.477\nentropy = 0.592\nsamples = 70\nvalue = [10, 60]"] ;
174 -> 175 ;
215 [label="entropy = 0.73\nsamples = 49\nvalue = [10, 39]"] ;
175 -> 215 ;
216 [label="entropy = 0.0\nsamples = 21\nvalue = [0, 21]"] ;
175 -> 216 ;
176 [label="hemoglobin <= 0.506\nentropy = 0.958\nsamples = 50\nvalue = [19, 31]"] ;
174 -> 176 ;
429 [label="entropy = 0.874\nsamples = 34\nvalue = [10, 24]"] ;
176 -> 429 ;
430 [label="entropy = 0.989\nsamples = 16\nvalue = [9, 7]"] ;
176 -> 430 ;
172 [label="entropy = 0.702\nsamples = 21\nvalue = [17, 4]"] ;
169 -> 172 ;
170 [label="hemoglobin <= 0.579\nentropy = 0.667\nsamples = 69\nvalue = [12, 57]"] ;
167 -> 170 ;
289 [label="erytrocyty <= 0.584\nentropy = 0.881\nsamples = 30\nvalue = [9, 21]"] ;
170 -> 289 ;
291 [label="entropy = 0.337\nsamples = 16\nvalue = [1, 15]"] ;
289 -> 291 ;
292 [label="entropy = 0.985\nsamples = 14\nvalue = [8, 6]"] ;
289 -> 292 ;
290 [label="hemoglobin <= 0.639\nentropy = 0.391\nsamples = 39\nvalue = [3, 36]"] ;
170 -> 290 ;
293 [label="entropy = 0.0\nsamples = 25\nvalue = [0, 25]"] ;
290 -> 293 ;
294 [label="entropy = 0.75\nsamples = 14\nvalue = [3, 11]"] ;
290 -> 294 ;
168 [label="hematokrit <= 0.447\nentropy = 0.938\nsamples = 31\nvalue = [20, 11]"] ;
166 -> 168 ;
251 [label="entropy = 0.989\nsamples = 16\nvalue = [7, 9]"] ;
168 -> 251 ;
252 [label="entropy = 0.567\nsamples = 15\nvalue = [13, 2]"] ;
168 -> 252 ;
8 [label="hbver <= 0.369\nentropy = 0.841\nsamples = 1113\nvalue = [813, 300]"] ;
5 -> 8 ;
19 [label="hematokrit <= 0.583\nentropy = 0.69\nsamples = 747\nvalue = [609, 138]"] ;
8 -> 19 ;
21 [label="erytrocyty <= 0.488\nentropy = 0.954\nsamples = 270\nvalue = [169, 101]"] ;
19 -> 21 ;
125 [label="er-cv <= 0.479\nentropy = 1.0\nsamples = 104\nvalue = [52, 52]"] ;
21 -> 125 ;
237 [label="hematokrit <= 0.547\nentropy = 0.926\nsamples = 41\nvalue = [14, 27]"] ;
125 -> 237 ;
465 [label="entropy = 0.826\nsamples = 27\nvalue = [7, 20]"] ;
237 -> 465 ;
466 [label="entropy = 1.0\nsamples = 14\nvalue = [7, 7]"] ;
237 -> 466 ;
238 [label="hemoglobin <= 0.498\nentropy = 0.969\nsamples = 63\nvalue = [38, 25]"] ;
125 -> 238 ;
271 [label="erytrocyty <= 0.412\nentropy = 0.876\nsamples = 44\nvalue = [31, 13]"] ;
238 -> 271 ;
273 [label="hbver <= 0.302\nentropy = 0.985\nsamples = 28\nvalue = [16, 12]"] ;
271 -> 273 ;
463 [label="entropy = 0.985\nsamples = 14\nvalue = [6, 8]"] ;
273 -> 463 ;
464 [label="entropy = 0.863\nsamples = 14\nvalue = [10, 4]"] ;
273 -> 464 ;
274 [label="entropy = 0.337\nsamples = 16\nvalue = [15, 1]"] ;
271 -> 274 ;
272 [label="entropy = 0.949\nsamples = 19\nvalue = [7, 12]"] ;
238 -> 272 ;
126 [label="hematokrit <= 0.544\nentropy = 0.875\nsamples = 166\nvalue = [117, 49]"] ;
21 -> 126 ;
263 [label="erytrocyty <= 0.7\nentropy = 0.941\nsamples = 109\nvalue = [70, 39]"] ;
126 -> 263 ;
379 [label="hemoglobin <= 0.646\nentropy = 0.903\nsamples = 94\nvalue = [64, 30]"] ;
263 -> 379 ;
381 [label="hbver <= 0.274\nentropy = 0.965\nsamples = 64\nvalue = [39, 25]"] ;
379 -> 381 ;
385 [label="entropy = 0.811\nsamples = 28\nvalue = [21, 7]"] ;
381 -> 385 ;
386 [label="entropy = 1.0\nsamples = 36\nvalue = [18, 18]"] ;
381 -> 386 ;
382 [label="hbver <= 0.292\nentropy = 0.65\nsamples = 30\nvalue = [25, 5]"] ;
379 -> 382 ;
445 [label="entropy = 0.863\nsamples = 14\nvalue = [10, 4]"] ;
382 -> 445 ;
446 [label="entropy = 0.337\nsamples = 16\nvalue = [15, 1]"] ;
382 -> 446 ;
380 [label="entropy = 0.971\nsamples = 15\nvalue = [6, 9]"] ;
263 -> 380 ;
264 [label="hemoglobin <= 0.613\nentropy = 0.67\nsamples = 57\nvalue = [47, 10]"] ;
126 -> 264 ;
265 [label="hematokrit <= 0.564\nentropy = 0.337\nsamples = 32\nvalue = [30, 2]"] ;
264 -> 265 ;
419 [label="entropy = 0.0\nsamples = 18\nvalue = [18, 0]"] ;
265 -> 419 ;
420 [label="entropy = 0.592\nsamples = 14\nvalue = [12, 2]"] ;
265 -> 420 ;
266 [label="entropy = 0.904\nsamples = 25\nvalue = [17, 8]"] ;
264 -> 266 ;
22 [label="erytrocyty <= 0.484\nentropy = 0.394\nsamples = 477\nvalue = [440, 37]"] ;
19 -> 22 ;
75 [label="hemoglobin <= 0.591\nentropy = 0.697\nsamples = 117\nvalue = [95, 22]"] ;
22 -> 75 ;
77 [label="hemoglobin <= 0.465\nentropy = 0.49\nsamples = 103\nvalue = [92, 11]"] ;
75 -> 77 ;
327 [label="er-cv <= 0.658\nentropy = 0.344\nsamples = 78\nvalue = [73, 5]"] ;
77 -> 327 ;
357 [label="hemoglobin <= 0.332\nentropy = 0.201\nsamples = 64\nvalue = [62, 2]"] ;
327 -> 357 ;
359 [label="entropy = 0.503\nsamples = 18\nvalue = [16, 2]"] ;
357 -> 359 ;
360 [label="entropy = 0.0\nsamples = 46\nvalue = [46, 0]"] ;
357 -> 360 ;
358 [label="entropy = 0.75\nsamples = 14\nvalue = [11, 3]"] ;
327 -> 358 ;
328 [label="entropy = 0.795\nsamples = 25\nvalue = [19, 6]"] ;
77 -> 328 ;
78 [label="entropy = 0.75\nsamples = 14\nvalue = [3, 11]"] ;
75 -> 78 ;
76 [label="er-cv <= 0.634\nentropy = 0.25\nsamples = 360\nvalue = [345, 15]"] ;
22 -> 76 ;
183 [label="hemoglobin <= 0.628\nentropy = 0.154\nsamples = 270\nvalue = [264, 6]"] ;
76 -> 183 ;
277 [label="er-cv <= 0.386\nentropy = 0.076\nsamples = 215\nvalue = [213, 2]"] ;
183 -> 277 ;
391 [label="er-cv <= 0.337\nentropy = 0.164\nsamples = 83\nvalue = [81, 2]"] ;
277 -> 391 ;
393 [label="entropy = 0.0\nsamples = 64\nvalue = [64, 0]"] ;
391 -> 393 ;
394 [label="entropy = 0.485\nsamples = 19\nvalue = [17, 2]"] ;
391 -> 394 ;
392 [label="entropy = 0.0\nsamples = 132\nvalue = [132, 0]"] ;
277 -> 392 ;
278 [label="erytrocyty <= 0.695\nentropy = 0.376\nsamples = 55\nvalue = [51, 4]"] ;
183 -> 278 ;
279 [label="entropy = 0.722\nsamples = 20\nvalue = [16, 4]"] ;
278 -> 279 ;
280 [label="entropy = 0.0\nsamples = 35\nvalue = [35, 0]"] ;
278 -> 280 ;
184 [label="hbver <= 0.278\nentropy = 0.469\nsamples = 90\nvalue = [81, 9]"] ;
76 -> 184 ;
245 [label="hemoglobin <= 0.454\nentropy = 0.154\nsamples = 45\nvalue = [44, 1]"] ;
184 -> 245 ;
461 [label="entropy = 0.371\nsamples = 14\nvalue = [13, 1]"] ;
245 -> 461 ;
462 [label="entropy = 0.0\nsamples = 31\nvalue = [31, 0]"] ;
245 -> 462 ;
246 [label="erytrocyty <= 0.622\nentropy = 0.675\nsamples = 45\nvalue = [37, 8]"] ;
184 -> 246 ;
339 [label="entropy = 0.276\nsamples = 21\nvalue = [20, 1]"] ;
246 -> 339 ;
340 [label="entropy = 0.871\nsamples = 24\nvalue = [17, 7]"] ;
246 -> 340 ;
20 [label="hemoglobin <= 0.573\nentropy = 0.99\nsamples = 366\nvalue = [204, 162]"] ;
8 -> 20 ;
51 [label="erytrocyty <= 0.619\nentropy = 0.923\nsamples = 225\nvalue = [149, 76]"] ;
20 -> 51 ;
71 [label="hematokrit <= 0.807\nentropy = 0.854\nsamples = 197\nvalue = [142, 55]"] ;
51 -> 71 ;
105 [label="hematokrit <= 0.586\nentropy = 0.791\nsamples = 177\nvalue = [135, 42]"] ;
71 -> 105 ;
133 [label="hemoglobin <= 0.477\nentropy = 0.943\nsamples = 75\nvalue = [48, 27]"] ;
105 -> 133 ;
135 [label="erytrocyty <= 0.329\nentropy = 1.0\nsamples = 49\nvalue = [24, 25]"] ;
133 -> 135 ;
137 [label="entropy = 0.722\nsamples = 20\nvalue = [16, 4]"] ;
135 -> 137 ;
138 [label="entropy = 0.85\nsamples = 29\nvalue = [8, 21]"] ;
135 -> 138 ;
136 [label="entropy = 0.391\nsamples = 26\nvalue = [24, 2]"] ;
133 -> 136 ;
134 [label="hbver <= 0.423\nentropy = 0.602\nsamples = 102\nvalue = [87, 15]"] ;
105 -> 134 ;
233 [label="erytrocyty <= 0.46\nentropy = 0.439\nsamples = 77\nvalue = [70, 7]"] ;
134 -> 233 ;
235 [label="entropy = 0.659\nsamples = 41\nvalue = [34, 7]"] ;
233 -> 235 ;
236 [label="entropy = 0.0\nsamples = 36\nvalue = [36, 0]"] ;
233 -> 236 ;
234 [label="entropy = 0.904\nsamples = 25\nvalue = [17, 8]"] ;
134 -> 234 ;
106 [label="entropy = 0.934\nsamples = 20\nvalue = [7, 13]"] ;
71 -> 106 ;
72 [label="er-cv <= 0.53\nentropy = 0.811\nsamples = 28\nvalue = [7, 21]"] ;
51 -> 72 ;
335 [label="entropy = 0.371\nsamples = 14\nvalue = [1, 13]"] ;
72 -> 335 ;
336 [label="entropy = 0.985\nsamples = 14\nvalue = [6, 8]"] ;
72 -> 336 ;
52 [label="erytrocyty <= 0.394\nentropy = 0.965\nsamples = 141\nvalue = [55, 86]"] ;
20 -> 52 ;
53 [label="hematokrit <= 0.593\nentropy = 0.365\nsamples = 43\nvalue = [3, 40]"] ;
52 -> 53 ;
223 [label="entropy = 0.75\nsamples = 14\nvalue = [3, 11]"] ;
53 -> 223 ;
224 [label="entropy = 0.0\nsamples = 29\nvalue = [0, 29]"] ;
53 -> 224 ;
54 [label="hematokrit <= 0.602\nentropy = 0.997\nsamples = 98\nvalue = [52, 46]"] ;
52 -> 54 ;
141 [label="erytrocyty <= 0.52\nentropy = 0.876\nsamples = 44\nvalue = [31, 13]"] ;
54 -> 141 ;
323 [label="entropy = 0.503\nsamples = 18\nvalue = [16, 2]"] ;
141 -> 323 ;
324 [label="entropy = 0.983\nsamples = 26\nvalue = [15, 11]"] ;
141 -> 324 ;
142 [label="erytrocyty <= 0.594\nentropy = 0.964\nsamples = 54\nvalue = [21, 33]"] ;
54 -> 142 ;
189 [label="er-cv <= 0.441\nentropy = 0.771\nsamples = 31\nvalue = [7, 24]"] ;
142 -> 189 ;
261 [label="entropy = 0.323\nsamples = 17\nvalue = [1, 16]"] ;
189 -> 261 ;
262 [label="entropy = 0.985\nsamples = 14\nvalue = [6, 8]"] ;
189 -> 262 ;
190 [label="entropy = 0.966\nsamples = 23\nvalue = [14, 9]"] ;
142 -> 190 ;
6 [label="hemoglobin <= 0.401\nentropy = 0.716\nsamples = 2418\nvalue = [477, 1941]"] ;
4 -> 6 ;
9 [label="hematokrit <= 0.598\nentropy = 0.941\nsamples = 741\nvalue = [265, 476]"] ;
6 -> 9 ;
11 [label="hbver <= 0.672\nentropy = 0.985\nsamples = 335\nvalue = [192, 143]"] ;
9 -> 11 ;
13 [label="hbver <= 0.501\nentropy = 0.77\nsamples = 213\nvalue = [165, 48]"] ;
11 -> 13 ;
93 [label="erytrocyty <= 0.314\nentropy = 0.998\nsamples = 38\nvalue = [20, 18]"] ;
13 -> 93 ;
97 [label="entropy = 0.629\nsamples = 19\nvalue = [16, 3]"] ;
93 -> 97 ;
98 [label="entropy = 0.742\nsamples = 19\nvalue = [4, 15]"] ;
93 -> 98 ;
94 [label="hematokrit <= 0.586\nentropy = 0.661\nsamples = 175\nvalue = [145, 30]"] ;
13 -> 94 ;
95 [label="erytrocyty <= 0.291\nentropy = 0.548\nsamples = 158\nvalue = [138, 20]"] ;
94 -> 95 ;
203 [label="entropy = 0.0\nsamples = 27\nvalue = [27, 0]"] ;
95 -> 203 ;
204 [label="hemoglobin <= 0.358\nentropy = 0.616\nsamples = 131\nvalue = [111, 20]"] ;
95 -> 204 ;
205 [label="erytrocyty <= 0.486\nentropy = 0.414\nsamples = 84\nvalue = [77, 7]"] ;
204 -> 205 ;
207 [label="entropy = 0.734\nsamples = 34\nvalue = [27, 7]"] ;
205 -> 207 ;
208 [label="entropy = 0.0\nsamples = 50\nvalue = [50, 0]"] ;
205 -> 208 ;
206 [label="hematokrit <= 0.532\nentropy = 0.851\nsamples = 47\nvalue = [34, 13]"] ;
204 -> 206 ;
363 [label="entropy = 0.684\nsamples = 33\nvalue = [27, 6]"] ;
206 -> 363 ;
364 [label="entropy = 1.0\nsamples = 14\nvalue = [7, 7]"] ;
206 -> 364 ;
96 [label="entropy = 0.977\nsamples = 17\nvalue = [7, 10]"] ;
94 -> 96 ;
14 [label="erytrocyty <= 0.662\nentropy = 0.763\nsamples = 122\nvalue = [27, 95]"] ;
11 -> 14 ;
33 [label="hematokrit <= 0.528\nentropy = 0.253\nsamples = 71\nvalue = [3, 68]"] ;
14 -> 33 ;
267 [label="entropy = 0.516\nsamples = 26\nvalue = [3, 23]"] ;
33 -> 267 ;
268 [label="entropy = 0.0\nsamples = 45\nvalue = [0, 45]"] ;
33 -> 268 ;
34 [label="hbver <= 0.738\nentropy = 0.998\nsamples = 51\nvalue = [24, 27]"] ;
14 -> 34 ;
65 [label="entropy = 0.764\nsamples = 27\nvalue = [21, 6]"] ;
34 -> 65 ;
66 [label="entropy = 0.544\nsamples = 24\nvalue = [3, 21]"] ;
34 -> 66 ;
12 [label="hbver <= 0.734\nentropy = 0.68\nsamples = 406\nvalue = [73, 333]"] ;
9 -> 12 ;
41 [label="erytrocyty <= 0.402\nentropy = 0.601\nsamples = 375\nvalue = [55, 320]"] ;
12 -> 41 ;
43 [label="hemoglobin <= 0.335\nentropy = 0.934\nsamples = 83\nvalue = [29, 54]"] ;
41 -> 43 ;
143 [label="hematokrit <= 0.685\nentropy = 0.987\nsamples = 30\nvalue = [17, 13]"] ;
43 -> 143 ;
355 [label="entropy = 0.811\nsamples = 16\nvalue = [12, 4]"] ;
143 -> 355 ;
356 [label="entropy = 0.94\nsamples = 14\nvalue = [5, 9]"] ;
143 -> 356 ;
144 [label="hbver <= 0.618\nentropy = 0.772\nsamples = 53\nvalue = [12, 41]"] ;
43 -> 144 ;
247 [label="hematokrit <= 0.725\nentropy = 0.918\nsamples = 33\nvalue = [11, 22]"] ;
144 -> 247 ;
259 [label="entropy = 0.998\nsamples = 17\nvalue = [9, 8]"] ;
247 -> 259 ;
260 [label="entropy = 0.544\nsamples = 16\nvalue = [2, 14]"] ;
247 -> 260 ;
248 [label="entropy = 0.286\nsamples = 20\nvalue = [1, 19]"] ;
144 -> 248 ;
44 [label="hematokrit <= 0.652\nentropy = 0.433\nsamples = 292\nvalue = [26, 266]"] ;
41 -> 44 ;
57 [label="hemoglobin <= 0.35\nentropy = 0.786\nsamples = 81\nvalue = [19, 62]"] ;
44 -> 57 ;
79 [label="hbver <= 0.691\nentropy = 0.958\nsamples = 50\nvalue = [19, 31]"] ;
57 -> 79 ;
455 [label="hemoglobin <= 0.328\nentropy = 0.997\nsamples = 30\nvalue = [14, 16]"] ;
79 -> 455 ;
457 [label="entropy = 0.954\nsamples = 16\nvalue = [10, 6]"] ;
455 -> 457 ;
458 [label="entropy = 0.863\nsamples = 14\nvalue = [4, 10]"] ;
455 -> 458 ;
456 [label="entropy = 0.811\nsamples = 20\nvalue = [5, 15]"] ;
79 -> 456 ;
80 [label="entropy = 0.0\nsamples = 31\nvalue = [0, 31]"] ;
57 -> 80 ;
58 [label="hematokrit <= 0.797\nentropy = 0.21\nsamples = 211\nvalue = [7, 204]"] ;
44 -> 58 ;
413 [label="hbver <= 0.558\nentropy = 0.253\nsamples = 165\nvalue = [7, 158]"] ;
58 -> 413 ;
415 [label="erytrocyty <= 0.558\nentropy = 0.567\nsamples = 30\nvalue = [4, 26]"] ;
413 -> 415 ;
477 [label="entropy = 0.75\nsamples = 14\nvalue = [3, 11]"] ;
415 -> 477 ;
478 [label="entropy = 0.337\nsamples = 16\nvalue = [1, 15]"] ;
415 -> 478 ;
416 [label="hemoglobin <= 0.345\nentropy = 0.154\nsamples = 135\nvalue = [3, 132]"] ;
413 -> 416 ;
417 [label="entropy = 0.261\nsamples = 68\nvalue = [3, 65]"] ;
416 -> 417 ;
418 [label="entropy = 0.0\nsamples = 67\nvalue = [0, 67]"] ;
416 -> 418 ;
414 [label="entropy = 0.0\nsamples = 46\nvalue = [0, 46]"] ;
58 -> 414 ;
42 [label="erytrocyty <= 0.763\nentropy = 0.981\nsamples = 31\nvalue = [18, 13]"] ;
12 -> 42 ;
185 [label="entropy = 0.937\nsamples = 17\nvalue = [6, 11]"] ;
42 -> 185 ;
186 [label="entropy = 0.592\nsamples = 14\nvalue = [12, 2]"] ;
42 -> 186 ;
10 [label="hematokrit <= 0.527\nentropy = 0.548\nsamples = 1677\nvalue = [212, 1465]"] ;
6 -> 10 ;
25 [label="hemoglobin <= 0.494\nentropy = 0.72\nsamples = 537\nvalue = [107, 430]"] ;
10 -> 25 ;
27 [label="hbver <= 0.667\nentropy = 0.952\nsamples = 180\nvalue = [67, 113]"] ;
25 -> 27 ;
29 [label="erytrocyty <= 0.368\nentropy = 0.978\nsamples = 97\nvalue = [57, 40]"] ;
27 -> 29 ;
39 [label="er-cv <= 0.462\nentropy = 0.414\nsamples = 36\nvalue = [33, 3]"] ;
29 -> 39 ;
281 [label="entropy = 0.75\nsamples = 14\nvalue = [11, 3]"] ;
39 -> 281 ;
282 [label="entropy = 0.0\nsamples = 22\nvalue = [22, 0]"] ;
39 -> 282 ;
40 [label="hbver <= 0.576\nentropy = 0.967\nsamples = 61\nvalue = [24, 37]"] ;
29 -> 40 ;
239 [label="entropy = 0.684\nsamples = 22\nvalue = [4, 18]"] ;
40 -> 239 ;
240 [label="er-cv <= 0.49\nentropy = 1.0\nsamples = 39\nvalue = [20, 19]"] ;
40 -> 240 ;
353 [label="entropy = 0.837\nsamples = 15\nvalue = [11, 4]"] ;
240 -> 353 ;
354 [label="entropy = 0.954\nsamples = 24\nvalue = [9, 15]"] ;
240 -> 354 ;
30 [label="erytrocyty <= 0.671\nentropy = 0.531\nsamples = 83\nvalue = [10, 73]"] ;
27 -> 30 ;
89 [label="hbver <= 0.696\nentropy = 0.201\nsamples = 64\nvalue = [2, 62]"] ;
30 -> 89 ;
285 [label="entropy = 0.567\nsamples = 15\nvalue = [2, 13]"] ;
89 -> 285 ;
286 [label="entropy = 0.0\nsamples = 49\nvalue = [0, 49]"] ;
89 -> 286 ;
90 [label="entropy = 0.982\nsamples = 19\nvalue = [8, 11]"] ;
30 -> 90 ;
28 [label="hbver <= 0.496\nentropy = 0.506\nsamples = 357\nvalue = [40, 317]"] ;
25 -> 28 ;
55 [label="hemoglobin <= 0.671\nentropy = 0.965\nsamples = 41\nvalue = [16, 25]"] ;
28 -> 55 ;
153 [label="entropy = 0.863\nsamples = 14\nvalue = [10, 4]"] ;
55 -> 153 ;
154 [label="entropy = 0.764\nsamples = 27\nvalue = [6, 21]"] ;
55 -> 154 ;
56 [label="er-cv <= 0.61\nentropy = 0.388\nsamples = 316\nvalue = [24, 292]"] ;
28 -> 56 ;
139 [label="hemoglobin <= 0.547\nentropy = 0.477\nsamples = 224\nvalue = [23, 201]"] ;
56 -> 139 ;
341 [label="hemoglobin <= 0.525\nentropy = 0.681\nsamples = 61\nvalue = [11, 50]"] ;
139 -> 341 ;
343 [label="er-cv <= 0.39\nentropy = 0.439\nsamples = 44\nvalue = [4, 40]"] ;
341 -> 343 ;
345 [label="entropy = 0.764\nsamples = 18\nvalue = [4, 14]"] ;
343 -> 345 ;
346 [label="entropy = 0.0\nsamples = 26\nvalue = [0, 26]"] ;
343 -> 346 ;
344 [label="entropy = 0.977\nsamples = 17\nvalue = [7, 10]"] ;
341 -> 344 ;
342 [label="hbver <= 0.557\nentropy = 0.379\nsamples = 163\nvalue = [12, 151]"] ;
139 -> 342 ;
347 [label="er-cv <= 0.493\nentropy = 0.579\nsamples = 58\nvalue = [8, 50]"] ;
342 -> 347 ;
351 [label="entropy = 0.292\nsamples = 39\nvalue = [2, 37]"] ;
347 -> 351 ;
352 [label="entropy = 0.9\nsamples = 19\nvalue = [6, 13]"] ;
347 -> 352 ;
348 [label="erytrocyty <= 0.283\nentropy = 0.233\nsamples = 105\nvalue = [4, 101]"] ;
342 -> 348 ;
349 [label="entropy = 0.722\nsamples = 15\nvalue = [3, 12]"] ;
348 -> 349 ;
350 [label="entropy = 0.088\nsamples = 90\nvalue = [1, 89]"] ;
348 -> 350 ;
140 [label="hematokrit <= 0.512\nentropy = 0.087\nsamples = 92\nvalue = [1, 91]"] ;
56 -> 140 ;
395 [label="entropy = 0.0\nsamples = 78\nvalue = [0, 78]"] ;
140 -> 395 ;
396 [label="entropy = 0.371\nsamples = 14\nvalue = [1, 13]"] ;
140 -> 396 ;
26 [label="hbver <= 0.505\nentropy = 0.443\nsamples = 1140\nvalue = [105, 1035]"] ;
10 -> 26 ;
73 [label="hemoglobin <= 0.421\nentropy = 0.656\nsamples = 272\nvalue = [46, 226]"] ;
26 -> 73 ;
155 [label="entropy = 0.998\nsamples = 17\nvalue = [8, 9]"] ;
73 -> 155 ;
156 [label="erytrocyty <= 0.659\nentropy = 0.607\nsamples = 255\nvalue = [38, 217]"] ;
73 -> 156 ;
157 [label="erytrocyty <= 0.634\nentropy = 0.66\nsamples = 222\nvalue = [38, 184]"] ;
156 -> 157 ;
159 [label="hematokrit <= 0.637\nentropy = 0.597\nsamples = 207\nvalue = [30, 177]"] ;
157 -> 159 ;
161 [label="hemoglobin <= 0.53\nentropy = 0.787\nsamples = 85\nvalue = [20, 65]"] ;
159 -> 161 ;
163 [label="entropy = 0.94\nsamples = 14\nvalue = [9, 5]"] ;
161 -> 163 ;
164 [label="entropy = 0.622\nsamples = 71\nvalue = [11, 60]"] ;
161 -> 164 ;
162 [label="hemoglobin <= 0.594\nentropy = 0.409\nsamples = 122\nvalue = [10, 112]"] ;
159 -> 162 ;
225 [label="entropy = 0.515\nsamples = 87\nvalue = [10, 77]"] ;
162 -> 225 ;
226 [label="entropy = 0.0\nsamples = 35\nvalue = [0, 35]"] ;
162 -> 226 ;
160 [label="entropy = 0.997\nsamples = 15\nvalue = [8, 7]"] ;
157 -> 160 ;
158 [label="entropy = 0.0\nsamples = 33\nvalue = [0, 33]"] ;
156 -> 158 ;
74 [label="hemoglobin <= 0.695\nentropy = 0.358\nsamples = 868\nvalue = [59, 809]"] ;
26 -> 74 ;
145 [label="hbver <= 0.751\nentropy = 0.338\nsamples = 847\nvalue = [53, 794]"] ;
74 -> 145 ;
147 [label="erytrocyty <= 0.454\nentropy = 0.318\nsamples = 832\nvalue = [48, 784]"] ;
145 -> 147 ;
149 [label="hemoglobin <= 0.464\nentropy = 0.454\nsamples = 336\nvalue = [32, 304]"] ;
147 -> 149 ;
309 [label="hematokrit <= 0.613\nentropy = 0.641\nsamples = 86\nvalue = [14, 72]"] ;
149 -> 309 ;
311 [label="entropy = 0.927\nsamples = 38\nvalue = [13, 25]"] ;
309 -> 311 ;
312 [label="entropy = 0.146\nsamples = 48\nvalue = [1, 47]"] ;
309 -> 312 ;
310 [label="hematokrit <= 0.547\nentropy = 0.373\nsamples = 250\nvalue = [18, 232]"] ;
149 -> 310 ;
313 [label="entropy = 0.0\nsamples = 45\nvalue = [0, 45]"] ;
310 -> 313 ;
314 [label="entropy = 0.429\nsamples = 205\nvalue = [18, 187]"] ;
310 -> 314 ;
150 [label="hematokrit <= 0.613\nentropy = 0.206\nsamples = 496\nvalue = [16, 480]"] ;
147 -> 150 ;
227 [label="hemoglobin <= 0.583\nentropy = 0.297\nsamples = 248\nvalue = [13, 235]"] ;
150 -> 227 ;
229 [label="entropy = 0.371\nsamples = 182\nvalue = [13, 169]"] ;
227 -> 229 ;
230 [label="entropy = 0.0\nsamples = 66\nvalue = [0, 66]"] ;
227 -> 230 ;
228 [label="hbver <= 0.595\nentropy = 0.094\nsamples = 248\nvalue = [3, 245]"] ;
150 -> 228 ;
231 [label="entropy = 0.0\nsamples = 176\nvalue = [0, 176]"] ;
228 -> 231 ;
232 [label="entropy = 0.25\nsamples = 72\nvalue = [3, 69]"] ;
228 -> 232 ;
148 [label="entropy = 0.918\nsamples = 15\nvalue = [5, 10]"] ;
145 -> 148 ;
146 [label="entropy = 0.863\nsamples = 21\nvalue = [6, 15]"] ;
74 -> 146 ;
}