digraph Tree {
node [shape=box] ;
0 [label="hemoglobin <= 0.287\ngini = 0.458\nsamples = 7438\nvalue = [2636, 4802]"] ;
1 [label="hematokrit <= 0.439\ngini = 0.409\nsamples = 1370\nvalue = [978, 392]"] ;
0 -> 1 [labeldistance=2.5, labelangle=45, headlabel="True"] ;
2 [label="erytrocyty <= 0.391\ngini = 0.168\nsamples = 194\nvalue = [18, 176]"] ;
1 -> 2 ;
3 [label="hematokrit <= 0.417\ngini = 0.122\nsamples = 184\nvalue = [12, 172]"] ;
2 -> 3 ;
4 [label="hbver <= 0.309\ngini = 0.071\nsamples = 162\nvalue = [6, 156]"] ;
3 -> 4 ;
5 [label="hemoglobin <= 0.242\ngini = 0.48\nsamples = 5\nvalue = [2, 3]"] ;
4 -> 5 ;
6 [label="hematokrit <= 0.259\ngini = 0.444\nsamples = 3\nvalue = [2, 1]"] ;
5 -> 6 ;
7 [label="gini = 0.0\nsamples = 1\nvalue = [0, 1]"] ;
6 -> 7 ;
8 [label="gini = 0.0\nsamples = 2\nvalue = [2, 0]"] ;
6 -> 8 ;
9 [label="gini = 0.0\nsamples = 2\nvalue = [0, 2]"] ;
5 -> 9 ;
10 [label="er-cv <= 0.035\ngini = 0.05\nsamples = 157\nvalue = [4, 153]"] ;
4 -> 10 ;
11 [label="hematokrit <= 0.366\ngini = 0.5\nsamples = 2\nvalue = [1, 1]"] ;
10 -> 11 ;
12 [label="gini = 0.0\nsamples = 1\nvalue = [0, 1]"] ;
11 -> 12 ;
13 [label="gini = 0.0\nsamples = 1\nvalue = [1, 0]"] ;
11 -> 13 ;
14 [label="hbver <= 0.363\ngini = 0.038\nsamples = 155\nvalue = [3, 152]"] ;
10 -> 14 ;
15 [label="hbver <= 0.36\ngini = 0.219\nsamples = 8\nvalue = [1, 7]"] ;
14 -> 15 ;
16 [label="gini = 0.0\nsamples = 7\nvalue = [0, 7]"] ;
15 -> 16 ;
17 [label="gini = 0.0\nsamples = 1\nvalue = [1, 0]"] ;
15 -> 17 ;
18 [label="hbver <= 0.627\ngini = 0.027\nsamples = 147\nvalue = [2, 145]"] ;
14 -> 18 ;
19 [label="gini = 0.015\nsamples = 136\nvalue = [1, 135]"] ;
18 -> 19 ;
20 [label="gini = 0.165\nsamples = 11\nvalue = [1, 10]"] ;
18 -> 20 ;
21 [label="hbver <= 0.475\ngini = 0.397\nsamples = 22\nvalue = [6, 16]"] ;
3 -> 21 ;
22 [label="hbver <= 0.344\ngini = 0.48\nsamples = 15\nvalue = [6, 9]"] ;
21 -> 22 ;
23 [label="gini = 0.0\nsamples = 4\nvalue = [0, 4]"] ;
22 -> 23 ;
24 [label="erytrocyty <= 0.112\ngini = 0.496\nsamples = 11\nvalue = [6, 5]"] ;
22 -> 24 ;
25 [label="gini = 0.0\nsamples = 2\nvalue = [0, 2]"] ;
24 -> 25 ;
26 [label="er-cv <= 0.238\ngini = 0.444\nsamples = 9\nvalue = [6, 3]"] ;
24 -> 26 ;
27 [label="gini = 0.0\nsamples = 2\nvalue = [0, 2]"] ;
26 -> 27 ;
28 [label="gini = 0.245\nsamples = 7\nvalue = [6, 1]"] ;
26 -> 28 ;
29 [label="gini = 0.0\nsamples = 7\nvalue = [0, 7]"] ;
21 -> 29 ;
30 [label="hematokrit <= 0.378\ngini = 0.48\nsamples = 10\nvalue = [6, 4]"] ;
2 -> 30 ;
31 [label="gini = 0.0\nsamples = 3\nvalue = [0, 3]"] ;
30 -> 31 ;
32 [label="hbver <= 0.532\ngini = 0.245\nsamples = 7\nvalue = [6, 1]"] ;
30 -> 32 ;
33 [label="gini = 0.0\nsamples = 6\nvalue = [6, 0]"] ;
32 -> 33 ;
34 [label="gini = 0.0\nsamples = 1\nvalue = [0, 1]"] ;
32 -> 34 ;
35 [label="hemoglobin <= 0.206\ngini = 0.3\nsamples = 1176\nvalue = [960, 216]"] ;
1 -> 35 ;
36 [label="hematokrit <= 0.528\ngini = 0.179\nsamples = 675\nvalue = [608, 67]"] ;
35 -> 36 ;
37 [label="hbver <= 0.499\ngini = 0.465\nsamples = 49\nvalue = [31, 18]"] ;
36 -> 37 ;
38 [label="erytrocyty <= 0.157\ngini = 0.257\nsamples = 33\nvalue = [28, 5]"] ;
37 -> 38 ;
39 [label="er-cv <= 0.287\ngini = 0.32\nsamples = 5\nvalue = [1, 4]"] ;
38 -> 39 ;
40 [label="gini = 0.0\nsamples = 1\nvalue = [1, 0]"] ;
39 -> 40 ;
41 [label="gini = 0.0\nsamples = 4\nvalue = [0, 4]"] ;
39 -> 41 ;
42 [label="er-cv <= 0.174\ngini = 0.069\nsamples = 28\nvalue = [27, 1]"] ;
38 -> 42 ;
43 [label="gini = 0.0\nsamples = 1\nvalue = [0, 1]"] ;
42 -> 43 ;
44 [label="gini = 0.0\nsamples = 27\nvalue = [27, 0]"] ;
42 -> 44 ;
45 [label="erytrocyty <= 0.413\ngini = 0.305\nsamples = 16\nvalue = [3, 13]"] ;
37 -> 45 ;
46 [label="gini = 0.0\nsamples = 12\nvalue = [0, 12]"] ;
45 -> 46 ;
47 [label="erytrocyty <= 0.815\ngini = 0.375\nsamples = 4\nvalue = [3, 1]"] ;
45 -> 47 ;
48 [label="gini = 0.0\nsamples = 3\nvalue = [3, 0]"] ;
47 -> 48 ;
49 [label="gini = 0.0\nsamples = 1\nvalue = [0, 1]"] ;
47 -> 49 ;
50 [label="hematokrit <= 0.837\ngini = 0.144\nsamples = 626\nvalue = [577, 49]"] ;
36 -> 50 ;
51 [label="hbver <= 0.804\ngini = 0.109\nsamples = 569\nvalue = [536, 33]"] ;
50 -> 51 ;
52 [label="hbver <= 0.67\ngini = 0.095\nsamples = 561\nvalue = [533, 28]"] ;
51 -> 52 ;
53 [label="hematokrit <= 0.805\ngini = 0.051\nsamples = 458\nvalue = [446, 12]"] ;
52 -> 53 ;
54 [label="gini = 0.04\nsamples = 437\nvalue = [428, 9]"] ;
53 -> 54 ;
55 [label="gini = 0.245\nsamples = 21\nvalue = [18, 3]"] ;
53 -> 55 ;
56 [label="erytrocyty <= 0.595\ngini = 0.262\nsamples = 103\nvalue = [87, 16]"] ;
52 -> 56 ;
57 [label="gini = 0.473\nsamples = 13\nvalue = [5, 8]"] ;
56 -> 57 ;
58 [label="gini = 0.162\nsamples = 90\nvalue = [82, 8]"] ;
56 -> 58 ;
59 [label="hematokrit <= 0.757\ngini = 0.469\nsamples = 8\nvalue = [3, 5]"] ;
51 -> 59 ;
60 [label="gini = 0.0\nsamples = 5\nvalue = [0, 5]"] ;
59 -> 60 ;
61 [label="gini = 0.0\nsamples = 3\nvalue = [3, 0]"] ;
59 -> 61 ;
62 [label="er-cv <= 0.458\ngini = 0.404\nsamples = 57\nvalue = [41, 16]"] ;
50 -> 62 ;
63 [label="hbver <= 0.704\ngini = 0.499\nsamples = 19\nvalue = [9, 10]"] ;
62 -> 63 ;
64 [label="erytrocyty <= 0.466\ngini = 0.408\nsamples = 14\nvalue = [4, 10]"] ;
63 -> 64 ;
65 [label="gini = 0.0\nsamples = 3\nvalue = [3, 0]"] ;
64 -> 65 ;
66 [label="gini = 0.165\nsamples = 11\nvalue = [1, 10]"] ;
64 -> 66 ;
67 [label="gini = 0.0\nsamples = 5\nvalue = [5, 0]"] ;
63 -> 67 ;
68 [label="hematokrit <= 0.84\ngini = 0.266\nsamples = 38\nvalue = [32, 6]"] ;
62 -> 68 ;
69 [label="gini = 0.0\nsamples = 1\nvalue = [0, 1]"] ;
68 -> 69 ;
70 [label="er-cv <= 0.88\ngini = 0.234\nsamples = 37\nvalue = [32, 5]"] ;
68 -> 70 ;
71 [label="gini = 0.198\nsamples = 36\nvalue = [32, 4]"] ;
70 -> 71 ;
72 [label="gini = 0.0\nsamples = 1\nvalue = [0, 1]"] ;
70 -> 72 ;
73 [label="hbver <= 0.644\ngini = 0.418\nsamples = 501\nvalue = [352, 149]"] ;
35 -> 73 ;
74 [label="hematokrit <= 0.698\ngini = 0.333\nsamples = 355\nvalue = [280, 75]"] ;
73 -> 74 ;
75 [label="hematokrit <= 0.508\ngini = 0.252\nsamples = 284\nvalue = [242, 42]"] ;
74 -> 75 ;
76 [label="erytrocyty <= 0.321\ngini = 0.468\nsamples = 75\nvalue = [47, 28]"] ;
75 -> 76 ;
77 [label="hemoglobin <= 0.237\ngini = 0.476\nsamples = 41\nvalue = [16, 25]"] ;
76 -> 77 ;
78 [label="gini = 0.219\nsamples = 16\nvalue = [2, 14]"] ;
77 -> 78 ;
79 [label="gini = 0.493\nsamples = 25\nvalue = [14, 11]"] ;
77 -> 79 ;
80 [label="er-cv <= 0.836\ngini = 0.161\nsamples = 34\nvalue = [31, 3]"] ;
76 -> 80 ;
81 [label="gini = 0.114\nsamples = 33\nvalue = [31, 2]"] ;
80 -> 81 ;
82 [label="gini = 0.0\nsamples = 1\nvalue = [0, 1]"] ;
80 -> 82 ;
83 [label="hemoglobin <= 0.287\ngini = 0.125\nsamples = 209\nvalue = [195, 14]"] ;
75 -> 83 ;
84 [label="hbver <= 0.521\ngini = 0.117\nsamples = 208\nvalue = [195, 13]"] ;
83 -> 84 ;
85 [label="gini = 0.214\nsamples = 82\nvalue = [72, 10]"] ;
84 -> 85 ;
86 [label="gini = 0.046\nsamples = 126\nvalue = [123, 3]"] ;
84 -> 86 ;
87 [label="gini = 0.0\nsamples = 1\nvalue = [0, 1]"] ;
83 -> 87 ;
88 [label="hbver <= 0.517\ngini = 0.498\nsamples = 71\nvalue = [38, 33]"] ;
74 -> 88 ;
89 [label="hematokrit <= 0.969\ngini = 0.184\nsamples = 39\nvalue = [35, 4]"] ;
88 -> 89 ;
90 [label="erytrocyty <= 0.637\ngini = 0.145\nsamples = 38\nvalue = [35, 3]"] ;
89 -> 90 ;
91 [label="gini = 0.059\nsamples = 33\nvalue = [32, 1]"] ;
90 -> 91 ;
92 [label="gini = 0.48\nsamples = 5\nvalue = [3, 2]"] ;
90 -> 92 ;
93 [label="gini = 0.0\nsamples = 1\nvalue = [0, 1]"] ;
89 -> 93 ;
94 [label="erytrocyty <= 0.295\ngini = 0.17\nsamples = 32\nvalue = [3, 29]"] ;
88 -> 94 ;
95 [label="gini = 0.0\nsamples = 3\nvalue = [3, 0]"] ;
94 -> 95 ;
96 [label="gini = 0.0\nsamples = 29\nvalue = [0, 29]"] ;
94 -> 96 ;
97 [label="erytrocyty <= 0.603\ngini = 0.5\nsamples = 146\nvalue = [72, 74]"] ;
73 -> 97 ;
98 [label="hematokrit <= 0.687\ngini = 0.412\nsamples = 62\nvalue = [18, 44]"] ;
97 -> 98 ;
99 [label="hbver <= 0.67\ngini = 0.114\nsamples = 33\nvalue = [2, 31]"] ;
98 -> 99 ;
100 [label="hematokrit <= 0.662\ngini = 0.48\nsamples = 5\nvalue = [2, 3]"] ;
99 -> 100 ;
101 [label="gini = 0.0\nsamples = 2\nvalue = [0, 2]"] ;
100 -> 101 ;
102 [label="gini = 0.444\nsamples = 3\nvalue = [2, 1]"] ;
100 -> 102 ;
103 [label="gini = 0.0\nsamples = 28\nvalue = [0, 28]"] ;
99 -> 103 ;
104 [label="er-cv <= 0.398\ngini = 0.495\nsamples = 29\nvalue = [16, 13]"] ;
98 -> 104 ;
105 [label="hbver <= 0.744\ngini = 0.32\nsamples = 10\nvalue = [2, 8]"] ;
104 -> 105 ;
106 [label="gini = 0.198\nsamples = 9\nvalue = [1, 8]"] ;
105 -> 106 ;
107 [label="gini = 0.0\nsamples = 1\nvalue = [1, 0]"] ;
105 -> 107 ;
108 [label="hbver <= 0.682\ngini = 0.388\nsamples = 19\nvalue = [14, 5]"] ;
104 -> 108 ;
109 [label="gini = 0.5\nsamples = 8\nvalue = [4, 4]"] ;
108 -> 109 ;
110 [label="gini = 0.165\nsamples = 11\nvalue = [10, 1]"] ;
108 -> 110 ;
111 [label="hematokrit <= 0.825\ngini = 0.459\nsamples = 84\nvalue = [54, 30]"] ;
97 -> 111 ;
112 [label="hbver <= 0.856\ngini = 0.444\nsamples = 81\nvalue = [54, 27]"] ;
111 -> 112 ;
113 [label="hbver <= 0.811\ngini = 0.429\nsamples = 77\nvalue = [53, 24]"] ;
112 -> 113 ;
114 [label="gini = 0.448\nsamples = 71\nvalue = [47, 24]"] ;
113 -> 114 ;
115 [label="gini = 0.0\nsamples = 6\nvalue = [6, 0]"] ;
113 -> 115 ;
116 [label="er-cv <= 0.269\ngini = 0.375\nsamples = 4\nvalue = [1, 3]"] ;
112 -> 116 ;
117 [label="gini = 0.0\nsamples = 1\nvalue = [1, 0]"] ;
116 -> 117 ;
118 [label="gini = 0.0\nsamples = 3\nvalue = [0, 3]"] ;
116 -> 118 ;
119 [label="gini = 0.0\nsamples = 3\nvalue = [0, 3]"] ;
111 -> 119 ;
120 [label="hematokrit <= 0.405\ngini = 0.397\nsamples = 6068\nvalue = [1658, 4410]"] ;
0 -> 120 [labeldistance=2.5, labelangle=-45, headlabel="False"] ;
121 [label="erytrocyty <= 0.193\ngini = 0.189\nsamples = 1996\nvalue = [211, 1785]"] ;
120 -> 121 ;
122 [label="hemoglobin <= 0.634\ngini = 0.427\nsamples = 55\nvalue = [38, 17]"] ;
121 -> 122 ;
123 [label="hbver <= 0.356\ngini = 0.273\nsamples = 43\nvalue = [36, 7]"] ;
122 -> 123 ;
124 [label="hematokrit <= 0.289\ngini = 0.408\nsamples = 7\nvalue = [2, 5]"] ;
123 -> 124 ;
125 [label="gini = 0.0\nsamples = 2\nvalue = [2, 0]"] ;
124 -> 125 ;
126 [label="gini = 0.0\nsamples = 5\nvalue = [0, 5]"] ;
124 -> 126 ;
127 [label="hbver <= 0.468\ngini = 0.105\nsamples = 36\nvalue = [34, 2]"] ;
123 -> 127 ;
128 [label="gini = 0.0\nsamples = 26\nvalue = [26, 0]"] ;
127 -> 128 ;
129 [label="hemoglobin <= 0.555\ngini = 0.32\nsamples = 10\nvalue = [8, 2]"] ;
127 -> 129 ;
130 [label="hbver <= 0.484\ngini = 0.198\nsamples = 9\nvalue = [8, 1]"] ;
129 -> 130 ;
131 [label="gini = 0.0\nsamples = 1\nvalue = [0, 1]"] ;
130 -> 131 ;
132 [label="gini = 0.0\nsamples = 8\nvalue = [8, 0]"] ;
130 -> 132 ;
133 [label="gini = 0.0\nsamples = 1\nvalue = [0, 1]"] ;
129 -> 133 ;
134 [label="erytrocyty <= 0.186\ngini = 0.278\nsamples = 12\nvalue = [2, 10]"] ;
122 -> 134 ;
135 [label="gini = 0.0\nsamples = 10\nvalue = [0, 10]"] ;
134 -> 135 ;
136 [label="gini = 0.0\nsamples = 2\nvalue = [2, 0]"] ;
134 -> 136 ;
137 [label="hbver <= 0.374\ngini = 0.162\nsamples = 1941\nvalue = [173, 1768]"] ;
121 -> 137 ;
138 [label="hematokrit <= 0.3\ngini = 0.093\nsamples = 1209\nvalue = [59, 1150]"] ;
137 -> 138 ;
139 [label="erytrocyty <= 0.97\ngini = 0.048\nsamples = 572\nvalue = [14, 558]"] ;
138 -> 139 ;
140 [label="hemoglobin <= 0.759\ngini = 0.045\nsamples = 570\nvalue = [13, 557]"] ;
139 -> 140 ;
141 [label="hbver <= 0.089\ngini = 0.025\nsamples = 480\nvalue = [6, 474]"] ;
140 -> 141 ;
142 [label="gini = 0.444\nsamples = 3\nvalue = [1, 2]"] ;
141 -> 142 ;
143 [label="gini = 0.021\nsamples = 477\nvalue = [5, 472]"] ;
141 -> 143 ;
144 [label="erytrocyty <= 0.599\ngini = 0.143\nsamples = 90\nvalue = [7, 83]"] ;
140 -> 144 ;
145 [label="gini = 0.375\nsamples = 4\nvalue = [3, 1]"] ;
144 -> 145 ;
146 [label="gini = 0.089\nsamples = 86\nvalue = [4, 82]"] ;
144 -> 146 ;
147 [label="er-cv <= 0.57\ngini = 0.5\nsamples = 2\nvalue = [1, 1]"] ;
139 -> 147 ;
148 [label="gini = 0.0\nsamples = 1\nvalue = [1, 0]"] ;
147 -> 148 ;
149 [label="gini = 0.0\nsamples = 1\nvalue = [0, 1]"] ;
147 -> 149 ;
150 [label="hematokrit <= 0.3\ngini = 0.131\nsamples = 637\nvalue = [45, 592]"] ;
138 -> 150 ;
151 [label="gini = 0.0\nsamples = 1\nvalue = [1, 0]"] ;
150 -> 151 ;
152 [label="erytrocyty <= 0.578\ngini = 0.129\nsamples = 636\nvalue = [44, 592]"] ;
150 -> 152 ;
153 [label="hemoglobin <= 0.73\ngini = 0.179\nsamples = 342\nvalue = [34, 308]"] ;
152 -> 153 ;
154 [label="gini = 0.157\nsamples = 337\nvalue = [29, 308]"] ;
153 -> 154 ;
155 [label="gini = 0.0\nsamples = 5\nvalue = [5, 0]"] ;
153 -> 155 ;
156 [label="hemoglobin <= 0.89\ngini = 0.066\nsamples = 294\nvalue = [10, 284]"] ;
152 -> 156 ;
157 [label="gini = 0.049\nsamples = 280\nvalue = [7, 273]"] ;
156 -> 157 ;
158 [label="gini = 0.337\nsamples = 14\nvalue = [3, 11]"] ;
156 -> 158 ;
159 [label="hemoglobin <= 0.513\ngini = 0.263\nsamples = 732\nvalue = [114, 618]"] ;
137 -> 159 ;
160 [label="erytrocyty <= 0.237\ngini = 0.187\nsamples = 441\nvalue = [46, 395]"] ;
159 -> 160 ;
161 [label="erytrocyty <= 0.2\ngini = 0.473\nsamples = 13\nvalue = [8, 5]"] ;
160 -> 161 ;
162 [label="gini = 0.0\nsamples = 5\nvalue = [0, 5]"] ;
161 -> 162 ;
163 [label="gini = 0.0\nsamples = 8\nvalue = [8, 0]"] ;
161 -> 163 ;
164 [label="hematokrit <= 0.325\ngini = 0.162\nsamples = 428\nvalue = [38, 390]"] ;
160 -> 164 ;
165 [label="er-cv <= 0.737\ngini = 0.094\nsamples = 242\nvalue = [12, 230]"] ;
164 -> 165 ;
166 [label="gini = 0.054\nsamples = 215\nvalue = [6, 209]"] ;
165 -> 166 ;
167 [label="gini = 0.346\nsamples = 27\nvalue = [6, 21]"] ;
165 -> 167 ;
168 [label="hbver <= 0.456\ngini = 0.24\nsamples = 186\nvalue = [26, 160]"] ;
164 -> 168 ;
169 [label="gini = 0.124\nsamples = 90\nvalue = [6, 84]"] ;
168 -> 169 ;
170 [label="gini = 0.33\nsamples = 96\nvalue = [20, 76]"] ;
168 -> 170 ;
171 [label="hbver <= 0.604\ngini = 0.358\nsamples = 291\nvalue = [68, 223]"] ;
159 -> 171 ;
172 [label="erytrocyty <= 0.513\ngini = 0.454\nsamples = 184\nvalue = [64, 120]"] ;
171 -> 172 ;
173 [label="hemoglobin <= 0.755\ngini = 0.441\nsamples = 73\nvalue = [49, 24]"] ;
172 -> 173 ;
174 [label="gini = 0.282\nsamples = 53\nvalue = [44, 9]"] ;
173 -> 174 ;
175 [label="gini = 0.375\nsamples = 20\nvalue = [5, 15]"] ;
173 -> 175 ;
176 [label="hemoglobin <= 0.671\ngini = 0.234\nsamples = 111\nvalue = [15, 96]"] ;
172 -> 176 ;
177 [label="gini = 0.112\nsamples = 84\nvalue = [5, 79]"] ;
176 -> 177 ;
178 [label="gini = 0.466\nsamples = 27\nvalue = [10, 17]"] ;
176 -> 178 ;
179 [label="er-cv <= 0.113\ngini = 0.072\nsamples = 107\nvalue = [4, 103]"] ;
171 -> 179 ;
180 [label="gini = 0.0\nsamples = 1\nvalue = [1, 0]"] ;
179 -> 180 ;
181 [label="hematokrit <= 0.253\ngini = 0.055\nsamples = 106\nvalue = [3, 103]"] ;
179 -> 181 ;
182 [label="gini = 0.444\nsamples = 6\nvalue = [2, 4]"] ;
181 -> 182 ;
183 [label="gini = 0.02\nsamples = 100\nvalue = [1, 99]"] ;
181 -> 183 ;
184 [label="hbver <= 0.426\ngini = 0.458\nsamples = 4072\nvalue = [1447, 2625]"] ;
120 -> 184 ;
185 [label="hematokrit <= 0.485\ngini = 0.475\nsamples = 1473\nvalue = [900, 573]"] ;
184 -> 185 ;
186 [label="erytrocyty <= 0.197\ngini = 0.403\nsamples = 447\nvalue = [125, 322]"] ;
185 -> 186 ;
187 [label="hbver <= 0.313\ngini = 0.245\nsamples = 7\nvalue = [6, 1]"] ;
186 -> 187 ;
188 [label="gini = 0.0\nsamples = 1\nvalue = [0, 1]"] ;
187 -> 188 ;
189 [label="gini = 0.0\nsamples = 6\nvalue = [6, 0]"] ;
187 -> 189 ;
190 [label="hemoglobin <= 0.866\ngini = 0.395\nsamples = 440\nvalue = [119, 321]"] ;
186 -> 190 ;
191 [label="hbver <= 0.235\ngini = 0.387\nsamples = 434\nvalue = [114, 320]"] ;
190 -> 191 ;
192 [label="hemoglobin <= 0.412\ngini = 0.233\nsamples = 89\nvalue = [12, 77]"] ;
191 -> 192 ;
193 [label="gini = 0.0\nsamples = 3\nvalue = [3, 0]"] ;
192 -> 193 ;
194 [label="gini = 0.187\nsamples = 86\nvalue = [9, 77]"] ;
192 -> 194 ;
195 [label="hemoglobin <= 0.682\ngini = 0.416\nsamples = 345\nvalue = [102, 243]"] ;
191 -> 195 ;
196 [label="gini = 0.382\nsamples = 303\nvalue = [78, 225]"] ;
195 -> 196 ;
197 [label="gini = 0.49\nsamples = 42\nvalue = [24, 18]"] ;
195 -> 197 ;
198 [label="hematokrit <= 0.474\ngini = 0.278\nsamples = 6\nvalue = [5, 1]"] ;
190 -> 198 ;
199 [label="gini = 0.0\nsamples = 5\nvalue = [5, 0]"] ;
198 -> 199 ;
200 [label="gini = 0.0\nsamples = 1\nvalue = [0, 1]"] ;
198 -> 200 ;
201 [label="erytrocyty <= 0.449\ngini = 0.37\nsamples = 1026\nvalue = [775, 251]"] ;
185 -> 201 ;
202 [label="hemoglobin <= 0.617\ngini = 0.488\nsamples = 281\nvalue = [162, 119]"] ;
201 -> 202 ;
203 [label="hematokrit <= 0.525\ngini = 0.451\nsamples = 236\nvalue = [155, 81]"] ;
202 -> 203 ;
204 [label="hematokrit <= 0.49\ngini = 0.492\nsamples = 57\nvalue = [25, 32]"] ;
203 -> 204 ;
205 [label="gini = 0.298\nsamples = 11\nvalue = [9, 2]"] ;
204 -> 205 ;
206 [label="gini = 0.454\nsamples = 46\nvalue = [16, 30]"] ;
204 -> 206 ;
207 [label="hemoglobin <= 0.462\ngini = 0.398\nsamples = 179\nvalue = [130, 49]"] ;
203 -> 207 ;
208 [label="gini = 0.309\nsamples = 115\nvalue = [93, 22]"] ;
207 -> 208 ;
209 [label="gini = 0.488\nsamples = 64\nvalue = [37, 27]"] ;
207 -> 209 ;
210 [label="erytrocyty <= 0.423\ngini = 0.263\nsamples = 45\nvalue = [7, 38]"] ;
202 -> 210 ;
211 [label="hematokrit <= 0.795\ngini = 0.172\nsamples = 42\nvalue = [4, 38]"] ;
210 -> 211 ;
212 [label="gini = 0.136\nsamples = 41\nvalue = [3, 38]"] ;
211 -> 212 ;
213 [label="gini = 0.0\nsamples = 1\nvalue = [1, 0]"] ;
211 -> 213 ;
214 [label="gini = 0.0\nsamples = 3\nvalue = [3, 0]"] ;
210 -> 214 ;
215 [label="hematokrit <= 0.544\ngini = 0.292\nsamples = 745\nvalue = [613, 132]"] ;
201 -> 215 ;
216 [label="erytrocyty <= 0.718\ngini = 0.468\nsamples = 155\nvalue = [97, 58]"] ;
215 -> 216 ;
217 [label="hbver <= 0.413\ngini = 0.45\nsamples = 143\nvalue = [94, 49]"] ;
216 -> 217 ;
218 [label="gini = 0.432\nsamples = 136\nvalue = [93, 43]"] ;
217 -> 218 ;
219 [label="gini = 0.245\nsamples = 7\nvalue = [1, 6]"] ;
217 -> 219 ;
220 [label="hemoglobin <= 0.654\ngini = 0.375\nsamples = 12\nvalue = [3, 9]"] ;
216 -> 220 ;
221 [label="gini = 0.375\nsamples = 4\nvalue = [3, 1]"] ;
220 -> 221 ;
222 [label="gini = 0.0\nsamples = 8\nvalue = [0, 8]"] ;
220 -> 222 ;
223 [label="hbver <= 0.367\ngini = 0.219\nsamples = 590\nvalue = [516, 74]"] ;
215 -> 223 ;
224 [label="hematokrit <= 0.577\ngini = 0.129\nsamples = 461\nvalue = [429, 32]"] ;
223 -> 224 ;
225 [label="gini = 0.355\nsamples = 52\nvalue = [40, 12]"] ;
224 -> 225 ;
226 [label="gini = 0.093\nsamples = 409\nvalue = [389, 20]"] ;
224 -> 226 ;
227 [label="hematokrit <= 0.834\ngini = 0.439\nsamples = 129\nvalue = [87, 42]"] ;
223 -> 227 ;
228 [label="gini = 0.405\nsamples = 117\nvalue = [84, 33]"] ;
227 -> 228 ;
229 [label="gini = 0.375\nsamples = 12\nvalue = [3, 9]"] ;
227 -> 229 ;
230 [label="hemoglobin <= 0.386\ngini = 0.332\nsamples = 2599\nvalue = [547, 2052]"] ;
184 -> 230 ;
231 [label="hematokrit <= 0.597\ngini = 0.473\nsamples = 677\nvalue = [260, 417]"] ;
230 -> 231 ;
232 [label="hbver <= 0.726\ngini = 0.482\nsamples = 316\nvalue = [188, 128]"] ;
231 -> 232 ;
233 [label="hbver <= 0.492\ngini = 0.399\nsamples = 251\nvalue = [182, 69]"] ;
232 -> 233 ;
234 [label="erytrocyty <= 0.224\ngini = 0.498\nsamples = 47\nvalue = [22, 25]"] ;
233 -> 234 ;
235 [label="gini = 0.0\nsamples = 11\nvalue = [11, 0]"] ;
234 -> 235 ;
236 [label="gini = 0.424\nsamples = 36\nvalue = [11, 25]"] ;
234 -> 236 ;
237 [label="hbver <= 0.67\ngini = 0.338\nsamples = 204\nvalue = [160, 44]"] ;
233 -> 237 ;
238 [label="gini = 0.275\nsamples = 170\nvalue = [142, 28]"] ;
237 -> 238 ;
239 [label="gini = 0.498\nsamples = 34\nvalue = [18, 16]"] ;
237 -> 239 ;
240 [label="erytrocyty <= 0.795\ngini = 0.168\nsamples = 65\nvalue = [6, 59]"] ;
232 -> 240 ;
241 [label="erytrocyty <= 0.305\ngini = 0.071\nsamples = 54\nvalue = [2, 52]"] ;
240 -> 241 ;
242 [label="gini = 0.48\nsamples = 5\nvalue = [2, 3]"] ;
241 -> 242 ;
243 [label="gini = 0.0\nsamples = 49\nvalue = [0, 49]"] ;
241 -> 243 ;
244 [label="hbver <= 0.742\ngini = 0.463\nsamples = 11\nvalue = [4, 7]"] ;
240 -> 244 ;
245 [label="gini = 0.0\nsamples = 3\nvalue = [3, 0]"] ;
244 -> 245 ;
246 [label="gini = 0.219\nsamples = 8\nvalue = [1, 7]"] ;
244 -> 246 ;
247 [label="hbver <= 0.734\ngini = 0.319\nsamples = 361\nvalue = [72, 289]"] ;
231 -> 247 ;
248 [label="erytrocyty <= 0.393\ngini = 0.28\nsamples = 332\nvalue = [56, 276]"] ;
247 -> 248 ;
249 [label="hemoglobin <= 0.335\ngini = 0.484\nsamples = 68\nvalue = [28, 40]"] ;
248 -> 249 ;
250 [label="gini = 0.482\nsamples = 32\nvalue = [19, 13]"] ;
249 -> 250 ;
251 [label="gini = 0.375\nsamples = 36\nvalue = [9, 27]"] ;
249 -> 251 ;
252 [label="hematokrit <= 0.652\ngini = 0.19\nsamples = 264\nvalue = [28, 236]"] ;
248 -> 252 ;
253 [label="gini = 0.408\nsamples = 70\nvalue = [20, 50]"] ;
252 -> 253 ;
254 [label="gini = 0.079\nsamples = 194\nvalue = [8, 186]"] ;
252 -> 254 ;
255 [label="hematokrit <= 0.627\ngini = 0.495\nsamples = 29\nvalue = [16, 13]"] ;
247 -> 255 ;
256 [label="erytrocyty <= 0.785\ngini = 0.198\nsamples = 9\nvalue = [1, 8]"] ;
255 -> 256 ;
257 [label="gini = 0.0\nsamples = 8\nvalue = [0, 8]"] ;
256 -> 257 ;
258 [label="gini = 0.0\nsamples = 1\nvalue = [1, 0]"] ;
256 -> 258 ;
259 [label="hbver <= 0.769\ngini = 0.375\nsamples = 20\nvalue = [15, 5]"] ;
255 -> 259 ;
260 [label="gini = 0.496\nsamples = 11\nvalue = [6, 5]"] ;
259 -> 260 ;
261 [label="gini = 0.0\nsamples = 9\nvalue = [9, 0]"] ;
259 -> 261 ;
262 [label="hbver <= 0.472\ngini = 0.254\nsamples = 1922\nvalue = [287, 1635]"] ;
230 -> 262 ;
263 [label="hemoglobin <= 0.66\ngini = 0.435\nsamples = 238\nvalue = [76, 162]"] ;
262 -> 263 ;
264 [label="hematokrit <= 0.662\ngini = 0.473\nsamples = 172\nvalue = [66, 106]"] ;
263 -> 264 ;
265 [label="erytrocyty <= 0.442\ngini = 0.499\nsamples = 92\nvalue = [48, 44]"] ;
264 -> 265 ;
266 [label="gini = 0.337\nsamples = 28\nvalue = [22, 6]"] ;
265 -> 266 ;
267 [label="gini = 0.482\nsamples = 64\nvalue = [26, 38]"] ;
265 -> 267 ;
268 [label="hemoglobin <= 0.423\ngini = 0.349\nsamples = 80\nvalue = [18, 62]"] ;
264 -> 268 ;
269 [label="gini = 0.469\nsamples = 8\nvalue = [5, 3]"] ;
268 -> 269 ;
270 [label="gini = 0.296\nsamples = 72\nvalue = [13, 59]"] ;
268 -> 270 ;
271 [label="hbver <= 0.43\ngini = 0.257\nsamples = 66\nvalue = [10, 56]"] ;
263 -> 271 ;
272 [label="hemoglobin <= 0.689\ngini = 0.5\nsamples = 6\nvalue = [3, 3]"] ;
271 -> 272 ;
273 [label="gini = 0.0\nsamples = 3\nvalue = [3, 0]"] ;
272 -> 273 ;
274 [label="gini = 0.0\nsamples = 3\nvalue = [0, 3]"] ;
272 -> 274 ;
275 [label="hbver <= 0.472\ngini = 0.206\nsamples = 60\nvalue = [7, 53]"] ;
271 -> 275 ;
276 [label="gini = 0.183\nsamples = 59\nvalue = [6, 53]"] ;
275 -> 276 ;
277 [label="gini = 0.0\nsamples = 1\nvalue = [1, 0]"] ;
275 -> 277 ;
278 [label="hematokrit <= 0.527\ngini = 0.219\nsamples = 1684\nvalue = [211, 1473]"] ;
262 -> 278 ;
279 [label="hemoglobin <= 0.476\ngini = 0.329\nsamples = 573\nvalue = [119, 454]"] ;
278 -> 279 ;
280 [label="hbver <= 0.667\ngini = 0.494\nsamples = 150\nvalue = [67, 83]"] ;
279 -> 280 ;
281 [label="gini = 0.407\nsamples = 81\nvalue = [58, 23]"] ;
280 -> 281 ;
282 [label="gini = 0.227\nsamples = 69\nvalue = [9, 60]"] ;
280 -> 282 ;
283 [label="hbver <= 0.496\ngini = 0.216\nsamples = 423\nvalue = [52, 371]"] ;
279 -> 283 ;
284 [label="gini = 0.459\nsamples = 28\nvalue = [10, 18]"] ;
283 -> 284 ;
285 [label="gini = 0.19\nsamples = 395\nvalue = [42, 353]"] ;
283 -> 285 ;
286 [label="hbver <= 0.794\ngini = 0.152\nsamples = 1111\nvalue = [92, 1019]"] ;
278 -> 286 ;
287 [label="erytrocyty <= 0.116\ngini = 0.145\nsamples = 1105\nvalue = [87, 1018]"] ;
286 -> 287 ;
288 [label="gini = 0.496\nsamples = 11\nvalue = [5, 6]"] ;
287 -> 288 ;
289 [label="gini = 0.139\nsamples = 1094\nvalue = [82, 1012]"] ;
287 -> 289 ;
290 [label="hematokrit <= 0.572\ngini = 0.278\nsamples = 6\nvalue = [5, 1]"] ;
286 -> 290 ;
291 [label="gini = 0.0\nsamples = 1\nvalue = [0, 1]"] ;
290 -> 291 ;
292 [label="gini = 0.0\nsamples = 5\nvalue = [5, 0]"] ;
290 -> 292 ;
}