digraph Tree {
node [shape=box] ;
0 [label="hematokrit <= 0.422\nentropy = 0.938\nsamples = 7438\nvalue = [2636, 4802]"] ;
1 [label="hbver <= 0.343\nentropy = 0.513\nsamples = 2370\nvalue = [271, 2099]"] ;
0 -> 1 [labeldistance=2.5, labelangle=45, headlabel="True"] ;
2 [label="hematokrit <= 0.404\nentropy = 0.301\nsamples = 1122\nvalue = [60, 1062]"] ;
1 -> 2 ;
3 [label="erytrocyty <= 0.617\nentropy = 0.259\nsamples = 1028\nvalue = [45, 983]"] ;
2 -> 3 ;
4 [label="hemoglobin <= 0.713\nentropy = 0.322\nsamples = 596\nvalue = [35, 561]"] ;
3 -> 4 ;
5 [label="erytrocyty <= 0.196\nentropy = 0.266\nsamples = 575\nvalue = [26, 549]"] ;
4 -> 5 ;
6 [label="erytrocyty <= 0.181\nentropy = 0.881\nsamples = 10\nvalue = [3, 7]"] ;
5 -> 6 ;
7 [label="hemoglobin <= 0.22\nentropy = 0.544\nsamples = 8\nvalue = [1, 7]"] ;
6 -> 7 ;
8 [label="entropy = 0.0\nsamples = 1\nvalue = [1, 0]"] ;
7 -> 8 ;
9 [label="entropy = 0.0\nsamples = 7\nvalue = [0, 7]"] ;
7 -> 9 ;
10 [label="entropy = 0.0\nsamples = 2\nvalue = [2, 0]"] ;
6 -> 10 ;
11 [label="hematokrit <= 0.306\nentropy = 0.246\nsamples = 565\nvalue = [23, 542]"] ;
5 -> 11 ;
12 [label="hbver <= 0.169\nentropy = 0.09\nsamples = 264\nvalue = [3, 261]"] ;
11 -> 12 ;
13 [label="hbver <= 0.161\nentropy = 0.619\nsamples = 13\nvalue = [2, 11]"] ;
12 -> 13 ;
14 [label="entropy = 0.0\nsamples = 8\nvalue = [0, 8]"] ;
13 -> 14 ;
15 [label="er-cv <= 0.473\nentropy = 0.971\nsamples = 5\nvalue = [2, 3]"] ;
13 -> 15 ;
16 [label="entropy = 0.0\nsamples = 3\nvalue = [0, 3]"] ;
15 -> 16 ;
17 [label="entropy = 0.0\nsamples = 2\nvalue = [2, 0]"] ;
15 -> 17 ;
18 [label="hematokrit <= 0.288\nentropy = 0.037\nsamples = 251\nvalue = [1, 250]"] ;
12 -> 18 ;
19 [label="entropy = 0.0\nsamples = 201\nvalue = [0, 201]"] ;
18 -> 19 ;
20 [label="hematokrit <= 0.288\nentropy = 0.141\nsamples = 50\nvalue = [1, 49]"] ;
18 -> 20 ;
21 [label="entropy = 0.0\nsamples = 1\nvalue = [1, 0]"] ;
20 -> 21 ;
22 [label="entropy = 0.0\nsamples = 49\nvalue = [0, 49]"] ;
20 -> 22 ;
23 [label="hematokrit <= 0.307\nentropy = 0.353\nsamples = 301\nvalue = [20, 281]"] ;
11 -> 23 ;
24 [label="entropy = 0.0\nsamples = 2\nvalue = [2, 0]"] ;
23 -> 24 ;
25 [label="erytrocyty <= 0.578\nentropy = 0.328\nsamples = 299\nvalue = [18, 281]"] ;
23 -> 25 ;
26 [label="hbver <= 0.327\nentropy = 0.368\nsamples = 255\nvalue = [18, 237]"] ;
25 -> 26 ;
27 [label="erytrocyty <= 0.576\nentropy = 0.41\nsamples = 219\nvalue = [18, 201]"] ;
26 -> 27 ;
28 [label="hbver <= 0.326\nentropy = 0.395\nsamples = 218\nvalue = [17, 201]"] ;
27 -> 28 ;
29 [label="hemoglobin <= 0.491\nentropy = 0.38\nsamples = 217\nvalue = [16, 201]"] ;
28 -> 29 ;
30 [label="erytrocyty <= 0.532\nentropy = 0.161\nsamples = 85\nvalue = [2, 83]"] ;
29 -> 30 ;
31 [label="hematokrit <= 0.395\nentropy = 0.093\nsamples = 84\nvalue = [1, 83]"] ;
30 -> 31 ;
32 [label="entropy = 0.0\nsamples = 73\nvalue = [0, 73]"] ;
31 -> 32 ;
33 [label="hematokrit <= 0.395\nentropy = 0.439\nsamples = 11\nvalue = [1, 10]"] ;
31 -> 33 ;
34 [label="entropy = 0.0\nsamples = 1\nvalue = [1, 0]"] ;
33 -> 34 ;
35 [label="entropy = 0.0\nsamples = 10\nvalue = [0, 10]"] ;
33 -> 35 ;
36 [label="entropy = 0.0\nsamples = 1\nvalue = [1, 0]"] ;
30 -> 36 ;
37 [label="hematokrit <= 0.323\nentropy = 0.488\nsamples = 132\nvalue = [14, 118]"] ;
29 -> 37 ;
38 [label="entropy = 0.0\nsamples = 24\nvalue = [0, 24]"] ;
37 -> 38 ;
39 [label="hemoglobin <= 0.608\nentropy = 0.556\nsamples = 108\nvalue = [14, 94]"] ;
37 -> 39 ;
40 [label="hemoglobin <= 0.592\nentropy = 0.624\nsamples = 90\nvalue = [14, 76]"] ;
39 -> 40 ;
41 [label="hemoglobin <= 0.565\nentropy = 0.56\nsamples = 84\nvalue = [11, 73]"] ;
40 -> 41 ;
42 [label="erytrocyty <= 0.363\nentropy = 0.656\nsamples = 65\nvalue = [11, 54]"] ;
41 -> 42 ;
43 [label="entropy = 0.0\nsamples = 2\nvalue = [2, 0]"] ;
42 -> 43 ;
44 [label="erytrocyty <= 0.504\nentropy = 0.592\nsamples = 63\nvalue = [9, 54]"] ;
42 -> 44 ;
45 [label="hemoglobin <= 0.491\nentropy = 0.365\nsamples = 43\nvalue = [3, 40]"] ;
44 -> 45 ;
46 [label="entropy = 0.0\nsamples = 1\nvalue = [1, 0]"] ;
45 -> 46 ;
47 [label="hematokrit <= 0.398\nentropy = 0.276\nsamples = 42\nvalue = [2, 40]"] ;
45 -> 47 ;
48 [label="hbver <= 0.134\nentropy = 0.165\nsamples = 41\nvalue = [1, 40]"] ;
47 -> 48 ;
49 [label="erytrocyty <= 0.426\nentropy = 0.918\nsamples = 3\nvalue = [1, 2]"] ;
48 -> 49 ;
50 [label="entropy = 0.0\nsamples = 1\nvalue = [1, 0]"] ;
49 -> 50 ;
51 [label="entropy = 0.0\nsamples = 2\nvalue = [0, 2]"] ;
49 -> 51 ;
52 [label="entropy = 0.0\nsamples = 38\nvalue = [0, 38]"] ;
48 -> 52 ;
53 [label="entropy = 0.0\nsamples = 1\nvalue = [1, 0]"] ;
47 -> 53 ;
54 [label="hemoglobin <= 0.562\nentropy = 0.881\nsamples = 20\nvalue = [6, 14]"] ;
44 -> 54 ;
55 [label="hemoglobin <= 0.546\nentropy = 0.764\nsamples = 18\nvalue = [4, 14]"] ;
54 -> 55 ;
56 [label="hbver <= 0.322\nentropy = 0.918\nsamples = 12\nvalue = [4, 8]"] ;
55 -> 56 ;
57 [label="hemoglobin <= 0.516\nentropy = 0.991\nsamples = 9\nvalue = [4, 5]"] ;
56 -> 57 ;
58 [label="entropy = 0.0\nsamples = 2\nvalue = [2, 0]"] ;
57 -> 58 ;
59 [label="erytrocyty <= 0.514\nentropy = 0.863\nsamples = 7\nvalue = [2, 5]"] ;
57 -> 59 ;
60 [label="entropy = 0.0\nsamples = 2\nvalue = [2, 0]"] ;
59 -> 60 ;
61 [label="entropy = 0.0\nsamples = 5\nvalue = [0, 5]"] ;
59 -> 61 ;
62 [label="entropy = 0.0\nsamples = 3\nvalue = [0, 3]"] ;
56 -> 62 ;
63 [label="entropy = 0.0\nsamples = 6\nvalue = [0, 6]"] ;
55 -> 63 ;
64 [label="entropy = 0.0\nsamples = 2\nvalue = [2, 0]"] ;
54 -> 64 ;
65 [label="entropy = 0.0\nsamples = 19\nvalue = [0, 19]"] ;
41 -> 65 ;
66 [label="hematokrit <= 0.365\nentropy = 1.0\nsamples = 6\nvalue = [3, 3]"] ;
40 -> 66 ;
67 [label="erytrocyty <= 0.558\nentropy = 0.811\nsamples = 4\nvalue = [3, 1]"] ;
66 -> 67 ;
68 [label="entropy = 0.0\nsamples = 3\nvalue = [3, 0]"] ;
67 -> 68 ;
69 [label="entropy = 0.0\nsamples = 1\nvalue = [0, 1]"] ;
67 -> 69 ;
70 [label="entropy = 0.0\nsamples = 2\nvalue = [0, 2]"] ;
66 -> 70 ;
71 [label="entropy = 0.0\nsamples = 18\nvalue = [0, 18]"] ;
39 -> 71 ;
72 [label="entropy = 0.0\nsamples = 1\nvalue = [1, 0]"] ;
28 -> 72 ;
73 [label="entropy = 0.0\nsamples = 1\nvalue = [1, 0]"] ;
27 -> 73 ;
74 [label="entropy = 0.0\nsamples = 36\nvalue = [0, 36]"] ;
26 -> 74 ;
75 [label="entropy = 0.0\nsamples = 44\nvalue = [0, 44]"] ;
25 -> 75 ;
76 [label="hbver <= 0.212\nentropy = 0.985\nsamples = 21\nvalue = [9, 12]"] ;
4 -> 76 ;
77 [label="hemoglobin <= 0.719\nentropy = 0.65\nsamples = 12\nvalue = [2, 10]"] ;
76 -> 77 ;
78 [label="entropy = 0.0\nsamples = 1\nvalue = [1, 0]"] ;
77 -> 78 ;
79 [label="erytrocyty <= 0.614\nentropy = 0.439\nsamples = 11\nvalue = [1, 10]"] ;
77 -> 79 ;
80 [label="entropy = 0.0\nsamples = 10\nvalue = [0, 10]"] ;
79 -> 80 ;
81 [label="entropy = 0.0\nsamples = 1\nvalue = [1, 0]"] ;
79 -> 81 ;
82 [label="erytrocyty <= 0.421\nentropy = 0.764\nsamples = 9\nvalue = [7, 2]"] ;
76 -> 82 ;
83 [label="entropy = 0.0\nsamples = 1\nvalue = [0, 1]"] ;
82 -> 83 ;
84 [label="er-cv <= 0.335\nentropy = 0.544\nsamples = 8\nvalue = [7, 1]"] ;
82 -> 84 ;
85 [label="hematokrit <= 0.352\nentropy = 1.0\nsamples = 2\nvalue = [1, 1]"] ;
84 -> 85 ;
86 [label="entropy = 0.0\nsamples = 1\nvalue = [0, 1]"] ;
85 -> 86 ;
87 [label="entropy = 0.0\nsamples = 1\nvalue = [1, 0]"] ;
85 -> 87 ;
88 [label="entropy = 0.0\nsamples = 6\nvalue = [6, 0]"] ;
84 -> 88 ;
89 [label="hemoglobin <= 0.868\nentropy = 0.159\nsamples = 432\nvalue = [10, 422]"] ;
3 -> 89 ;
90 [label="erytrocyty <= 0.732\nentropy = 0.099\nsamples = 389\nvalue = [5, 384]"] ;
89 -> 90 ;
91 [label="hematokrit <= 0.365\nentropy = 0.037\nsamples = 252\nvalue = [1, 251]"] ;
90 -> 91 ;
92 [label="entropy = 0.0\nsamples = 213\nvalue = [0, 213]"] ;
91 -> 92 ;
93 [label="hematokrit <= 0.367\nentropy = 0.172\nsamples = 39\nvalue = [1, 38]"] ;
91 -> 93 ;
94 [label="entropy = 0.0\nsamples = 1\nvalue = [1, 0]"] ;
93 -> 94 ;
95 [label="entropy = 0.0\nsamples = 38\nvalue = [0, 38]"] ;
93 -> 95 ;
96 [label="erytrocyty <= 0.732\nentropy = 0.19\nsamples = 137\nvalue = [4, 133]"] ;
90 -> 96 ;
97 [label="entropy = 0.0\nsamples = 1\nvalue = [1, 0]"] ;
96 -> 97 ;
98 [label="hemoglobin <= 0.771\nentropy = 0.153\nsamples = 136\nvalue = [3, 133]"] ;
96 -> 98 ;
99 [label="hemoglobin <= 0.761\nentropy = 0.267\nsamples = 66\nvalue = [3, 63]"] ;
98 -> 99 ;
100 [label="entropy = 0.0\nsamples = 53\nvalue = [0, 53]"] ;
99 -> 100 ;
101 [label="hbver <= 0.288\nentropy = 0.779\nsamples = 13\nvalue = [3, 10]"] ;
99 -> 101 ;
102 [label="hemoglobin <= 0.769\nentropy = 0.439\nsamples = 11\nvalue = [1, 10]"] ;
101 -> 102 ;
103 [label="entropy = 0.0\nsamples = 10\nvalue = [0, 10]"] ;
102 -> 103 ;
104 [label="entropy = 0.0\nsamples = 1\nvalue = [1, 0]"] ;
102 -> 104 ;
105 [label="entropy = 0.0\nsamples = 2\nvalue = [2, 0]"] ;
101 -> 105 ;
106 [label="entropy = 0.0\nsamples = 70\nvalue = [0, 70]"] ;
98 -> 106 ;
107 [label="er-cv <= 0.433\nentropy = 0.519\nsamples = 43\nvalue = [5, 38]"] ;
89 -> 107 ;
108 [label="er-cv <= 0.422\nentropy = 0.811\nsamples = 20\nvalue = [5, 15]"] ;
107 -> 108 ;
109 [label="erytrocyty <= 0.665\nentropy = 0.65\nsamples = 18\nvalue = [3, 15]"] ;
108 -> 109 ;
110 [label="entropy = 0.0\nsamples = 1\nvalue = [1, 0]"] ;
109 -> 110 ;
111 [label="erytrocyty <= 0.936\nentropy = 0.523\nsamples = 17\nvalue = [2, 15]"] ;
109 -> 111 ;
112 [label="er-cv <= 0.25\nentropy = 0.337\nsamples = 16\nvalue = [1, 15]"] ;
111 -> 112 ;
113 [label="hematokrit <= 0.268\nentropy = 0.811\nsamples = 4\nvalue = [1, 3]"] ;
112 -> 113 ;
114 [label="entropy = 0.0\nsamples = 1\nvalue = [1, 0]"] ;
113 -> 114 ;
115 [label="entropy = 0.0\nsamples = 3\nvalue = [0, 3]"] ;
113 -> 115 ;
116 [label="entropy = 0.0\nsamples = 12\nvalue = [0, 12]"] ;
112 -> 116 ;
117 [label="entropy = 0.0\nsamples = 1\nvalue = [1, 0]"] ;
111 -> 117 ;
118 [label="entropy = 0.0\nsamples = 2\nvalue = [2, 0]"] ;
108 -> 118 ;
119 [label="entropy = 0.0\nsamples = 23\nvalue = [0, 23]"] ;
107 -> 119 ;
120 [label="hemoglobin <= 0.812\nentropy = 0.633\nsamples = 94\nvalue = [15, 79]"] ;
2 -> 120 ;
121 [label="erytrocyty <= 0.558\nentropy = 0.556\nsamples = 85\nvalue = [11, 74]"] ;
120 -> 121 ;
122 [label="hemoglobin <= 0.677\nentropy = 0.76\nsamples = 50\nvalue = [11, 39]"] ;
121 -> 122 ;
123 [label="er-cv <= 0.462\nentropy = 0.696\nsamples = 48\nvalue = [9, 39]"] ;
122 -> 123 ;
124 [label="entropy = 0.0\nsamples = 19\nvalue = [0, 19]"] ;
123 -> 124 ;
125 [label="er-cv <= 0.701\nentropy = 0.894\nsamples = 29\nvalue = [9, 20]"] ;
123 -> 125 ;
126 [label="erytrocyty <= 0.388\nentropy = 0.954\nsamples = 24\nvalue = [9, 15]"] ;
125 -> 126 ;
127 [label="er-cv <= 0.585\nentropy = 0.722\nsamples = 5\nvalue = [4, 1]"] ;
126 -> 127 ;
128 [label="hemoglobin <= 0.464\nentropy = 1.0\nsamples = 2\nvalue = [1, 1]"] ;
127 -> 128 ;
129 [label="entropy = 0.0\nsamples = 1\nvalue = [0, 1]"] ;
128 -> 129 ;
130 [label="entropy = 0.0\nsamples = 1\nvalue = [1, 0]"] ;
128 -> 130 ;
131 [label="entropy = 0.0\nsamples = 3\nvalue = [3, 0]"] ;
127 -> 131 ;
132 [label="hemoglobin <= 0.529\nentropy = 0.831\nsamples = 19\nvalue = [5, 14]"] ;
126 -> 132 ;
133 [label="hemoglobin <= 0.438\nentropy = 0.439\nsamples = 11\nvalue = [1, 10]"] ;
132 -> 133 ;
134 [label="erytrocyty <= 0.405\nentropy = 0.918\nsamples = 3\nvalue = [1, 2]"] ;
133 -> 134 ;
135 [label="entropy = 0.0\nsamples = 2\nvalue = [0, 2]"] ;
134 -> 135 ;
136 [label="entropy = 0.0\nsamples = 1\nvalue = [1, 0]"] ;
134 -> 136 ;
137 [label="entropy = 0.0\nsamples = 8\nvalue = [0, 8]"] ;
133 -> 137 ;
138 [label="er-cv <= 0.617\nentropy = 1.0\nsamples = 8\nvalue = [4, 4]"] ;
132 -> 138 ;
139 [label="entropy = 0.0\nsamples = 3\nvalue = [3, 0]"] ;
138 -> 139 ;
140 [label="er-cv <= 0.661\nentropy = 0.722\nsamples = 5\nvalue = [1, 4]"] ;
138 -> 140 ;
141 [label="entropy = 0.0\nsamples = 4\nvalue = [0, 4]"] ;
140 -> 141 ;
142 [label="entropy = 0.0\nsamples = 1\nvalue = [1, 0]"] ;
140 -> 142 ;
143 [label="entropy = 0.0\nsamples = 5\nvalue = [0, 5]"] ;
125 -> 143 ;
144 [label="entropy = 0.0\nsamples = 2\nvalue = [2, 0]"] ;
122 -> 144 ;
145 [label="entropy = 0.0\nsamples = 35\nvalue = [0, 35]"] ;
121 -> 145 ;
146 [label="erytrocyty <= 0.812\nentropy = 0.991\nsamples = 9\nvalue = [4, 5]"] ;
120 -> 146 ;
147 [label="entropy = 0.0\nsamples = 4\nvalue = [4, 0]"] ;
146 -> 147 ;
148 [label="entropy = 0.0\nsamples = 5\nvalue = [0, 5]"] ;
146 -> 148 ;
149 [label="hematokrit <= 0.374\nentropy = 0.656\nsamples = 1248\nvalue = [211, 1037]"] ;
1 -> 149 ;
150 [label="hemoglobin <= 0.334\nentropy = 0.524\nsamples = 888\nvalue = [105, 783]"] ;
149 -> 150 ;
151 [label="hematokrit <= 0.33\nentropy = 0.197\nsamples = 196\nvalue = [6, 190]"] ;
150 -> 151 ;
152 [label="hbver <= 0.627\nentropy = 0.062\nsamples = 139\nvalue = [1, 138]"] ;
151 -> 152 ;
153 [label="entropy = 0.0\nsamples = 132\nvalue = [0, 132]"] ;
152 -> 153 ;
154 [label="hbver <= 0.63\nentropy = 0.592\nsamples = 7\nvalue = [1, 6]"] ;
152 -> 154 ;
155 [label="entropy = 0.0\nsamples = 1\nvalue = [1, 0]"] ;
154 -> 155 ;
156 [label="entropy = 0.0\nsamples = 6\nvalue = [0, 6]"] ;
154 -> 156 ;
157 [label="erytrocyty <= 0.473\nentropy = 0.429\nsamples = 57\nvalue = [5, 52]"] ;
151 -> 157 ;
158 [label="erytrocyty <= 0.191\nentropy = 0.371\nsamples = 56\nvalue = [4, 52]"] ;
157 -> 158 ;
159 [label="hemoglobin <= 0.187\nentropy = 0.65\nsamples = 24\nvalue = [4, 20]"] ;
158 -> 159 ;
160 [label="entropy = 0.0\nsamples = 11\nvalue = [0, 11]"] ;
159 -> 160 ;
161 [label="hbver <= 0.358\nentropy = 0.89\nsamples = 13\nvalue = [4, 9]"] ;
159 -> 161 ;
162 [label="entropy = 0.0\nsamples = 3\nvalue = [0, 3]"] ;
161 -> 162 ;
163 [label="hemoglobin <= 0.284\nentropy = 0.971\nsamples = 10\nvalue = [4, 6]"] ;
161 -> 163 ;
164 [label="hematokrit <= 0.347\nentropy = 0.811\nsamples = 8\nvalue = [2, 6]"] ;
163 -> 164 ;
165 [label="entropy = 0.0\nsamples = 4\nvalue = [0, 4]"] ;
164 -> 165 ;
166 [label="hbver <= 0.381\nentropy = 1.0\nsamples = 4\nvalue = [2, 2]"] ;
164 -> 166 ;
167 [label="entropy = 0.0\nsamples = 1\nvalue = [1, 0]"] ;
166 -> 167 ;
168 [label="hemoglobin <= 0.195\nentropy = 0.918\nsamples = 3\nvalue = [1, 2]"] ;
166 -> 168 ;
169 [label="entropy = 0.0\nsamples = 1\nvalue = [1, 0]"] ;
168 -> 169 ;
170 [label="entropy = 0.0\nsamples = 2\nvalue = [0, 2]"] ;
168 -> 170 ;
171 [label="entropy = 0.0\nsamples = 2\nvalue = [2, 0]"] ;
163 -> 171 ;
172 [label="entropy = 0.0\nsamples = 32\nvalue = [0, 32]"] ;
158 -> 172 ;
173 [label="entropy = 0.0\nsamples = 1\nvalue = [1, 0]"] ;
157 -> 173 ;
174 [label="erytrocyty <= 0.301\nentropy = 0.592\nsamples = 692\nvalue = [99, 593]"] ;
150 -> 174 ;
175 [label="hbver <= 0.567\nentropy = 0.999\nsamples = 69\nvalue = [36, 33]"] ;
174 -> 175 ;
176 [label="hemoglobin <= 0.389\nentropy = 0.936\nsamples = 54\nvalue = [35, 19]"] ;
175 -> 176 ;
177 [label="erytrocyty <= 0.225\nentropy = 0.831\nsamples = 19\nvalue = [5, 14]"] ;
176 -> 177 ;
178 [label="entropy = 0.0\nsamples = 5\nvalue = [5, 0]"] ;
177 -> 178 ;
179 [label="entropy = 0.0\nsamples = 14\nvalue = [0, 14]"] ;
177 -> 179 ;
180 [label="hemoglobin <= 0.814\nentropy = 0.592\nsamples = 35\nvalue = [30, 5]"] ;
176 -> 180 ;
181 [label="hematokrit <= 0.306\nentropy = 0.439\nsamples = 33\nvalue = [30, 3]"] ;
180 -> 181 ;
182 [label="hemoglobin <= 0.428\nentropy = 0.75\nsamples = 14\nvalue = [11, 3]"] ;
181 -> 182 ;
183 [label="erytrocyty <= 0.214\nentropy = 0.918\nsamples = 3\nvalue = [1, 2]"] ;
182 -> 183 ;
184 [label="entropy = 0.0\nsamples = 1\nvalue = [1, 0]"] ;
183 -> 184 ;
185 [label="entropy = 0.0\nsamples = 2\nvalue = [0, 2]"] ;
183 -> 185 ;
186 [label="hematokrit <= 0.298\nentropy = 0.439\nsamples = 11\nvalue = [10, 1]"] ;
182 -> 186 ;
187 [label="entropy = 0.0\nsamples = 10\nvalue = [10, 0]"] ;
186 -> 187 ;
188 [label="entropy = 0.0\nsamples = 1\nvalue = [0, 1]"] ;
186 -> 188 ;
189 [label="entropy = 0.0\nsamples = 19\nvalue = [19, 0]"] ;
181 -> 189 ;
190 [label="entropy = 0.0\nsamples = 2\nvalue = [0, 2]"] ;
180 -> 190 ;
191 [label="hbver <= 0.816\nentropy = 0.353\nsamples = 15\nvalue = [1, 14]"] ;
175 -> 191 ;
192 [label="entropy = 0.0\nsamples = 14\nvalue = [0, 14]"] ;
191 -> 192 ;
193 [label="entropy = 0.0\nsamples = 1\nvalue = [1, 0]"] ;
191 -> 193 ;
194 [label="hemoglobin <= 0.671\nentropy = 0.473\nsamples = 623\nvalue = [63, 560]"] ;
174 -> 194 ;
195 [label="hbver <= 0.421\nentropy = 0.411\nsamples = 546\nvalue = [45, 501]"] ;
194 -> 195 ;
196 [label="erytrocyty <= 0.547\nentropy = 0.207\nsamples = 277\nvalue = [9, 268]"] ;
195 -> 196 ;
197 [label="hemoglobin <= 0.484\nentropy = 0.296\nsamples = 172\nvalue = [9, 163]"] ;
196 -> 197 ;
198 [label="er-cv <= 0.605\nentropy = 0.064\nsamples = 132\nvalue = [1, 131]"] ;
197 -> 198 ;
199 [label="entropy = 0.0\nsamples = 92\nvalue = [0, 92]"] ;
198 -> 199 ;
200 [label="er-cv <= 0.611\nentropy = 0.169\nsamples = 40\nvalue = [1, 39]"] ;
198 -> 200 ;
201 [label="entropy = 0.0\nsamples = 1\nvalue = [1, 0]"] ;
200 -> 201 ;
202 [label="entropy = 0.0\nsamples = 39\nvalue = [0, 39]"] ;
200 -> 202 ;
203 [label="hemoglobin <= 0.554\nentropy = 0.722\nsamples = 40\nvalue = [8, 32]"] ;
197 -> 203 ;
204 [label="er-cv <= 0.625\nentropy = 0.48\nsamples = 29\nvalue = [3, 26]"] ;
203 -> 204 ;
205 [label="hematokrit <= 0.144\nentropy = 0.235\nsamples = 26\nvalue = [1, 25]"] ;
204 -> 205 ;
206 [label="entropy = 0.0\nsamples = 1\nvalue = [1, 0]"] ;
205 -> 206 ;
207 [label="entropy = 0.0\nsamples = 25\nvalue = [0, 25]"] ;
205 -> 207 ;
208 [label="er-cv <= 0.775\nentropy = 0.918\nsamples = 3\nvalue = [2, 1]"] ;
204 -> 208 ;
209 [label="entropy = 0.0\nsamples = 2\nvalue = [2, 0]"] ;
208 -> 209 ;
210 [label="entropy = 0.0\nsamples = 1\nvalue = [0, 1]"] ;
208 -> 210 ;
211 [label="hematokrit <= 0.29\nentropy = 0.994\nsamples = 11\nvalue = [5, 6]"] ;
203 -> 211 ;
212 [label="entropy = 0.0\nsamples = 5\nvalue = [0, 5]"] ;
211 -> 212 ;
213 [label="erytrocyty <= 0.515\nentropy = 0.65\nsamples = 6\nvalue = [5, 1]"] ;
211 -> 213 ;
214 [label="entropy = 0.0\nsamples = 4\nvalue = [4, 0]"] ;
213 -> 214 ;
215 [label="hbver <= 0.384\nentropy = 1.0\nsamples = 2\nvalue = [1, 1]"] ;
213 -> 215 ;
216 [label="entropy = 0.0\nsamples = 1\nvalue = [1, 0]"] ;
215 -> 216 ;
217 [label="entropy = 0.0\nsamples = 1\nvalue = [0, 1]"] ;
215 -> 217 ;
218 [label="entropy = 0.0\nsamples = 105\nvalue = [0, 105]"] ;
196 -> 218 ;
219 [label="hematokrit <= 0.227\nentropy = 0.568\nsamples = 269\nvalue = [36, 233]"] ;
195 -> 219 ;
220 [label="entropy = 0.0\nsamples = 48\nvalue = [0, 48]"] ;
219 -> 220 ;
221 [label="erytrocyty <= 0.384\nentropy = 0.641\nsamples = 221\nvalue = [36, 185]"] ;
219 -> 221 ;
222 [label="erytrocyty <= 0.365\nentropy = 0.957\nsamples = 37\nvalue = [14, 23]"] ;
221 -> 222 ;
223 [label="hematokrit <= 0.344\nentropy = 0.634\nsamples = 25\nvalue = [4, 21]"] ;
222 -> 223 ;
224 [label="hematokrit <= 0.332\nentropy = 0.89\nsamples = 13\nvalue = [4, 9]"] ;
223 -> 224 ;
225 [label="hbver <= 0.429\nentropy = 0.684\nsamples = 11\nvalue = [2, 9]"] ;
224 -> 225 ;
226 [label="entropy = 0.0\nsamples = 1\nvalue = [1, 0]"] ;
225 -> 226 ;
227 [label="er-cv <= 0.398\nentropy = 0.469\nsamples = 10\nvalue = [1, 9]"] ;
225 -> 227 ;
228 [label="hemoglobin <= 0.495\nentropy = 1.0\nsamples = 2\nvalue = [1, 1]"] ;
227 -> 228 ;
229 [label="entropy = 0.0\nsamples = 1\nvalue = [0, 1]"] ;
228 -> 229 ;
230 [label="entropy = 0.0\nsamples = 1\nvalue = [1, 0]"] ;
228 -> 230 ;
231 [label="entropy = 0.0\nsamples = 8\nvalue = [0, 8]"] ;
227 -> 231 ;
232 [label="entropy = 0.0\nsamples = 2\nvalue = [2, 0]"] ;
224 -> 232 ;
233 [label="entropy = 0.0\nsamples = 12\nvalue = [0, 12]"] ;
223 -> 233 ;
234 [label="er-cv <= 0.482\nentropy = 0.65\nsamples = 12\nvalue = [10, 2]"] ;
222 -> 234 ;
235 [label="hemoglobin <= 0.592\nentropy = 0.918\nsamples = 3\nvalue = [1, 2]"] ;
234 -> 235 ;
236 [label="entropy = 0.0\nsamples = 2\nvalue = [0, 2]"] ;
235 -> 236 ;
237 [label="entropy = 0.0\nsamples = 1\nvalue = [1, 0]"] ;
235 -> 237 ;
238 [label="entropy = 0.0\nsamples = 9\nvalue = [9, 0]"] ;
234 -> 238 ;
239 [label="erytrocyty <= 0.557\nentropy = 0.528\nsamples = 184\nvalue = [22, 162]"] ;
221 -> 239 ;
240 [label="hematokrit <= 0.353\nentropy = 0.412\nsamples = 133\nvalue = [11, 122]"] ;
239 -> 240 ;
241 [label="hemoglobin <= 0.538\nentropy = 0.493\nsamples = 102\nvalue = [11, 91]"] ;
240 -> 241 ;
242 [label="hemoglobin <= 0.334\nentropy = 0.362\nsamples = 87\nvalue = [6, 81]"] ;
241 -> 242 ;
243 [label="entropy = 0.0\nsamples = 1\nvalue = [1, 0]"] ;
242 -> 243 ;
244 [label="hematokrit <= 0.228\nentropy = 0.32\nsamples = 86\nvalue = [5, 81]"] ;
242 -> 244 ;
245 [label="entropy = 0.0\nsamples = 1\nvalue = [1, 0]"] ;
244 -> 245 ;
246 [label="hematokrit <= 0.353\nentropy = 0.274\nsamples = 85\nvalue = [4, 81]"] ;
244 -> 246 ;
247 [label="hematokrit <= 0.301\nentropy = 0.222\nsamples = 84\nvalue = [3, 81]"] ;
246 -> 247 ;
248 [label="hematokrit <= 0.3\nentropy = 0.391\nsamples = 39\nvalue = [3, 36]"] ;
247 -> 248 ;
249 [label="hemoglobin <= 0.41\nentropy = 0.297\nsamples = 38\nvalue = [2, 36]"] ;
248 -> 249 ;
250 [label="entropy = 0.0\nsamples = 19\nvalue = [0, 19]"] ;
249 -> 250 ;
251 [label="hemoglobin <= 0.413\nentropy = 0.485\nsamples = 19\nvalue = [2, 17]"] ;
249 -> 251 ;
252 [label="entropy = 0.0\nsamples = 1\nvalue = [1, 0]"] ;
251 -> 252 ;
253 [label="erytrocyty <= 0.439\nentropy = 0.31\nsamples = 18\nvalue = [1, 17]"] ;
251 -> 253 ;
254 [label="hbver <= 0.527\nentropy = 0.918\nsamples = 3\nvalue = [1, 2]"] ;
253 -> 254 ;
255 [label="entropy = 0.0\nsamples = 1\nvalue = [1, 0]"] ;
254 -> 255 ;
256 [label="entropy = 0.0\nsamples = 2\nvalue = [0, 2]"] ;
254 -> 256 ;
257 [label="entropy = 0.0\nsamples = 15\nvalue = [0, 15]"] ;
253 -> 257 ;
258 [label="entropy = 0.0\nsamples = 1\nvalue = [1, 0]"] ;
248 -> 258 ;
259 [label="entropy = 0.0\nsamples = 45\nvalue = [0, 45]"] ;
247 -> 259 ;
260 [label="entropy = 0.0\nsamples = 1\nvalue = [1, 0]"] ;
246 -> 260 ;
261 [label="er-cv <= 0.296\nentropy = 0.918\nsamples = 15\nvalue = [5, 10]"] ;
241 -> 261 ;
262 [label="entropy = 0.0\nsamples = 3\nvalue = [3, 0]"] ;
261 -> 262 ;
263 [label="hbver <= 0.57\nentropy = 0.65\nsamples = 12\nvalue = [2, 10]"] ;
261 -> 263 ;
264 [label="hematokrit <= 0.323\nentropy = 0.918\nsamples = 3\nvalue = [2, 1]"] ;
263 -> 264 ;
265 [label="entropy = 0.0\nsamples = 1\nvalue = [0, 1]"] ;
264 -> 265 ;
266 [label="entropy = 0.0\nsamples = 2\nvalue = [2, 0]"] ;
264 -> 266 ;
267 [label="entropy = 0.0\nsamples = 9\nvalue = [0, 9]"] ;
263 -> 267 ;
268 [label="entropy = 0.0\nsamples = 31\nvalue = [0, 31]"] ;
240 -> 268 ;
269 [label="hemoglobin <= 0.59\nentropy = 0.752\nsamples = 51\nvalue = [11, 40]"] ;
239 -> 269 ;
270 [label="hbver <= 0.511\nentropy = 0.858\nsamples = 39\nvalue = [11, 28]"] ;
269 -> 270 ;
271 [label="hematokrit <= 0.369\nentropy = 0.454\nsamples = 21\nvalue = [2, 19]"] ;
270 -> 271 ;
272 [label="hbver <= 0.423\nentropy = 0.286\nsamples = 20\nvalue = [1, 19]"] ;
271 -> 272 ;
273 [label="entropy = 0.0\nsamples = 1\nvalue = [1, 0]"] ;
272 -> 273 ;
274 [label="entropy = 0.0\nsamples = 19\nvalue = [0, 19]"] ;
272 -> 274 ;
275 [label="entropy = 0.0\nsamples = 1\nvalue = [1, 0]"] ;
271 -> 275 ;
276 [label="hbver <= 0.651\nentropy = 1.0\nsamples = 18\nvalue = [9, 9]"] ;
270 -> 276 ;
277 [label="hematokrit <= 0.289\nentropy = 0.94\nsamples = 14\nvalue = [9, 5]"] ;
276 -> 277 ;
278 [label="hbver <= 0.567\nentropy = 0.722\nsamples = 5\nvalue = [1, 4]"] ;
277 -> 278 ;
279 [label="entropy = 0.0\nsamples = 4\nvalue = [0, 4]"] ;
278 -> 279 ;
280 [label="entropy = 0.0\nsamples = 1\nvalue = [1, 0]"] ;
278 -> 280 ;
281 [label="hemoglobin <= 0.502\nentropy = 0.503\nsamples = 9\nvalue = [8, 1]"] ;
277 -> 281 ;
282 [label="entropy = 0.0\nsamples = 7\nvalue = [7, 0]"] ;
281 -> 282 ;
283 [label="hbver <= 0.591\nentropy = 1.0\nsamples = 2\nvalue = [1, 1]"] ;
281 -> 283 ;
284 [label="entropy = 0.0\nsamples = 1\nvalue = [0, 1]"] ;
283 -> 284 ;
285 [label="entropy = 0.0\nsamples = 1\nvalue = [1, 0]"] ;
283 -> 285 ;
286 [label="entropy = 0.0\nsamples = 4\nvalue = [0, 4]"] ;
276 -> 286 ;
287 [label="entropy = 0.0\nsamples = 12\nvalue = [0, 12]"] ;
269 -> 287 ;
288 [label="hbver <= 0.564\nentropy = 0.785\nsamples = 77\nvalue = [18, 59]"] ;
194 -> 288 ;
289 [label="erytrocyty <= 0.667\nentropy = 0.946\nsamples = 44\nvalue = [16, 28]"] ;
288 -> 289 ;
290 [label="hemoglobin <= 0.779\nentropy = 0.932\nsamples = 23\nvalue = [15, 8]"] ;
289 -> 290 ;
291 [label="entropy = 0.0\nsamples = 10\nvalue = [10, 0]"] ;
290 -> 291 ;
292 [label="hbver <= 0.412\nentropy = 0.961\nsamples = 13\nvalue = [5, 8]"] ;
290 -> 292 ;
293 [label="entropy = 0.0\nsamples = 3\nvalue = [3, 0]"] ;
292 -> 293 ;
294 [label="hematokrit <= 0.321\nentropy = 0.722\nsamples = 10\nvalue = [2, 8]"] ;
292 -> 294 ;
295 [label="hematokrit <= 0.202\nentropy = 0.918\nsamples = 3\nvalue = [2, 1]"] ;
294 -> 295 ;
296 [label="entropy = 0.0\nsamples = 1\nvalue = [0, 1]"] ;
295 -> 296 ;
297 [label="entropy = 0.0\nsamples = 2\nvalue = [2, 0]"] ;
295 -> 297 ;
298 [label="entropy = 0.0\nsamples = 7\nvalue = [0, 7]"] ;
294 -> 298 ;
299 [label="er-cv <= 0.122\nentropy = 0.276\nsamples = 21\nvalue = [1, 20]"] ;
289 -> 299 ;
300 [label="entropy = 0.0\nsamples = 1\nvalue = [1, 0]"] ;
299 -> 300 ;
301 [label="entropy = 0.0\nsamples = 20\nvalue = [0, 20]"] ;
299 -> 301 ;
302 [label="hematokrit <= 0.253\nentropy = 0.33\nsamples = 33\nvalue = [2, 31]"] ;
288 -> 302 ;
303 [label="erytrocyty <= 0.493\nentropy = 0.971\nsamples = 5\nvalue = [2, 3]"] ;
302 -> 303 ;
304 [label="entropy = 0.0\nsamples = 3\nvalue = [0, 3]"] ;
303 -> 304 ;
305 [label="entropy = 0.0\nsamples = 2\nvalue = [2, 0]"] ;
303 -> 305 ;
306 [label="entropy = 0.0\nsamples = 28\nvalue = [0, 28]"] ;
302 -> 306 ;
307 [label="hbver <= 0.621\nentropy = 0.874\nsamples = 360\nvalue = [106, 254]"] ;
149 -> 307 ;
308 [label="hemoglobin <= 0.286\nentropy = 0.931\nsamples = 291\nvalue = [101, 190]"] ;
307 -> 308 ;
309 [label="erytrocyty <= 0.327\nentropy = 0.527\nsamples = 42\nvalue = [5, 37]"] ;
308 -> 309 ;
310 [label="hematokrit <= 0.417\nentropy = 0.191\nsamples = 34\nvalue = [1, 33]"] ;
309 -> 310 ;
311 [label="entropy = 0.0\nsamples = 33\nvalue = [0, 33]"] ;
310 -> 311 ;
312 [label="entropy = 0.0\nsamples = 1\nvalue = [1, 0]"] ;
310 -> 312 ;
313 [label="hbver <= 0.445\nentropy = 1.0\nsamples = 8\nvalue = [4, 4]"] ;
309 -> 313 ;
314 [label="entropy = 0.0\nsamples = 3\nvalue = [3, 0]"] ;
313 -> 314 ;
315 [label="erytrocyty <= 0.696\nentropy = 0.722\nsamples = 5\nvalue = [1, 4]"] ;
313 -> 315 ;
316 [label="entropy = 0.0\nsamples = 4\nvalue = [0, 4]"] ;
315 -> 316 ;
317 [label="entropy = 0.0\nsamples = 1\nvalue = [1, 0]"] ;
315 -> 317 ;
318 [label="erytrocyty <= 0.236\nentropy = 0.962\nsamples = 249\nvalue = [96, 153]"] ;
308 -> 318 ;
319 [label="hemoglobin <= 0.676\nentropy = 0.779\nsamples = 26\nvalue = [20, 6]"] ;
318 -> 319 ;
320 [label="er-cv <= 0.424\nentropy = 0.276\nsamples = 21\nvalue = [20, 1]"] ;
319 -> 320 ;
321 [label="er-cv <= 0.393\nentropy = 0.918\nsamples = 3\nvalue = [2, 1]"] ;
320 -> 321 ;
322 [label="entropy = 0.0\nsamples = 2\nvalue = [2, 0]"] ;
321 -> 322 ;
323 [label="entropy = 0.0\nsamples = 1\nvalue = [0, 1]"] ;
321 -> 323 ;
324 [label="entropy = 0.0\nsamples = 18\nvalue = [18, 0]"] ;
320 -> 324 ;
325 [label="entropy = 0.0\nsamples = 5\nvalue = [0, 5]"] ;
319 -> 325 ;
326 [label="hbver <= 0.46\nentropy = 0.926\nsamples = 223\nvalue = [76, 147]"] ;
318 -> 326 ;
327 [label="hemoglobin <= 0.601\nentropy = 0.808\nsamples = 137\nvalue = [34, 103]"] ;
326 -> 327 ;
328 [label="erytrocyty <= 0.369\nentropy = 0.628\nsamples = 108\nvalue = [17, 91]"] ;
327 -> 328 ;
329 [label="hemoglobin <= 0.454\nentropy = 0.896\nsamples = 32\nvalue = [10, 22]"] ;
328 -> 329 ;
330 [label="hbver <= 0.365\nentropy = 0.691\nsamples = 27\nvalue = [5, 22]"] ;
329 -> 330 ;
331 [label="erytrocyty <= 0.322\nentropy = 0.971\nsamples = 5\nvalue = [3, 2]"] ;
330 -> 331 ;
332 [label="entropy = 0.0\nsamples = 2\nvalue = [0, 2]"] ;
331 -> 332 ;
333 [label="entropy = 0.0\nsamples = 3\nvalue = [3, 0]"] ;
331 -> 333 ;
334 [label="hematokrit <= 0.406\nentropy = 0.439\nsamples = 22\nvalue = [2, 20]"] ;
330 -> 334 ;
335 [label="hematokrit <= 0.402\nentropy = 0.684\nsamples = 11\nvalue = [2, 9]"] ;
334 -> 335 ;
336 [label="erytrocyty <= 0.299\nentropy = 0.469\nsamples = 10\nvalue = [1, 9]"] ;
335 -> 336 ;
337 [label="er-cv <= 0.63\nentropy = 0.918\nsamples = 3\nvalue = [1, 2]"] ;
336 -> 337 ;
338 [label="entropy = 0.0\nsamples = 2\nvalue = [0, 2]"] ;
337 -> 338 ;
339 [label="entropy = 0.0\nsamples = 1\nvalue = [1, 0]"] ;
337 -> 339 ;
340 [label="entropy = 0.0\nsamples = 7\nvalue = [0, 7]"] ;
336 -> 340 ;
341 [label="entropy = 0.0\nsamples = 1\nvalue = [1, 0]"] ;
335 -> 341 ;
342 [label="entropy = 0.0\nsamples = 11\nvalue = [0, 11]"] ;
334 -> 342 ;
343 [label="entropy = 0.0\nsamples = 5\nvalue = [5, 0]"] ;
329 -> 343 ;
344 [label="hematokrit <= 0.388\nentropy = 0.443\nsamples = 76\nvalue = [7, 69]"] ;
328 -> 344 ;
345 [label="hematokrit <= 0.382\nentropy = 0.742\nsamples = 19\nvalue = [4, 15]"] ;
344 -> 345 ;
346 [label="entropy = 0.0\nsamples = 11\nvalue = [0, 11]"] ;
345 -> 346 ;
347 [label="er-cv <= 0.479\nentropy = 1.0\nsamples = 8\nvalue = [4, 4]"] ;
345 -> 347 ;
348 [label="entropy = 0.0\nsamples = 3\nvalue = [0, 3]"] ;
347 -> 348 ;
349 [label="erytrocyty <= 0.39\nentropy = 0.722\nsamples = 5\nvalue = [4, 1]"] ;
347 -> 349 ;
350 [label="entropy = 0.0\nsamples = 1\nvalue = [0, 1]"] ;
349 -> 350 ;
351 [label="entropy = 0.0\nsamples = 4\nvalue = [4, 0]"] ;
349 -> 351 ;
352 [label="hematokrit <= 0.408\nentropy = 0.297\nsamples = 57\nvalue = [3, 54]"] ;
344 -> 352 ;
353 [label="entropy = 0.0\nsamples = 30\nvalue = [0, 30]"] ;
352 -> 353 ;
354 [label="erytrocyty <= 0.483\nentropy = 0.503\nsamples = 27\nvalue = [3, 24]"] ;
352 -> 354 ;
355 [label="entropy = 0.0\nsamples = 14\nvalue = [0, 14]"] ;
354 -> 355 ;
356 [label="erytrocyty <= 0.485\nentropy = 0.779\nsamples = 13\nvalue = [3, 10]"] ;
354 -> 356 ;
357 [label="entropy = 0.0\nsamples = 2\nvalue = [2, 0]"] ;
356 -> 357 ;
358 [label="er-cv <= 0.826\nentropy = 0.439\nsamples = 11\nvalue = [1, 10]"] ;
356 -> 358 ;
359 [label="entropy = 0.0\nsamples = 10\nvalue = [0, 10]"] ;
358 -> 359 ;
360 [label="entropy = 0.0\nsamples = 1\nvalue = [1, 0]"] ;
358 -> 360 ;
361 [label="erytrocyty <= 0.648\nentropy = 0.978\nsamples = 29\nvalue = [17, 12]"] ;
327 -> 361 ;
362 [label="hbver <= 0.368\nentropy = 0.485\nsamples = 19\nvalue = [17, 2]"] ;
361 -> 362 ;
363 [label="hemoglobin <= 0.638\nentropy = 0.918\nsamples = 6\nvalue = [4, 2]"] ;
362 -> 363 ;
364 [label="hematokrit <= 0.401\nentropy = 0.918\nsamples = 3\nvalue = [1, 2]"] ;
363 -> 364 ;
365 [label="entropy = 0.0\nsamples = 2\nvalue = [0, 2]"] ;
364 -> 365 ;
366 [label="entropy = 0.0\nsamples = 1\nvalue = [1, 0]"] ;
364 -> 366 ;
367 [label="entropy = 0.0\nsamples = 3\nvalue = [3, 0]"] ;
363 -> 367 ;
368 [label="entropy = 0.0\nsamples = 13\nvalue = [13, 0]"] ;
362 -> 368 ;
369 [label="entropy = 0.0\nsamples = 10\nvalue = [0, 10]"] ;
361 -> 369 ;
370 [label="hemoglobin <= 0.7\nentropy = 1.0\nsamples = 86\nvalue = [42, 44]"] ;
326 -> 370 ;
371 [label="er-cv <= 0.318\nentropy = 0.983\nsamples = 59\nvalue = [34, 25]"] ;
370 -> 371 ;
372 [label="entropy = 0.0\nsamples = 6\nvalue = [6, 0]"] ;
371 -> 372 ;
373 [label="er-cv <= 0.353\nentropy = 0.998\nsamples = 53\nvalue = [28, 25]"] ;
371 -> 373 ;
374 [label="entropy = 0.0\nsamples = 3\nvalue = [0, 3]"] ;
373 -> 374 ;
375 [label="er-cv <= 0.802\nentropy = 0.99\nsamples = 50\nvalue = [28, 22]"] ;
373 -> 375 ;
376 [label="erytrocyty <= 0.47\nentropy = 0.997\nsamples = 47\nvalue = [25, 22]"] ;
375 -> 376 ;
377 [label="hemoglobin <= 0.423\nentropy = 0.931\nsamples = 26\nvalue = [17, 9]"] ;
376 -> 377 ;
378 [label="hbver <= 0.515\nentropy = 0.811\nsamples = 12\nvalue = [3, 9]"] ;
377 -> 378 ;
379 [label="hbver <= 0.498\nentropy = 1.0\nsamples = 6\nvalue = [3, 3]"] ;
378 -> 379 ;
380 [label="entropy = 0.0\nsamples = 3\nvalue = [0, 3]"] ;
379 -> 380 ;
381 [label="entropy = 0.0\nsamples = 3\nvalue = [3, 0]"] ;
379 -> 381 ;
382 [label="entropy = 0.0\nsamples = 6\nvalue = [0, 6]"] ;
378 -> 382 ;
383 [label="entropy = 0.0\nsamples = 14\nvalue = [14, 0]"] ;
377 -> 383 ;
384 [label="hemoglobin <= 0.431\nentropy = 0.959\nsamples = 21\nvalue = [8, 13]"] ;
376 -> 384 ;
385 [label="hematokrit <= 0.418\nentropy = 0.544\nsamples = 8\nvalue = [7, 1]"] ;
384 -> 385 ;
386 [label="entropy = 0.0\nsamples = 7\nvalue = [7, 0]"] ;
385 -> 386 ;
387 [label="entropy = 0.0\nsamples = 1\nvalue = [0, 1]"] ;
385 -> 387 ;
388 [label="hematokrit <= 0.374\nentropy = 0.391\nsamples = 13\nvalue = [1, 12]"] ;
384 -> 388 ;
389 [label="entropy = 0.0\nsamples = 1\nvalue = [1, 0]"] ;
388 -> 389 ;
390 [label="entropy = 0.0\nsamples = 12\nvalue = [0, 12]"] ;
388 -> 390 ;
391 [label="entropy = 0.0\nsamples = 3\nvalue = [3, 0]"] ;
375 -> 391 ;
392 [label="hematokrit <= 0.388\nentropy = 0.877\nsamples = 27\nvalue = [8, 19]"] ;
370 -> 392 ;
393 [label="hemoglobin <= 0.721\nentropy = 0.65\nsamples = 6\nvalue = [5, 1]"] ;
392 -> 393 ;
394 [label="entropy = 0.0\nsamples = 1\nvalue = [0, 1]"] ;
393 -> 394 ;
395 [label="entropy = 0.0\nsamples = 5\nvalue = [5, 0]"] ;
393 -> 395 ;
396 [label="hbver <= 0.469\nentropy = 0.592\nsamples = 21\nvalue = [3, 18]"] ;
392 -> 396 ;
397 [label="entropy = 0.0\nsamples = 2\nvalue = [2, 0]"] ;
396 -> 397 ;
398 [label="er-cv <= 0.499\nentropy = 0.297\nsamples = 19\nvalue = [1, 18]"] ;
396 -> 398 ;
399 [label="entropy = 0.0\nsamples = 13\nvalue = [0, 13]"] ;
398 -> 399 ;
400 [label="er-cv <= 0.533\nentropy = 0.65\nsamples = 6\nvalue = [1, 5]"] ;
398 -> 400 ;
401 [label="entropy = 0.0\nsamples = 1\nvalue = [1, 0]"] ;
400 -> 401 ;
402 [label="entropy = 0.0\nsamples = 5\nvalue = [0, 5]"] ;
400 -> 402 ;
403 [label="hbver <= 0.694\nentropy = 0.375\nsamples = 69\nvalue = [5, 64]"] ;
307 -> 403 ;
404 [label="hematokrit <= 0.407\nentropy = 0.581\nsamples = 36\nvalue = [5, 31]"] ;
403 -> 404 ;
405 [label="erytrocyty <= 0.239\nentropy = 0.235\nsamples = 26\nvalue = [1, 25]"] ;
404 -> 405 ;
406 [label="er-cv <= 0.404\nentropy = 1.0\nsamples = 2\nvalue = [1, 1]"] ;
405 -> 406 ;
407 [label="entropy = 0.0\nsamples = 1\nvalue = [0, 1]"] ;
406 -> 407 ;
408 [label="entropy = 0.0\nsamples = 1\nvalue = [1, 0]"] ;
406 -> 408 ;
409 [label="entropy = 0.0\nsamples = 24\nvalue = [0, 24]"] ;
405 -> 409 ;
410 [label="hemoglobin <= 0.629\nentropy = 0.971\nsamples = 10\nvalue = [4, 6]"] ;
404 -> 410 ;
411 [label="er-cv <= 0.725\nentropy = 0.722\nsamples = 5\nvalue = [4, 1]"] ;
410 -> 411 ;
412 [label="entropy = 0.0\nsamples = 4\nvalue = [4, 0]"] ;
411 -> 412 ;
413 [label="entropy = 0.0\nsamples = 1\nvalue = [0, 1]"] ;
411 -> 413 ;
414 [label="entropy = 0.0\nsamples = 5\nvalue = [0, 5]"] ;
410 -> 414 ;
415 [label="entropy = 0.0\nsamples = 33\nvalue = [0, 33]"] ;
403 -> 415 ;
416 [label="hemoglobin <= 0.288\nentropy = 0.997\nsamples = 5068\nvalue = [2365, 2703]"] ;
0 -> 416 [labeldistance=2.5, labelangle=-45, headlabel="False"] ;
417 [label="hemoglobin <= 0.206\nentropy = 0.707\nsamples = 1199\nvalue = [968, 231]"] ;
416 -> 417 ;
418 [label="hematokrit <= 0.528\nentropy = 0.474\nsamples = 679\nvalue = [610, 69]"] ;
417 -> 418 ;
419 [label="hbver <= 0.499\nentropy = 0.956\nsamples = 53\nvalue = [33, 20]"] ;
418 -> 419 ;
420 [label="erytrocyty <= 0.157\nentropy = 0.592\nsamples = 35\nvalue = [30, 5]"] ;
419 -> 420 ;
421 [label="hemoglobin <= 0.142\nentropy = 0.722\nsamples = 5\nvalue = [1, 4]"] ;
420 -> 421 ;
422 [label="entropy = 0.0\nsamples = 1\nvalue = [1, 0]"] ;
421 -> 422 ;
423 [label="entropy = 0.0\nsamples = 4\nvalue = [0, 4]"] ;
421 -> 423 ;
424 [label="er-cv <= 0.174\nentropy = 0.211\nsamples = 30\nvalue = [29, 1]"] ;
420 -> 424 ;
425 [label="entropy = 0.0\nsamples = 1\nvalue = [0, 1]"] ;
424 -> 425 ;
426 [label="entropy = 0.0\nsamples = 29\nvalue = [29, 0]"] ;
424 -> 426 ;
427 [label="erytrocyty <= 0.413\nentropy = 0.65\nsamples = 18\nvalue = [3, 15]"] ;
419 -> 427 ;
428 [label="entropy = 0.0\nsamples = 14\nvalue = [0, 14]"] ;
427 -> 428 ;
429 [label="erytrocyty <= 0.815\nentropy = 0.811\nsamples = 4\nvalue = [3, 1]"] ;
427 -> 429 ;
430 [label="entropy = 0.0\nsamples = 3\nvalue = [3, 0]"] ;
429 -> 430 ;
431 [label="entropy = 0.0\nsamples = 1\nvalue = [0, 1]"] ;
429 -> 431 ;
432 [label="hbver <= 0.624\nentropy = 0.396\nsamples = 626\nvalue = [577, 49]"] ;
418 -> 432 ;
433 [label="hematokrit <= 0.914\nentropy = 0.189\nsamples = 380\nvalue = [369, 11]"] ;
432 -> 433 ;
434 [label="erytrocyty <= 0.238\nentropy = 0.149\nsamples = 374\nvalue = [366, 8]"] ;
433 -> 434 ;
435 [label="hemoglobin <= 0.2\nentropy = 0.383\nsamples = 67\nvalue = [62, 5]"] ;
434 -> 435 ;
436 [label="erytrocyty <= 0.237\nentropy = 0.33\nsamples = 66\nvalue = [62, 4]"] ;
435 -> 436 ;
437 [label="hematokrit <= 0.621\nentropy = 0.27\nsamples = 65\nvalue = [62, 3]"] ;
436 -> 437 ;
438 [label="hbver <= 0.475\nentropy = 0.516\nsamples = 26\nvalue = [23, 3]"] ;
437 -> 438 ;
439 [label="er-cv <= 0.337\nentropy = 0.258\nsamples = 23\nvalue = [22, 1]"] ;
438 -> 439 ;
440 [label="hemoglobin <= 0.134\nentropy = 0.918\nsamples = 3\nvalue = [2, 1]"] ;
439 -> 440 ;
441 [label="entropy = 0.0\nsamples = 1\nvalue = [0, 1]"] ;
440 -> 441 ;
442 [label="entropy = 0.0\nsamples = 2\nvalue = [2, 0]"] ;
440 -> 442 ;
443 [label="entropy = 0.0\nsamples = 20\nvalue = [20, 0]"] ;
439 -> 443 ;
444 [label="hemoglobin <= 0.183\nentropy = 0.918\nsamples = 3\nvalue = [1, 2]"] ;
438 -> 444 ;
445 [label="entropy = 0.0\nsamples = 2\nvalue = [0, 2]"] ;
444 -> 445 ;
446 [label="entropy = 0.0\nsamples = 1\nvalue = [1, 0]"] ;
444 -> 446 ;
447 [label="entropy = 0.0\nsamples = 39\nvalue = [39, 0]"] ;
437 -> 447 ;
448 [label="entropy = 0.0\nsamples = 1\nvalue = [0, 1]"] ;
436 -> 448 ;
449 [label="entropy = 0.0\nsamples = 1\nvalue = [0, 1]"] ;
435 -> 449 ;
450 [label="hematokrit <= 0.805\nentropy = 0.079\nsamples = 307\nvalue = [304, 3]"] ;
434 -> 450 ;
451 [label="hbver <= 0.608\nentropy = 0.033\nsamples = 288\nvalue = [287, 1]"] ;
450 -> 451 ;
452 [label="entropy = 0.0\nsamples = 253\nvalue = [253, 0]"] ;
451 -> 452 ;
453 [label="hbver <= 0.609\nentropy = 0.187\nsamples = 35\nvalue = [34, 1]"] ;
451 -> 453 ;
454 [label="entropy = 0.0\nsamples = 1\nvalue = [0, 1]"] ;
453 -> 454 ;
455 [label="entropy = 0.0\nsamples = 34\nvalue = [34, 0]"] ;
453 -> 455 ;
456 [label="hematokrit <= 0.815\nentropy = 0.485\nsamples = 19\nvalue = [17, 2]"] ;
450 -> 456 ;
457 [label="erytrocyty <= 0.448\nentropy = 1.0\nsamples = 4\nvalue = [2, 2]"] ;
456 -> 457 ;
458 [label="entropy = 0.0\nsamples = 2\nvalue = [2, 0]"] ;
457 -> 458 ;
459 [label="entropy = 0.0\nsamples = 2\nvalue = [0, 2]"] ;
457 -> 459 ;
460 [label="entropy = 0.0\nsamples = 15\nvalue = [15, 0]"] ;
456 -> 460 ;
461 [label="erytrocyty <= 0.568\nentropy = 1.0\nsamples = 6\nvalue = [3, 3]"] ;
433 -> 461 ;
462 [label="entropy = 0.0\nsamples = 3\nvalue = [3, 0]"] ;
461 -> 462 ;
463 [label="entropy = 0.0\nsamples = 3\nvalue = [0, 3]"] ;
461 -> 463 ;
464 [label="hemoglobin <= 0.147\nentropy = 0.621\nsamples = 246\nvalue = [208, 38]"] ;
432 -> 464 ;
465 [label="hematokrit <= 0.837\nentropy = 0.36\nsamples = 146\nvalue = [136, 10]"] ;
464 -> 465 ;
466 [label="hbver <= 0.689\nentropy = 0.174\nsamples = 115\nvalue = [112, 3]"] ;
465 -> 466 ;
467 [label="entropy = 0.0\nsamples = 77\nvalue = [77, 0]"] ;
466 -> 467 ;
468 [label="erytrocyty <= 0.708\nentropy = 0.398\nsamples = 38\nvalue = [35, 3]"] ;
466 -> 468 ;
469 [label="hematokrit <= 0.794\nentropy = 0.971\nsamples = 5\nvalue = [2, 3]"] ;
468 -> 469 ;
470 [label="entropy = 0.0\nsamples = 3\nvalue = [0, 3]"] ;
469 -> 470 ;
471 [label="entropy = 0.0\nsamples = 2\nvalue = [2, 0]"] ;
469 -> 471 ;
472 [label="entropy = 0.0\nsamples = 33\nvalue = [33, 0]"] ;
468 -> 472 ;
473 [label="hbver <= 0.721\nentropy = 0.771\nsamples = 31\nvalue = [24, 7]"] ;
465 -> 473 ;
474 [label="erytrocyty <= 0.659\nentropy = 0.949\nsamples = 19\nvalue = [12, 7]"] ;
473 -> 474 ;
475 [label="entropy = 0.0\nsamples = 7\nvalue = [7, 0]"] ;
474 -> 475 ;
476 [label="erytrocyty <= 0.705\nentropy = 0.98\nsamples = 12\nvalue = [5, 7]"] ;
474 -> 476 ;
477 [label="entropy = 0.0\nsamples = 3\nvalue = [0, 3]"] ;
476 -> 477 ;
478 [label="erytrocyty <= 0.774\nentropy = 0.991\nsamples = 9\nvalue = [5, 4]"] ;
476 -> 478 ;
479 [label="entropy = 0.0\nsamples = 4\nvalue = [4, 0]"] ;
478 -> 479 ;
480 [label="er-cv <= 0.493\nentropy = 0.722\nsamples = 5\nvalue = [1, 4]"] ;
478 -> 480 ;
481 [label="entropy = 0.0\nsamples = 3\nvalue = [0, 3]"] ;
480 -> 481 ;
482 [label="hemoglobin <= 0.076\nentropy = 1.0\nsamples = 2\nvalue = [1, 1]"] ;
480 -> 482 ;
483 [label="entropy = 0.0\nsamples = 1\nvalue = [1, 0]"] ;
482 -> 483 ;
484 [label="entropy = 0.0\nsamples = 1\nvalue = [0, 1]"] ;
482 -> 484 ;
485 [label="entropy = 0.0\nsamples = 12\nvalue = [12, 0]"] ;
473 -> 485 ;
486 [label="hematokrit <= 0.79\nentropy = 0.855\nsamples = 100\nvalue = [72, 28]"] ;
464 -> 486 ;
487 [label="hbver <= 0.834\nentropy = 0.754\nsamples = 83\nvalue = [65, 18]"] ;
486 -> 487 ;
488 [label="erytrocyty <= 0.875\nentropy = 0.696\nsamples = 80\nvalue = [65, 15]"] ;
487 -> 488 ;
489 [label="hbver <= 0.671\nentropy = 0.755\nsamples = 69\nvalue = [54, 15]"] ;
488 -> 489 ;
490 [label="hematokrit <= 0.695\nentropy = 0.439\nsamples = 33\nvalue = [30, 3]"] ;
489 -> 490 ;
491 [label="entropy = 0.0\nsamples = 19\nvalue = [19, 0]"] ;
490 -> 491 ;
492 [label="erytrocyty <= 0.629\nentropy = 0.75\nsamples = 14\nvalue = [11, 3]"] ;
490 -> 492 ;
493 [label="entropy = 0.0\nsamples = 11\nvalue = [11, 0]"] ;
492 -> 493 ;
494 [label="entropy = 0.0\nsamples = 3\nvalue = [0, 3]"] ;
492 -> 494 ;
495 [label="erytrocyty <= 0.595\nentropy = 0.918\nsamples = 36\nvalue = [24, 12]"] ;
489 -> 495 ;
496 [label="hematokrit <= 0.641\nentropy = 0.592\nsamples = 7\nvalue = [1, 6]"] ;
495 -> 496 ;
497 [label="hemoglobin <= 0.189\nentropy = 1.0\nsamples = 2\nvalue = [1, 1]"] ;
496 -> 497 ;
498 [label="entropy = 0.0\nsamples = 1\nvalue = [0, 1]"] ;
497 -> 498 ;
499 [label="entropy = 0.0\nsamples = 1\nvalue = [1, 0]"] ;
497 -> 499 ;
500 [label="entropy = 0.0\nsamples = 5\nvalue = [0, 5]"] ;
496 -> 500 ;
501 [label="hematokrit <= 0.739\nentropy = 0.736\nsamples = 29\nvalue = [23, 6]"] ;
495 -> 501 ;
502 [label="hbver <= 0.765\nentropy = 0.937\nsamples = 17\nvalue = [11, 6]"] ;
501 -> 502 ;
503 [label="hematokrit <= 0.66\nentropy = 0.837\nsamples = 15\nvalue = [11, 4]"] ;
502 -> 503 ;
504 [label="entropy = 0.0\nsamples = 2\nvalue = [0, 2]"] ;
503 -> 504 ;
505 [label="er-cv <= 0.663\nentropy = 0.619\nsamples = 13\nvalue = [11, 2]"] ;
503 -> 505 ;
506 [label="entropy = 0.0\nsamples = 9\nvalue = [9, 0]"] ;
505 -> 506 ;
507 [label="hematokrit <= 0.705\nentropy = 1.0\nsamples = 4\nvalue = [2, 2]"] ;
505 -> 507 ;
508 [label="entropy = 0.0\nsamples = 2\nvalue = [2, 0]"] ;
507 -> 508 ;
509 [label="entropy = 0.0\nsamples = 2\nvalue = [0, 2]"] ;
507 -> 509 ;
510 [label="entropy = 0.0\nsamples = 2\nvalue = [0, 2]"] ;
502 -> 510 ;
511 [label="entropy = 0.0\nsamples = 12\nvalue = [12, 0]"] ;
501 -> 511 ;
512 [label="entropy = 0.0\nsamples = 11\nvalue = [11, 0]"] ;
488 -> 512 ;
513 [label="entropy = 0.0\nsamples = 3\nvalue = [0, 3]"] ;
487 -> 513 ;
514 [label="hbver <= 0.652\nentropy = 0.977\nsamples = 17\nvalue = [7, 10]"] ;
486 -> 514 ;
515 [label="entropy = 0.0\nsamples = 6\nvalue = [0, 6]"] ;
514 -> 515 ;
516 [label="hemoglobin <= 0.179\nentropy = 0.946\nsamples = 11\nvalue = [7, 4]"] ;
514 -> 516 ;
517 [label="hemoglobin <= 0.165\nentropy = 0.918\nsamples = 6\nvalue = [2, 4]"] ;
516 -> 517 ;
518 [label="entropy = 0.0\nsamples = 2\nvalue = [2, 0]"] ;
517 -> 518 ;
519 [label="entropy = 0.0\nsamples = 4\nvalue = [0, 4]"] ;
517 -> 519 ;
520 [label="entropy = 0.0\nsamples = 5\nvalue = [5, 0]"] ;
516 -> 520 ;
521 [label="hbver <= 0.644\nentropy = 0.895\nsamples = 520\nvalue = [358, 162]"] ;
417 -> 521 ;
522 [label="hematokrit <= 0.508\nentropy = 0.787\nsamples = 374\nvalue = [286, 88]"] ;
521 -> 522 ;
523 [label="erytrocyty <= 0.324\nentropy = 0.99\nsamples = 93\nvalue = [52, 41]"] ;
522 -> 523 ;
524 [label="hbver <= 0.484\nentropy = 0.936\nsamples = 54\nvalue = [19, 35]"] ;
523 -> 524 ;
525 [label="hbver <= 0.39\nentropy = 0.987\nsamples = 44\nvalue = [19, 25]"] ;
524 -> 525 ;
526 [label="hemoglobin <= 0.284\nentropy = 0.672\nsamples = 17\nvalue = [3, 14]"] ;
525 -> 526 ;
527 [label="hbver <= 0.293\nentropy = 0.353\nsamples = 15\nvalue = [1, 14]"] ;
526 -> 527 ;
528 [label="entropy = 0.0\nsamples = 1\nvalue = [1, 0]"] ;
527 -> 528 ;
529 [label="entropy = 0.0\nsamples = 14\nvalue = [0, 14]"] ;
527 -> 529 ;
530 [label="entropy = 0.0\nsamples = 2\nvalue = [2, 0]"] ;
526 -> 530 ;
531 [label="hemoglobin <= 0.278\nentropy = 0.975\nsamples = 27\nvalue = [16, 11]"] ;
525 -> 531 ;
532 [label="hbver <= 0.408\nentropy = 0.999\nsamples = 23\nvalue = [12, 11]"] ;
531 -> 532 ;
533 [label="hbver <= 0.397\nentropy = 0.592\nsamples = 7\nvalue = [6, 1]"] ;
532 -> 533 ;
534 [label="entropy = 0.0\nsamples = 1\nvalue = [0, 1]"] ;
533 -> 534 ;
535 [label="entropy = 0.0\nsamples = 6\nvalue = [6, 0]"] ;
533 -> 535 ;
536 [label="erytrocyty <= 0.149\nentropy = 0.954\nsamples = 16\nvalue = [6, 10]"] ;
532 -> 536 ;
537 [label="entropy = 0.0\nsamples = 4\nvalue = [0, 4]"] ;
536 -> 537 ;
538 [label="hbver <= 0.436\nentropy = 1.0\nsamples = 12\nvalue = [6, 6]"] ;
536 -> 538 ;
539 [label="erytrocyty <= 0.175\nentropy = 0.722\nsamples = 5\nvalue = [1, 4]"] ;
538 -> 539 ;
540 [label="entropy = 0.0\nsamples = 1\nvalue = [1, 0]"] ;
539 -> 540 ;
541 [label="entropy = 0.0\nsamples = 4\nvalue = [0, 4]"] ;
539 -> 541 ;
542 [label="erytrocyty <= 0.273\nentropy = 0.863\nsamples = 7\nvalue = [5, 2]"] ;
538 -> 542 ;
543 [label="entropy = 0.0\nsamples = 4\nvalue = [4, 0]"] ;
542 -> 543 ;
544 [label="hemoglobin <= 0.25\nentropy = 0.918\nsamples = 3\nvalue = [1, 2]"] ;
542 -> 544 ;
545 [label="entropy = 0.0\nsamples = 1\nvalue = [1, 0]"] ;
544 -> 545 ;
546 [label="entropy = 0.0\nsamples = 2\nvalue = [0, 2]"] ;
544 -> 546 ;
547 [label="entropy = 0.0\nsamples = 4\nvalue = [4, 0]"] ;
531 -> 547 ;
548 [label="entropy = 0.0\nsamples = 10\nvalue = [0, 10]"] ;
524 -> 548 ;
549 [label="hematokrit <= 0.436\nentropy = 0.619\nsamples = 39\nvalue = [33, 6]"] ;
523 -> 549 ;
550 [label="erytrocyty <= 0.4\nentropy = 0.811\nsamples = 4\nvalue = [1, 3]"] ;
549 -> 550 ;
551 [label="entropy = 0.0\nsamples = 3\nvalue = [0, 3]"] ;
550 -> 551 ;
552 [label="entropy = 0.0\nsamples = 1\nvalue = [1, 0]"] ;
550 -> 552 ;
553 [label="er-cv <= 0.701\nentropy = 0.422\nsamples = 35\nvalue = [32, 3]"] ;
549 -> 553 ;
554 [label="hbver <= 0.383\nentropy = 0.206\nsamples = 31\nvalue = [30, 1]"] ;
553 -> 554 ;
555 [label="hematokrit <= 0.462\nentropy = 1.0\nsamples = 2\nvalue = [1, 1]"] ;
554 -> 555 ;
556 [label="entropy = 0.0\nsamples = 1\nvalue = [0, 1]"] ;
555 -> 556 ;
557 [label="entropy = 0.0\nsamples = 1\nvalue = [1, 0]"] ;
555 -> 557 ;
558 [label="entropy = 0.0\nsamples = 29\nvalue = [29, 0]"] ;
554 -> 558 ;
559 [label="hematokrit <= 0.465\nentropy = 1.0\nsamples = 4\nvalue = [2, 2]"] ;
553 -> 559 ;
560 [label="entropy = 0.0\nsamples = 2\nvalue = [2, 0]"] ;
559 -> 560 ;
561 [label="entropy = 0.0\nsamples = 2\nvalue = [0, 2]"] ;
559 -> 561 ;
562 [label="hematokrit <= 0.698\nentropy = 0.651\nsamples = 281\nvalue = [234, 47]"] ;
522 -> 562 ;
563 [label="hbver <= 0.521\nentropy = 0.353\nsamples = 210\nvalue = [196, 14]"] ;
562 -> 563 ;
564 [label="hbver <= 0.283\nentropy = 0.564\nsamples = 83\nvalue = [72, 11]"] ;
563 -> 564 ;
565 [label="entropy = 0.0\nsamples = 20\nvalue = [20, 0]"] ;
564 -> 565 ;
566 [label="hemoglobin <= 0.224\nentropy = 0.668\nsamples = 63\nvalue = [52, 11]"] ;
564 -> 566 ;
567 [label="entropy = 0.0\nsamples = 10\nvalue = [10, 0]"] ;
566 -> 567 ;
568 [label="hematokrit <= 0.535\nentropy = 0.737\nsamples = 53\nvalue = [42, 11]"] ;
566 -> 568 ;
569 [label="er-cv <= 0.717\nentropy = 0.31\nsamples = 18\nvalue = [17, 1]"] ;
568 -> 569 ;
570 [label="entropy = 0.0\nsamples = 16\nvalue = [16, 0]"] ;
569 -> 570 ;
571 [label="hematokrit <= 0.512\nentropy = 1.0\nsamples = 2\nvalue = [1, 1]"] ;
569 -> 571 ;
572 [label="entropy = 0.0\nsamples = 1\nvalue = [1, 0]"] ;
571 -> 572 ;
573 [label="entropy = 0.0\nsamples = 1\nvalue = [0, 1]"] ;
571 -> 573 ;
574 [label="erytrocyty <= 0.123\nentropy = 0.863\nsamples = 35\nvalue = [25, 10]"] ;
568 -> 574 ;
575 [label="entropy = 0.0\nsamples = 4\nvalue = [4, 0]"] ;
574 -> 575 ;
576 [label="hematokrit <= 0.545\nentropy = 0.907\nsamples = 31\nvalue = [21, 10]"] ;
574 -> 576 ;
577 [label="entropy = 0.0\nsamples = 2\nvalue = [0, 2]"] ;
576 -> 577 ;
578 [label="hbver <= 0.418\nentropy = 0.85\nsamples = 29\nvalue = [21, 8]"] ;
576 -> 578 ;
579 [label="hbver <= 0.299\nentropy = 0.567\nsamples = 15\nvalue = [13, 2]"] ;
578 -> 579 ;
580 [label="entropy = 0.0\nsamples = 1\nvalue = [0, 1]"] ;
579 -> 580 ;
581 [label="hemoglobin <= 0.287\nentropy = 0.371\nsamples = 14\nvalue = [13, 1]"] ;
579 -> 581 ;
582 [label="entropy = 0.0\nsamples = 13\nvalue = [13, 0]"] ;
581 -> 582 ;
583 [label="entropy = 0.0\nsamples = 1\nvalue = [0, 1]"] ;
581 -> 583 ;
584 [label="erytrocyty <= 0.336\nentropy = 0.985\nsamples = 14\nvalue = [8, 6]"] ;
578 -> 584 ;
585 [label="hemoglobin <= 0.245\nentropy = 0.918\nsamples = 12\nvalue = [8, 4]"] ;
584 -> 585 ;
586 [label="entropy = 0.0\nsamples = 4\nvalue = [4, 0]"] ;
585 -> 586 ;
587 [label="hbver <= 0.443\nentropy = 1.0\nsamples = 8\nvalue = [4, 4]"] ;
585 -> 587 ;
588 [label="entropy = 0.0\nsamples = 2\nvalue = [0, 2]"] ;
587 -> 588 ;
589 [label="hbver <= 0.502\nentropy = 0.918\nsamples = 6\nvalue = [4, 2]"] ;
587 -> 589 ;
590 [label="entropy = 0.0\nsamples = 3\nvalue = [3, 0]"] ;
589 -> 590 ;
591 [label="erytrocyty <= 0.249\nentropy = 0.918\nsamples = 3\nvalue = [1, 2]"] ;
589 -> 591 ;
592 [label="entropy = 0.0\nsamples = 2\nvalue = [0, 2]"] ;
591 -> 592 ;
593 [label="entropy = 0.0\nsamples = 1\nvalue = [1, 0]"] ;
591 -> 593 ;
594 [label="entropy = 0.0\nsamples = 2\nvalue = [0, 2]"] ;
584 -> 594 ;
595 [label="hemoglobin <= 0.263\nentropy = 0.161\nsamples = 127\nvalue = [124, 3]"] ;
563 -> 595 ;
596 [label="entropy = 0.0\nsamples = 88\nvalue = [88, 0]"] ;
595 -> 596 ;
597 [label="hematokrit <= 0.663\nentropy = 0.391\nsamples = 39\nvalue = [36, 3]"] ;
595 -> 597 ;
598 [label="hemoglobin <= 0.264\nentropy = 0.179\nsamples = 37\nvalue = [36, 1]"] ;
597 -> 598 ;
599 [label="entropy = 0.0\nsamples = 1\nvalue = [0, 1]"] ;
598 -> 599 ;
600 [label="entropy = 0.0\nsamples = 36\nvalue = [36, 0]"] ;
598 -> 600 ;
601 [label="entropy = 0.0\nsamples = 2\nvalue = [0, 2]"] ;
597 -> 601 ;
602 [label="hbver <= 0.517\nentropy = 0.996\nsamples = 71\nvalue = [38, 33]"] ;
562 -> 602 ;
603 [label="hematokrit <= 0.828\nentropy = 0.477\nsamples = 39\nvalue = [35, 4]"] ;
602 -> 603 ;
604 [label="entropy = 0.0\nsamples = 24\nvalue = [24, 0]"] ;
603 -> 604 ;
605 [label="hematokrit <= 0.834\nentropy = 0.837\nsamples = 15\nvalue = [11, 4]"] ;
603 -> 605 ;
606 [label="entropy = 0.0\nsamples = 1\nvalue = [0, 1]"] ;
605 -> 606 ;
607 [label="er-cv <= 0.662\nentropy = 0.75\nsamples = 14\nvalue = [11, 3]"] ;
605 -> 607 ;
608 [label="entropy = 0.0\nsamples = 8\nvalue = [8, 0]"] ;
607 -> 608 ;
609 [label="hematokrit <= 0.91\nentropy = 1.0\nsamples = 6\nvalue = [3, 3]"] ;
607 -> 609 ;
610 [label="er-cv <= 0.674\nentropy = 0.811\nsamples = 4\nvalue = [3, 1]"] ;
609 -> 610 ;
611 [label="entropy = 0.0\nsamples = 1\nvalue = [0, 1]"] ;
610 -> 611 ;
612 [label="entropy = 0.0\nsamples = 3\nvalue = [3, 0]"] ;
610 -> 612 ;
613 [label="entropy = 0.0\nsamples = 2\nvalue = [0, 2]"] ;
609 -> 613 ;
614 [label="erytrocyty <= 0.295\nentropy = 0.449\nsamples = 32\nvalue = [3, 29]"] ;
602 -> 614 ;
615 [label="entropy = 0.0\nsamples = 3\nvalue = [3, 0]"] ;
614 -> 615 ;
616 [label="entropy = 0.0\nsamples = 29\nvalue = [0, 29]"] ;
614 -> 616 ;
617 [label="erytrocyty <= 0.491\nentropy = 1.0\nsamples = 146\nvalue = [72, 74]"] ;
521 -> 617 ;
618 [label="hematokrit <= 0.721\nentropy = 0.592\nsamples = 28\nvalue = [4, 24]"] ;
617 -> 618 ;
619 [label="entropy = 0.0\nsamples = 19\nvalue = [0, 19]"] ;
618 -> 619 ;
620 [label="hemoglobin <= 0.261\nentropy = 0.991\nsamples = 9\nvalue = [4, 5]"] ;
618 -> 620 ;
621 [label="entropy = 0.0\nsamples = 2\nvalue = [2, 0]"] ;
620 -> 621 ;
622 [label="erytrocyty <= 0.331\nentropy = 0.863\nsamples = 7\nvalue = [2, 5]"] ;
620 -> 622 ;
623 [label="entropy = 0.0\nsamples = 1\nvalue = [1, 0]"] ;
622 -> 623 ;
624 [label="er-cv <= 0.238\nentropy = 0.65\nsamples = 6\nvalue = [1, 5]"] ;
622 -> 624 ;
625 [label="entropy = 0.0\nsamples = 1\nvalue = [1, 0]"] ;
624 -> 625 ;
626 [label="entropy = 0.0\nsamples = 5\nvalue = [0, 5]"] ;
624 -> 626 ;
627 [label="erytrocyty <= 0.603\nentropy = 0.983\nsamples = 118\nvalue = [68, 50]"] ;
617 -> 627 ;
628 [label="hematokrit <= 0.662\nentropy = 0.977\nsamples = 34\nvalue = [14, 20]"] ;
627 -> 628 ;
629 [label="entropy = 0.0\nsamples = 11\nvalue = [0, 11]"] ;
628 -> 629 ;
630 [label="erytrocyty <= 0.497\nentropy = 0.966\nsamples = 23\nvalue = [14, 9]"] ;
628 -> 630 ;
631 [label="entropy = 0.0\nsamples = 3\nvalue = [3, 0]"] ;
630 -> 631 ;
632 [label="er-cv <= 0.644\nentropy = 0.993\nsamples = 20\nvalue = [11, 9]"] ;
630 -> 632 ;
633 [label="hematokrit <= 0.687\nentropy = 0.998\nsamples = 17\nvalue = [8, 9]"] ;
632 -> 633 ;
634 [label="entropy = 0.0\nsamples = 3\nvalue = [0, 3]"] ;
633 -> 634 ;
635 [label="erytrocyty <= 0.565\nentropy = 0.985\nsamples = 14\nvalue = [8, 6]"] ;
633 -> 635 ;
636 [label="hbver <= 0.671\nentropy = 0.954\nsamples = 8\nvalue = [3, 5]"] ;
635 -> 636 ;
637 [label="entropy = 0.0\nsamples = 2\nvalue = [0, 2]"] ;
636 -> 637 ;
638 [label="hemoglobin <= 0.251\nentropy = 1.0\nsamples = 6\nvalue = [3, 3]"] ;
636 -> 638 ;
639 [label="er-cv <= 0.595\nentropy = 0.811\nsamples = 4\nvalue = [3, 1]"] ;
638 -> 639 ;
640 [label="entropy = 0.0\nsamples = 3\nvalue = [3, 0]"] ;
639 -> 640 ;
641 [label="entropy = 0.0\nsamples = 1\nvalue = [0, 1]"] ;
639 -> 641 ;
642 [label="entropy = 0.0\nsamples = 2\nvalue = [0, 2]"] ;
638 -> 642 ;
643 [label="er-cv <= 0.397\nentropy = 0.65\nsamples = 6\nvalue = [5, 1]"] ;
635 -> 643 ;
644 [label="entropy = 0.0\nsamples = 1\nvalue = [0, 1]"] ;
643 -> 644 ;
645 [label="entropy = 0.0\nsamples = 5\nvalue = [5, 0]"] ;
643 -> 645 ;
646 [label="entropy = 0.0\nsamples = 3\nvalue = [3, 0]"] ;
632 -> 646 ;
647 [label="hematokrit <= 0.825\nentropy = 0.94\nsamples = 84\nvalue = [54, 30]"] ;
627 -> 647 ;
648 [label="erytrocyty <= 0.626\nentropy = 0.918\nsamples = 81\nvalue = [54, 27]"] ;
647 -> 648 ;
649 [label="entropy = 0.0\nsamples = 5\nvalue = [5, 0]"] ;
648 -> 649 ;
650 [label="hbver <= 0.856\nentropy = 0.939\nsamples = 76\nvalue = [49, 27]"] ;
648 -> 650 ;
651 [label="hbver <= 0.811\nentropy = 0.918\nsamples = 72\nvalue = [48, 24]"] ;
650 -> 651 ;
652 [label="hematokrit <= 0.586\nentropy = 0.946\nsamples = 66\nvalue = [42, 24]"] ;
651 -> 652 ;
653 [label="entropy = 0.0\nsamples = 6\nvalue = [6, 0]"] ;
652 -> 653 ;
654 [label="hbver <= 0.653\nentropy = 0.971\nsamples = 60\nvalue = [36, 24]"] ;
652 -> 654 ;
655 [label="entropy = 0.0\nsamples = 3\nvalue = [0, 3]"] ;
654 -> 655 ;
656 [label="hbver <= 0.799\nentropy = 0.949\nsamples = 57\nvalue = [36, 21]"] ;
654 -> 656 ;
657 [label="erytrocyty <= 0.639\nentropy = 0.93\nsamples = 55\nvalue = [36, 19]"] ;
656 -> 657 ;
658 [label="entropy = 0.0\nsamples = 4\nvalue = [4, 0]"] ;
657 -> 658 ;
659 [label="erytrocyty <= 0.641\nentropy = 0.953\nsamples = 51\nvalue = [32, 19]"] ;
657 -> 659 ;
660 [label="entropy = 0.0\nsamples = 2\nvalue = [0, 2]"] ;
659 -> 660 ;
661 [label="hbver <= 0.724\nentropy = 0.931\nsamples = 49\nvalue = [32, 17]"] ;
659 -> 661 ;
662 [label="erytrocyty <= 0.806\nentropy = 1.0\nsamples = 26\nvalue = [13, 13]"] ;
661 -> 662 ;
663 [label="hbver <= 0.717\nentropy = 0.837\nsamples = 15\nvalue = [11, 4]"] ;
662 -> 663 ;
664 [label="hematokrit <= 0.695\nentropy = 0.619\nsamples = 13\nvalue = [11, 2]"] ;
663 -> 664 ;
665 [label="entropy = 0.0\nsamples = 10\nvalue = [10, 0]"] ;
664 -> 665 ;
666 [label="er-cv <= 0.599\nentropy = 0.918\nsamples = 3\nvalue = [1, 2]"] ;
664 -> 666 ;
667 [label="entropy = 0.0\nsamples = 2\nvalue = [0, 2]"] ;
666 -> 667 ;
668 [label="entropy = 0.0\nsamples = 1\nvalue = [1, 0]"] ;
666 -> 668 ;
669 [label="entropy = 0.0\nsamples = 2\nvalue = [0, 2]"] ;
663 -> 669 ;
670 [label="hemoglobin <= 0.224\nentropy = 0.684\nsamples = 11\nvalue = [2, 9]"] ;
662 -> 670 ;
671 [label="hematokrit <= 0.702\nentropy = 0.918\nsamples = 3\nvalue = [2, 1]"] ;
670 -> 671 ;
672 [label="entropy = 0.0\nsamples = 2\nvalue = [2, 0]"] ;
671 -> 672 ;
673 [label="entropy = 0.0\nsamples = 1\nvalue = [0, 1]"] ;
671 -> 673 ;
674 [label="entropy = 0.0\nsamples = 8\nvalue = [0, 8]"] ;
670 -> 674 ;
675 [label="hematokrit <= 0.66\nentropy = 0.667\nsamples = 23\nvalue = [19, 4]"] ;
661 -> 675 ;
676 [label="erytrocyty <= 0.789\nentropy = 1.0\nsamples = 8\nvalue = [4, 4]"] ;
675 -> 676 ;
677 [label="entropy = 0.0\nsamples = 3\nvalue = [0, 3]"] ;
676 -> 677 ;
678 [label="hematokrit <= 0.659\nentropy = 0.722\nsamples = 5\nvalue = [4, 1]"] ;
676 -> 678 ;
679 [label="entropy = 0.0\nsamples = 4\nvalue = [4, 0]"] ;
678 -> 679 ;
680 [label="entropy = 0.0\nsamples = 1\nvalue = [0, 1]"] ;
678 -> 680 ;
681 [label="entropy = 0.0\nsamples = 15\nvalue = [15, 0]"] ;
675 -> 681 ;
682 [label="entropy = 0.0\nsamples = 2\nvalue = [0, 2]"] ;
656 -> 682 ;
683 [label="entropy = 0.0\nsamples = 6\nvalue = [6, 0]"] ;
651 -> 683 ;
684 [label="er-cv <= 0.269\nentropy = 0.811\nsamples = 4\nvalue = [1, 3]"] ;
650 -> 684 ;
685 [label="entropy = 0.0\nsamples = 1\nvalue = [1, 0]"] ;
684 -> 685 ;
686 [label="entropy = 0.0\nsamples = 3\nvalue = [0, 3]"] ;
684 -> 686 ;
687 [label="entropy = 0.0\nsamples = 3\nvalue = [0, 3]"] ;
647 -> 687 ;
688 [label="hbver <= 0.447\nentropy = 0.944\nsamples = 3869\nvalue = [1397, 2472]"] ;
416 -> 688 ;
689 [label="hematokrit <= 0.485\nentropy = 0.948\nsamples = 1451\nvalue = [920, 531]"] ;
688 -> 689 ;
690 [label="erytrocyty <= 0.197\nentropy = 0.901\nsamples = 338\nvalue = [107, 231]"] ;
689 -> 690 ;
691 [label="hemoglobin <= 0.315\nentropy = 0.592\nsamples = 7\nvalue = [6, 1]"] ;
690 -> 691 ;
692 [label="entropy = 0.0\nsamples = 1\nvalue = [0, 1]"] ;
691 -> 692 ;
693 [label="entropy = 0.0\nsamples = 6\nvalue = [6, 0]"] ;
691 -> 693 ;
694 [label="hbver <= 0.234\nentropy = 0.887\nsamples = 331\nvalue = [101, 230]"] ;
690 -> 694 ;
695 [label="hemoglobin <= 0.421\nentropy = 0.644\nsamples = 61\nvalue = [10, 51]"] ;
694 -> 695 ;
696 [label="entropy = 0.0\nsamples = 3\nvalue = [3, 0]"] ;
695 -> 696 ;
697 [label="erytrocyty <= 0.559\nentropy = 0.531\nsamples = 58\nvalue = [7, 51]"] ;
695 -> 697 ;
698 [label="entropy = 0.0\nsamples = 23\nvalue = [0, 23]"] ;
697 -> 698 ;
699 [label="erytrocyty <= 0.568\nentropy = 0.722\nsamples = 35\nvalue = [7, 28]"] ;
697 -> 699 ;
700 [label="entropy = 0.0\nsamples = 2\nvalue = [2, 0]"] ;
699 -> 700 ;
701 [label="hemoglobin <= 0.806\nentropy = 0.614\nsamples = 33\nvalue = [5, 28]"] ;
699 -> 701 ;
702 [label="hematokrit <= 0.477\nentropy = 0.381\nsamples = 27\nvalue = [2, 25]"] ;
701 -> 702 ;
703 [label="entropy = 0.0\nsamples = 21\nvalue = [0, 21]"] ;
702 -> 703 ;
704 [label="er-cv <= 0.498\nentropy = 0.918\nsamples = 6\nvalue = [2, 4]"] ;
702 -> 704 ;
705 [label="entropy = 0.0\nsamples = 3\nvalue = [0, 3]"] ;
704 -> 705 ;
706 [label="erytrocyty <= 0.687\nentropy = 0.918\nsamples = 3\nvalue = [2, 1]"] ;
704 -> 706 ;
707 [label="entropy = 0.0\nsamples = 2\nvalue = [2, 0]"] ;
706 -> 707 ;
708 [label="entropy = 0.0\nsamples = 1\nvalue = [0, 1]"] ;
706 -> 708 ;
709 [label="hematokrit <= 0.474\nentropy = 1.0\nsamples = 6\nvalue = [3, 3]"] ;
701 -> 709 ;
710 [label="hematokrit <= 0.433\nentropy = 0.811\nsamples = 4\nvalue = [3, 1]"] ;
709 -> 710 ;
711 [label="entropy = 0.0\nsamples = 1\nvalue = [0, 1]"] ;
710 -> 711 ;
712 [label="entropy = 0.0\nsamples = 3\nvalue = [3, 0]"] ;
710 -> 712 ;
713 [label="entropy = 0.0\nsamples = 2\nvalue = [0, 2]"] ;
709 -> 713 ;
714 [label="hemoglobin <= 0.653\nentropy = 0.922\nsamples = 270\nvalue = [91, 179]"] ;
694 -> 714 ;
715 [label="erytrocyty <= 0.55\nentropy = 0.868\nsamples = 228\nvalue = [66, 162]"] ;
714 -> 715 ;
716 [label="hemoglobin <= 0.537\nentropy = 0.924\nsamples = 168\nvalue = [57, 111]"] ;
715 -> 716 ;
717 [label="erytrocyty <= 0.32\nentropy = 0.82\nsamples = 133\nvalue = [34, 99]"] ;
716 -> 717 ;
718 [label="hemoglobin <= 0.462\nentropy = 0.992\nsamples = 29\nvalue = [13, 16]"] ;
717 -> 718 ;
719 [label="hbver <= 0.417\nentropy = 0.918\nsamples = 24\nvalue = [8, 16]"] ;
718 -> 719 ;
720 [label="hbver <= 0.394\nentropy = 0.971\nsamples = 20\nvalue = [8, 12]"] ;
719 -> 720 ;
721 [label="hbver <= 0.333\nentropy = 0.918\nsamples = 18\nvalue = [6, 12]"] ;
720 -> 721 ;
722 [label="hemoglobin <= 0.422\nentropy = 0.985\nsamples = 14\nvalue = [6, 8]"] ;
721 -> 722 ;
723 [label="er-cv <= 0.656\nentropy = 0.994\nsamples = 11\nvalue = [6, 5]"] ;
722 -> 723 ;
724 [label="hematokrit <= 0.441\nentropy = 0.991\nsamples = 9\nvalue = [4, 5]"] ;
723 -> 724 ;
725 [label="entropy = 0.0\nsamples = 2\nvalue = [2, 0]"] ;
724 -> 725 ;
726 [label="hemoglobin <= 0.366\nentropy = 0.863\nsamples = 7\nvalue = [2, 5]"] ;
724 -> 726 ;
727 [label="entropy = 0.0\nsamples = 4\nvalue = [0, 4]"] ;
726 -> 727 ;
728 [label="er-cv <= 0.59\nentropy = 0.918\nsamples = 3\nvalue = [2, 1]"] ;
726 -> 728 ;
729 [label="entropy = 0.0\nsamples = 2\nvalue = [2, 0]"] ;
728 -> 729 ;
730 [label="entropy = 0.0\nsamples = 1\nvalue = [0, 1]"] ;
728 -> 730 ;
731 [label="entropy = 0.0\nsamples = 2\nvalue = [2, 0]"] ;
723 -> 731 ;
732 [label="entropy = 0.0\nsamples = 3\nvalue = [0, 3]"] ;
722 -> 732 ;
733 [label="entropy = 0.0\nsamples = 4\nvalue = [0, 4]"] ;
721 -> 733 ;
734 [label="entropy = 0.0\nsamples = 2\nvalue = [2, 0]"] ;
720 -> 734 ;
735 [label="entropy = 0.0\nsamples = 4\nvalue = [0, 4]"] ;
719 -> 735 ;
736 [label="entropy = 0.0\nsamples = 5\nvalue = [5, 0]"] ;
718 -> 736 ;
737 [label="erytrocyty <= 0.539\nentropy = 0.726\nsamples = 104\nvalue = [21, 83]"] ;
717 -> 737 ;
738 [label="hemoglobin <= 0.4\nentropy = 0.694\nsamples = 102\nvalue = [19, 83]"] ;
737 -> 738 ;
739 [label="erytrocyty <= 0.409\nentropy = 0.946\nsamples = 22\nvalue = [8, 14]"] ;
738 -> 739 ;
740 [label="hbver <= 0.272\nentropy = 0.544\nsamples = 16\nvalue = [2, 14]"] ;
739 -> 740 ;
741 [label="entropy = 0.0\nsamples = 1\nvalue = [1, 0]"] ;
740 -> 741 ;
742 [label="er-cv <= 0.394\nentropy = 0.353\nsamples = 15\nvalue = [1, 14]"] ;
740 -> 742 ;
743 [label="er-cv <= 0.338\nentropy = 0.811\nsamples = 4\nvalue = [1, 3]"] ;
742 -> 743 ;
744 [label="entropy = 0.0\nsamples = 3\nvalue = [0, 3]"] ;
743 -> 744 ;
745 [label="entropy = 0.0\nsamples = 1\nvalue = [1, 0]"] ;
743 -> 745 ;
746 [label="entropy = 0.0\nsamples = 11\nvalue = [0, 11]"] ;
742 -> 746 ;
747 [label="entropy = 0.0\nsamples = 6\nvalue = [6, 0]"] ;
739 -> 747 ;
748 [label="hbver <= 0.364\nentropy = 0.578\nsamples = 80\nvalue = [11, 69]"] ;
738 -> 748 ;
749 [label="hemoglobin <= 0.47\nentropy = 0.327\nsamples = 50\nvalue = [3, 47]"] ;
748 -> 749 ;
750 [label="entropy = 0.0\nsamples = 24\nvalue = [0, 24]"] ;
749 -> 750 ;
751 [label="hemoglobin <= 0.479\nentropy = 0.516\nsamples = 26\nvalue = [3, 23]"] ;
749 -> 751 ;
752 [label="hbver <= 0.298\nentropy = 0.918\nsamples = 3\nvalue = [2, 1]"] ;
751 -> 752 ;
753 [label="entropy = 0.0\nsamples = 1\nvalue = [0, 1]"] ;
752 -> 753 ;
754 [label="entropy = 0.0\nsamples = 2\nvalue = [2, 0]"] ;
752 -> 754 ;
755 [label="er-cv <= 0.36\nentropy = 0.258\nsamples = 23\nvalue = [1, 22]"] ;
751 -> 755 ;
756 [label="hemoglobin <= 0.512\nentropy = 0.918\nsamples = 3\nvalue = [1, 2]"] ;
755 -> 756 ;
757 [label="entropy = 0.0\nsamples = 1\nvalue = [1, 0]"] ;
756 -> 757 ;
758 [label="entropy = 0.0\nsamples = 2\nvalue = [0, 2]"] ;
756 -> 758 ;
759 [label="entropy = 0.0\nsamples = 20\nvalue = [0, 20]"] ;
755 -> 759 ;
760 [label="hbver <= 0.368\nentropy = 0.837\nsamples = 30\nvalue = [8, 22]"] ;
748 -> 760 ;
761 [label="entropy = 0.0\nsamples = 2\nvalue = [2, 0]"] ;
760 -> 761 ;
762 [label="erytrocyty <= 0.423\nentropy = 0.75\nsamples = 28\nvalue = [6, 22]"] ;
760 -> 762 ;
763 [label="hemoglobin <= 0.418\nentropy = 0.98\nsamples = 12\nvalue = [5, 7]"] ;
762 -> 763 ;
764 [label="entropy = 0.0\nsamples = 4\nvalue = [0, 4]"] ;
763 -> 764 ;
765 [label="hbver <= 0.401\nentropy = 0.954\nsamples = 8\nvalue = [5, 3]"] ;
763 -> 765 ;
766 [label="er-cv <= 0.416\nentropy = 0.971\nsamples = 5\nvalue = [2, 3]"] ;
765 -> 766 ;
767 [label="entropy = 0.0\nsamples = 2\nvalue = [2, 0]"] ;
766 -> 767 ;
768 [label="entropy = 0.0\nsamples = 3\nvalue = [0, 3]"] ;
766 -> 768 ;
769 [label="entropy = 0.0\nsamples = 3\nvalue = [3, 0]"] ;
765 -> 769 ;
770 [label="hbver <= 0.374\nentropy = 0.337\nsamples = 16\nvalue = [1, 15]"] ;
762 -> 770 ;
771 [label="hbver <= 0.372\nentropy = 1.0\nsamples = 2\nvalue = [1, 1]"] ;
770 -> 771 ;
772 [label="entropy = 0.0\nsamples = 1\nvalue = [0, 1]"] ;
771 -> 772 ;
773 [label="entropy = 0.0\nsamples = 1\nvalue = [1, 0]"] ;
771 -> 773 ;
774 [label="entropy = 0.0\nsamples = 14\nvalue = [0, 14]"] ;
770 -> 774 ;
775 [label="entropy = 0.0\nsamples = 2\nvalue = [2, 0]"] ;
737 -> 775 ;
776 [label="hbver <= 0.365\nentropy = 0.928\nsamples = 35\nvalue = [23, 12]"] ;
716 -> 776 ;
777 [label="er-cv <= 0.447\nentropy = 1.0\nsamples = 22\nvalue = [11, 11]"] ;
776 -> 777 ;
778 [label="erytrocyty <= 0.437\nentropy = 0.503\nsamples = 9\nvalue = [1, 8]"] ;
777 -> 778 ;
779 [label="entropy = 0.0\nsamples = 1\nvalue = [1, 0]"] ;
778 -> 779 ;
780 [label="entropy = 0.0\nsamples = 8\nvalue = [0, 8]"] ;
778 -> 780 ;
781 [label="hbver <= 0.308\nentropy = 0.779\nsamples = 13\nvalue = [10, 3]"] ;
777 -> 781 ;
782 [label="entropy = 0.0\nsamples = 7\nvalue = [7, 0]"] ;
781 -> 782 ;
783 [label="hematokrit <= 0.443\nentropy = 1.0\nsamples = 6\nvalue = [3, 3]"] ;
781 -> 783 ;
784 [label="entropy = 0.0\nsamples = 2\nvalue = [2, 0]"] ;
783 -> 784 ;
785 [label="erytrocyty <= 0.525\nentropy = 0.811\nsamples = 4\nvalue = [1, 3]"] ;
783 -> 785 ;
786 [label="hemoglobin <= 0.548\nentropy = 1.0\nsamples = 2\nvalue = [1, 1]"] ;
785 -> 786 ;
787 [label="entropy = 0.0\nsamples = 1\nvalue = [0, 1]"] ;
786 -> 787 ;
788 [label="entropy = 0.0\nsamples = 1\nvalue = [1, 0]"] ;
786 -> 788 ;
789 [label="entropy = 0.0\nsamples = 2\nvalue = [0, 2]"] ;
785 -> 789 ;
790 [label="hbver <= 0.417\nentropy = 0.391\nsamples = 13\nvalue = [12, 1]"] ;
776 -> 790 ;
791 [label="entropy = 0.0\nsamples = 8\nvalue = [8, 0]"] ;
790 -> 791 ;
792 [label="hbver <= 0.425\nentropy = 0.722\nsamples = 5\nvalue = [4, 1]"] ;
790 -> 792 ;
793 [label="entropy = 0.0\nsamples = 1\nvalue = [0, 1]"] ;
792 -> 793 ;
794 [label="entropy = 0.0\nsamples = 4\nvalue = [4, 0]"] ;
792 -> 794 ;
795 [label="hemoglobin <= 0.579\nentropy = 0.61\nsamples = 60\nvalue = [9, 51]"] ;
715 -> 795 ;
796 [label="erytrocyty <= 0.588\nentropy = 0.881\nsamples = 30\nvalue = [9, 21]"] ;
795 -> 796 ;
797 [label="hematokrit <= 0.431\nentropy = 0.323\nsamples = 17\nvalue = [1, 16]"] ;
796 -> 797 ;
798 [label="er-cv <= 0.481\nentropy = 1.0\nsamples = 2\nvalue = [1, 1]"] ;
797 -> 798 ;
799 [label="entropy = 0.0\nsamples = 1\nvalue = [0, 1]"] ;
798 -> 799 ;
800 [label="entropy = 0.0\nsamples = 1\nvalue = [1, 0]"] ;
798 -> 800 ;
801 [label="entropy = 0.0\nsamples = 15\nvalue = [0, 15]"] ;
797 -> 801 ;
802 [label="hbver <= 0.397\nentropy = 0.961\nsamples = 13\nvalue = [8, 5]"] ;
796 -> 802 ;
803 [label="erytrocyty <= 0.596\nentropy = 0.722\nsamples = 10\nvalue = [8, 2]"] ;
802 -> 803 ;
804 [label="hematokrit <= 0.472\nentropy = 0.918\nsamples = 3\nvalue = [1, 2]"] ;
803 -> 804 ;
805 [label="entropy = 0.0\nsamples = 2\nvalue = [0, 2]"] ;
804 -> 805 ;
806 [label="entropy = 0.0\nsamples = 1\nvalue = [1, 0]"] ;
804 -> 806 ;
807 [label="entropy = 0.0\nsamples = 7\nvalue = [7, 0]"] ;
803 -> 807 ;
808 [label="entropy = 0.0\nsamples = 3\nvalue = [0, 3]"] ;
802 -> 808 ;
809 [label="entropy = 0.0\nsamples = 30\nvalue = [0, 30]"] ;
795 -> 809 ;
810 [label="erytrocyty <= 0.621\nentropy = 0.974\nsamples = 42\nvalue = [25, 17]"] ;
714 -> 810 ;
811 [label="erytrocyty <= 0.342\nentropy = 0.684\nsamples = 22\nvalue = [18, 4]"] ;
810 -> 811 ;
812 [label="entropy = 0.0\nsamples = 2\nvalue = [0, 2]"] ;
811 -> 812 ;
813 [label="er-cv <= 0.225\nentropy = 0.469\nsamples = 20\nvalue = [18, 2]"] ;
811 -> 813 ;
814 [label="entropy = 0.0\nsamples = 1\nvalue = [0, 1]"] ;
813 -> 814 ;
815 [label="hematokrit <= 0.439\nentropy = 0.297\nsamples = 19\nvalue = [18, 1]"] ;
813 -> 815 ;
816 [label="hematokrit <= 0.434\nentropy = 0.722\nsamples = 5\nvalue = [4, 1]"] ;
815 -> 816 ;
817 [label="entropy = 0.0\nsamples = 4\nvalue = [4, 0]"] ;
816 -> 817 ;
818 [label="entropy = 0.0\nsamples = 1\nvalue = [0, 1]"] ;
816 -> 818 ;
819 [label="entropy = 0.0\nsamples = 14\nvalue = [14, 0]"] ;
815 -> 819 ;
820 [label="hematokrit <= 0.464\nentropy = 0.934\nsamples = 20\nvalue = [7, 13]"] ;
810 -> 820 ;
821 [label="hemoglobin <= 0.662\nentropy = 0.592\nsamples = 14\nvalue = [2, 12]"] ;
820 -> 821 ;
822 [label="entropy = 0.0\nsamples = 1\nvalue = [1, 0]"] ;
821 -> 822 ;
823 [label="erytrocyty <= 0.686\nentropy = 0.391\nsamples = 13\nvalue = [1, 12]"] ;
821 -> 823 ;
824 [label="hematokrit <= 0.444\nentropy = 0.811\nsamples = 4\nvalue = [1, 3]"] ;
823 -> 824 ;
825 [label="entropy = 0.0\nsamples = 1\nvalue = [1, 0]"] ;
824 -> 825 ;
826 [label="entropy = 0.0\nsamples = 3\nvalue = [0, 3]"] ;
824 -> 826 ;
827 [label="entropy = 0.0\nsamples = 9\nvalue = [0, 9]"] ;
823 -> 827 ;
828 [label="er-cv <= 0.502\nentropy = 0.65\nsamples = 6\nvalue = [5, 1]"] ;
820 -> 828 ;
829 [label="entropy = 0.0\nsamples = 1\nvalue = [0, 1]"] ;
828 -> 829 ;
830 [label="entropy = 0.0\nsamples = 5\nvalue = [5, 0]"] ;
828 -> 830 ;
831 [label="hbver <= 0.369\nentropy = 0.841\nsamples = 1113\nvalue = [813, 300]"] ;
689 -> 831 ;
832 [label="hematokrit <= 0.583\nentropy = 0.69\nsamples = 747\nvalue = [609, 138]"] ;
831 -> 832 ;
833 [label="erytrocyty <= 0.488\nentropy = 0.954\nsamples = 270\nvalue = [169, 101]"] ;
832 -> 833 ;
834 [label="er-cv <= 0.479\nentropy = 1.0\nsamples = 104\nvalue = [52, 52]"] ;
833 -> 834 ;
835 [label="hbver <= 0.342\nentropy = 0.926\nsamples = 41\nvalue = [14, 27]"] ;
834 -> 835 ;
836 [label="hbver <= 0.337\nentropy = 0.981\nsamples = 31\nvalue = [13, 18]"] ;
835 -> 836 ;
837 [label="hematokrit <= 0.546\nentropy = 0.958\nsamples = 29\nvalue = [11, 18]"] ;
836 -> 837 ;
838 [label="hbver <= 0.259\nentropy = 0.787\nsamples = 17\nvalue = [4, 13]"] ;
837 -> 838 ;
839 [label="entropy = 0.0\nsamples = 7\nvalue = [0, 7]"] ;
838 -> 839 ;
840 [label="hbver <= 0.288\nentropy = 0.971\nsamples = 10\nvalue = [4, 6]"] ;
838 -> 840 ;
841 [label="entropy = 0.0\nsamples = 2\nvalue = [2, 0]"] ;
840 -> 841 ;
842 [label="erytrocyty <= 0.383\nentropy = 0.811\nsamples = 8\nvalue = [2, 6]"] ;
840 -> 842 ;
843 [label="entropy = 0.0\nsamples = 5\nvalue = [0, 5]"] ;
842 -> 843 ;
844 [label="hemoglobin <= 0.425\nentropy = 0.918\nsamples = 3\nvalue = [2, 1]"] ;
842 -> 844 ;
845 [label="entropy = 0.0\nsamples = 1\nvalue = [0, 1]"] ;
844 -> 845 ;
846 [label="entropy = 0.0\nsamples = 2\nvalue = [2, 0]"] ;
844 -> 846 ;
847 [label="erytrocyty <= 0.474\nentropy = 0.98\nsamples = 12\nvalue = [7, 5]"] ;
837 -> 847 ;
848 [label="er-cv <= 0.314\nentropy = 0.881\nsamples = 10\nvalue = [7, 3]"] ;
847 -> 848 ;
849 [label="erytrocyty <= 0.429\nentropy = 0.971\nsamples = 5\nvalue = [2, 3]"] ;
848 -> 849 ;
850 [label="entropy = 0.0\nsamples = 3\nvalue = [0, 3]"] ;
849 -> 850 ;
851 [label="entropy = 0.0\nsamples = 2\nvalue = [2, 0]"] ;
849 -> 851 ;
852 [label="entropy = 0.0\nsamples = 5\nvalue = [5, 0]"] ;
848 -> 852 ;
853 [label="entropy = 0.0\nsamples = 2\nvalue = [0, 2]"] ;
847 -> 853 ;
854 [label="entropy = 0.0\nsamples = 2\nvalue = [2, 0]"] ;
836 -> 854 ;
855 [label="hematokrit <= 0.5\nentropy = 0.469\nsamples = 10\nvalue = [1, 9]"] ;
835 -> 855 ;
856 [label="er-cv <= 0.35\nentropy = 1.0\nsamples = 2\nvalue = [1, 1]"] ;
855 -> 856 ;
857 [label="entropy = 0.0\nsamples = 1\nvalue = [1, 0]"] ;
856 -> 857 ;
858 [label="entropy = 0.0\nsamples = 1\nvalue = [0, 1]"] ;
856 -> 858 ;
859 [label="entropy = 0.0\nsamples = 8\nvalue = [0, 8]"] ;
855 -> 859 ;
860 [label="hemoglobin <= 0.498\nentropy = 0.969\nsamples = 63\nvalue = [38, 25]"] ;
834 -> 860 ;
861 [label="er-cv <= 0.705\nentropy = 0.876\nsamples = 44\nvalue = [31, 13]"] ;
860 -> 861 ;
862 [label="erytrocyty <= 0.417\nentropy = 0.96\nsamples = 34\nvalue = [21, 13]"] ;
861 -> 862 ;
863 [label="er-cv <= 0.623\nentropy = 0.999\nsamples = 23\nvalue = [11, 12]"] ;
862 -> 863 ;
864 [label="hemoglobin <= 0.44\nentropy = 0.982\nsamples = 19\nvalue = [11, 8]"] ;
863 -> 864 ;
865 [label="hematokrit <= 0.533\nentropy = 0.997\nsamples = 15\nvalue = [7, 8]"] ;
864 -> 865 ;
866 [label="er-cv <= 0.613\nentropy = 0.592\nsamples = 7\nvalue = [1, 6]"] ;
865 -> 866 ;
867 [label="entropy = 0.0\nsamples = 6\nvalue = [0, 6]"] ;
866 -> 867 ;
868 [label="entropy = 0.0\nsamples = 1\nvalue = [1, 0]"] ;
866 -> 868 ;
869 [label="hbver <= 0.254\nentropy = 0.811\nsamples = 8\nvalue = [6, 2]"] ;
865 -> 869 ;
870 [label="hemoglobin <= 0.418\nentropy = 0.918\nsamples = 3\nvalue = [1, 2]"] ;
869 -> 870 ;
871 [label="entropy = 0.0\nsamples = 2\nvalue = [0, 2]"] ;
870 -> 871 ;
872 [label="entropy = 0.0\nsamples = 1\nvalue = [1, 0]"] ;
870 -> 872 ;
873 [label="entropy = 0.0\nsamples = 5\nvalue = [5, 0]"] ;
869 -> 873 ;
874 [label="entropy = 0.0\nsamples = 4\nvalue = [4, 0]"] ;
864 -> 874 ;
875 [label="entropy = 0.0\nsamples = 4\nvalue = [0, 4]"] ;
863 -> 875 ;
876 [label="er-cv <= 0.7\nentropy = 0.439\nsamples = 11\nvalue = [10, 1]"] ;
862 -> 876 ;
877 [label="entropy = 0.0\nsamples = 10\nvalue = [10, 0]"] ;
876 -> 877 ;
878 [label="entropy = 0.0\nsamples = 1\nvalue = [0, 1]"] ;
876 -> 878 ;
879 [label="entropy = 0.0\nsamples = 10\nvalue = [10, 0]"] ;
861 -> 879 ;
880 [label="hemoglobin <= 0.575\nentropy = 0.949\nsamples = 19\nvalue = [7, 12]"] ;
860 -> 880 ;
881 [label="erytrocyty <= 0.337\nentropy = 0.414\nsamples = 12\nvalue = [1, 11]"] ;
880 -> 881 ;
882 [label="entropy = 0.0\nsamples = 1\nvalue = [1, 0]"] ;
881 -> 882 ;
883 [label="entropy = 0.0\nsamples = 11\nvalue = [0, 11]"] ;
881 -> 883 ;
884 [label="er-cv <= 0.715\nentropy = 0.592\nsamples = 7\nvalue = [6, 1]"] ;
880 -> 884 ;
885 [label="entropy = 0.0\nsamples = 6\nvalue = [6, 0]"] ;
884 -> 885 ;
886 [label="entropy = 0.0\nsamples = 1\nvalue = [0, 1]"] ;
884 -> 886 ;
887 [label="erytrocyty <= 0.501\nentropy = 0.875\nsamples = 166\nvalue = [117, 49]"] ;
833 -> 887 ;
888 [label="entropy = 0.0\nsamples = 11\nvalue = [11, 0]"] ;
887 -> 888 ;
889 [label="hematokrit <= 0.544\nentropy = 0.9\nsamples = 155\nvalue = [106, 49]"] ;
887 -> 889 ;
890 [label="erytrocyty <= 0.718\nentropy = 0.957\nsamples = 103\nvalue = [64, 39]"] ;
889 -> 890 ;
891 [label="hemoglobin <= 0.756\nentropy = 0.922\nsamples = 92\nvalue = [61, 31]"] ;
890 -> 891 ;
892 [label="hbver <= 0.175\nentropy = 0.95\nsamples = 84\nvalue = [53, 31]"] ;
891 -> 892 ;
893 [label="entropy = 0.0\nsamples = 5\nvalue = [5, 0]"] ;
892 -> 893 ;
894 [label="hbver <= 0.207\nentropy = 0.966\nsamples = 79\nvalue = [48, 31]"] ;
892 -> 894 ;
895 [label="hematokrit <= 0.517\nentropy = 0.881\nsamples = 10\nvalue = [3, 7]"] ;
894 -> 895 ;
896 [label="entropy = 0.0\nsamples = 5\nvalue = [0, 5]"] ;
895 -> 896 ;
897 [label="erytrocyty <= 0.567\nentropy = 0.971\nsamples = 5\nvalue = [3, 2]"] ;
895 -> 897 ;
898 [label="entropy = 0.0\nsamples = 2\nvalue = [0, 2]"] ;
897 -> 898 ;
899 [label="entropy = 0.0\nsamples = 3\nvalue = [3, 0]"] ;
897 -> 899 ;
900 [label="hemoglobin <= 0.631\nentropy = 0.932\nsamples = 69\nvalue = [45, 24]"] ;
894 -> 900 ;
901 [label="hbver <= 0.274\nentropy = 0.991\nsamples = 45\nvalue = [25, 20]"] ;
900 -> 901 ;
902 [label="hemoglobin <= 0.572\nentropy = 0.722\nsamples = 15\nvalue = [12, 3]"] ;
901 -> 902 ;
903 [label="entropy = 0.0\nsamples = 10\nvalue = [10, 0]"] ;
902 -> 903 ;
904 [label="er-cv <= 0.324\nentropy = 0.971\nsamples = 5\nvalue = [2, 3]"] ;
902 -> 904 ;
905 [label="entropy = 0.0\nsamples = 2\nvalue = [2, 0]"] ;
904 -> 905 ;
906 [label="entropy = 0.0\nsamples = 3\nvalue = [0, 3]"] ;
904 -> 906 ;
907 [label="er-cv <= 0.78\nentropy = 0.987\nsamples = 30\nvalue = [13, 17]"] ;
901 -> 907 ;
908 [label="hemoglobin <= 0.598\nentropy = 0.951\nsamples = 27\nvalue = [10, 17]"] ;
907 -> 908 ;
909 [label="hemoglobin <= 0.556\nentropy = 0.994\nsamples = 22\nvalue = [10, 12]"] ;
908 -> 909 ;
910 [label="erytrocyty <= 0.514\nentropy = 0.918\nsamples = 18\nvalue = [6, 12]"] ;
909 -> 910 ;
911 [label="entropy = 0.0\nsamples = 5\nvalue = [0, 5]"] ;
910 -> 911 ;
912 [label="hematokrit <= 0.497\nentropy = 0.996\nsamples = 13\nvalue = [6, 7]"] ;
910 -> 912 ;
913 [label="erytrocyty <= 0.52\nentropy = 0.65\nsamples = 6\nvalue = [1, 5]"] ;
912 -> 913 ;
914 [label="entropy = 0.0\nsamples = 1\nvalue = [1, 0]"] ;
913 -> 914 ;
915 [label="entropy = 0.0\nsamples = 5\nvalue = [0, 5]"] ;
913 -> 915 ;
916 [label="erytrocyty <= 0.557\nentropy = 0.863\nsamples = 7\nvalue = [5, 2]"] ;
912 -> 916 ;
917 [label="entropy = 0.0\nsamples = 4\nvalue = [4, 0]"] ;
916 -> 917 ;
918 [label="hemoglobin <= 0.522\nentropy = 0.918\nsamples = 3\nvalue = [1, 2]"] ;
916 -> 918 ;
919 [label="entropy = 0.0\nsamples = 2\nvalue = [0, 2]"] ;
918 -> 919 ;
920 [label="entropy = 0.0\nsamples = 1\nvalue = [1, 0]"] ;
918 -> 920 ;
921 [label="entropy = 0.0\nsamples = 4\nvalue = [4, 0]"] ;
909 -> 921 ;
922 [label="entropy = 0.0\nsamples = 5\nvalue = [0, 5]"] ;
908 -> 922 ;
923 [label="entropy = 0.0\nsamples = 3\nvalue = [3, 0]"] ;
907 -> 923 ;
924 [label="hemoglobin <= 0.742\nentropy = 0.65\nsamples = 24\nvalue = [20, 4]"] ;
900 -> 924 ;
925 [label="hbver <= 0.296\nentropy = 0.559\nsamples = 23\nvalue = [20, 3]"] ;
924 -> 925 ;
926 [label="entropy = 0.0\nsamples = 9\nvalue = [9, 0]"] ;
925 -> 926 ;
927 [label="hbver <= 0.334\nentropy = 0.75\nsamples = 14\nvalue = [11, 3]"] ;
925 -> 927 ;
928 [label="erytrocyty <= 0.571\nentropy = 0.954\nsamples = 8\nvalue = [5, 3]"] ;
927 -> 928 ;
929 [label="entropy = 0.0\nsamples = 2\nvalue = [2, 0]"] ;
928 -> 929 ;
930 [label="hematokrit <= 0.51\nentropy = 1.0\nsamples = 6\nvalue = [3, 3]"] ;
928 -> 930 ;
931 [label="entropy = 0.0\nsamples = 2\nvalue = [0, 2]"] ;
930 -> 931 ;
932 [label="hbver <= 0.32\nentropy = 0.811\nsamples = 4\nvalue = [3, 1]"] ;
930 -> 932 ;
933 [label="hematokrit <= 0.522\nentropy = 1.0\nsamples = 2\nvalue = [1, 1]"] ;
932 -> 933 ;
934 [label="entropy = 0.0\nsamples = 1\nvalue = [1, 0]"] ;
933 -> 934 ;
935 [label="entropy = 0.0\nsamples = 1\nvalue = [0, 1]"] ;
933 -> 935 ;
936 [label="entropy = 0.0\nsamples = 2\nvalue = [2, 0]"] ;
932 -> 936 ;
937 [label="entropy = 0.0\nsamples = 6\nvalue = [6, 0]"] ;
927 -> 937 ;
938 [label="entropy = 0.0\nsamples = 1\nvalue = [0, 1]"] ;
924 -> 938 ;
939 [label="entropy = 0.0\nsamples = 8\nvalue = [8, 0]"] ;
891 -> 939 ;
940 [label="hemoglobin <= 0.654\nentropy = 0.845\nsamples = 11\nvalue = [3, 8]"] ;
890 -> 940 ;
941 [label="hbver <= 0.303\nentropy = 0.811\nsamples = 4\nvalue = [3, 1]"] ;
940 -> 941 ;
942 [label="entropy = 0.0\nsamples = 3\nvalue = [3, 0]"] ;
941 -> 942 ;
943 [label="entropy = 0.0\nsamples = 1\nvalue = [0, 1]"] ;
941 -> 943 ;
944 [label="entropy = 0.0\nsamples = 7\nvalue = [0, 7]"] ;
940 -> 944 ;
945 [label="hemoglobin <= 0.61\nentropy = 0.706\nsamples = 52\nvalue = [42, 10]"] ;
889 -> 945 ;
946 [label="hematokrit <= 0.564\nentropy = 0.371\nsamples = 28\nvalue = [26, 2]"] ;
945 -> 946 ;
947 [label="entropy = 0.0\nsamples = 15\nvalue = [15, 0]"] ;
946 -> 947 ;
948 [label="hematokrit <= 0.565\nentropy = 0.619\nsamples = 13\nvalue = [11, 2]"] ;
946 -> 948 ;
949 [label="entropy = 0.0\nsamples = 1\nvalue = [0, 1]"] ;
948 -> 949 ;
950 [label="hemoglobin <= 0.563\nentropy = 0.414\nsamples = 12\nvalue = [11, 1]"] ;
948 -> 950 ;
951 [label="entropy = 0.0\nsamples = 8\nvalue = [8, 0]"] ;
950 -> 951 ;
952 [label="er-cv <= 0.508\nentropy = 0.811\nsamples = 4\nvalue = [3, 1]"] ;
950 -> 952 ;
953 [label="entropy = 0.0\nsamples = 3\nvalue = [3, 0]"] ;
952 -> 953 ;
954 [label="entropy = 0.0\nsamples = 1\nvalue = [0, 1]"] ;
952 -> 954 ;
955 [label="erytrocyty <= 0.585\nentropy = 0.918\nsamples = 24\nvalue = [16, 8]"] ;
945 -> 955 ;
956 [label="erytrocyty <= 0.532\nentropy = 0.954\nsamples = 8\nvalue = [3, 5]"] ;
955 -> 956 ;
957 [label="entropy = 0.0\nsamples = 2\nvalue = [2, 0]"] ;
956 -> 957 ;
958 [label="hemoglobin <= 0.626\nentropy = 0.65\nsamples = 6\nvalue = [1, 5]"] ;
956 -> 958 ;
959 [label="hemoglobin <= 0.618\nentropy = 1.0\nsamples = 2\nvalue = [1, 1]"] ;
958 -> 959 ;
960 [label="entropy = 0.0\nsamples = 1\nvalue = [0, 1]"] ;
959 -> 960 ;
961 [label="entropy = 0.0\nsamples = 1\nvalue = [1, 0]"] ;
959 -> 961 ;
962 [label="entropy = 0.0\nsamples = 4\nvalue = [0, 4]"] ;
958 -> 962 ;
963 [label="hemoglobin <= 0.691\nentropy = 0.696\nsamples = 16\nvalue = [13, 3]"] ;
955 -> 963 ;
964 [label="entropy = 0.0\nsamples = 10\nvalue = [10, 0]"] ;
963 -> 964 ;
965 [label="erytrocyty <= 0.714\nentropy = 1.0\nsamples = 6\nvalue = [3, 3]"] ;
963 -> 965 ;
966 [label="entropy = 0.0\nsamples = 2\nvalue = [0, 2]"] ;
965 -> 966 ;
967 [label="hematokrit <= 0.566\nentropy = 0.811\nsamples = 4\nvalue = [3, 1]"] ;
965 -> 967 ;
968 [label="entropy = 0.0\nsamples = 3\nvalue = [3, 0]"] ;
967 -> 968 ;
969 [label="entropy = 0.0\nsamples = 1\nvalue = [0, 1]"] ;
967 -> 969 ;
970 [label="erytrocyty <= 0.484\nentropy = 0.394\nsamples = 477\nvalue = [440, 37]"] ;
832 -> 970 ;
971 [label="hemoglobin <= 0.638\nentropy = 0.697\nsamples = 117\nvalue = [95, 22]"] ;
970 -> 971 ;
972 [label="hemoglobin <= 0.465\nentropy = 0.553\nsamples = 109\nvalue = [95, 14]"] ;
971 -> 972 ;
973 [label="erytrocyty <= 0.483\nentropy = 0.344\nsamples = 78\nvalue = [73, 5]"] ;
972 -> 973 ;
974 [label="hbver <= 0.26\nentropy = 0.295\nsamples = 77\nvalue = [73, 4]"] ;
973 -> 974 ;
975 [label="erytrocyty <= 0.329\nentropy = 0.605\nsamples = 27\nvalue = [23, 4]"] ;
974 -> 975 ;
976 [label="hbver <= 0.223\nentropy = 0.918\nsamples = 3\nvalue = [1, 2]"] ;
975 -> 976 ;
977 [label="entropy = 0.0\nsamples = 1\nvalue = [0, 1]"] ;
976 -> 977 ;
978 [label="hbver <= 0.249\nentropy = 1.0\nsamples = 2\nvalue = [1, 1]"] ;
976 -> 978 ;
979 [label="entropy = 0.0\nsamples = 1\nvalue = [1, 0]"] ;
978 -> 979 ;
980 [label="entropy = 0.0\nsamples = 1\nvalue = [0, 1]"] ;
978 -> 980 ;
981 [label="hbver <= 0.15\nentropy = 0.414\nsamples = 24\nvalue = [22, 2]"] ;
975 -> 981 ;
982 [label="er-cv <= 0.313\nentropy = 1.0\nsamples = 2\nvalue = [1, 1]"] ;
981 -> 982 ;
983 [label="entropy = 0.0\nsamples = 1\nvalue = [1, 0]"] ;
982 -> 983 ;
984 [label="entropy = 0.0\nsamples = 1\nvalue = [0, 1]"] ;
982 -> 984 ;
985 [label="erytrocyty <= 0.477\nentropy = 0.267\nsamples = 22\nvalue = [21, 1]"] ;
981 -> 985 ;
986 [label="entropy = 0.0\nsamples = 19\nvalue = [19, 0]"] ;
985 -> 986 ;
987 [label="er-cv <= 0.667\nentropy = 0.918\nsamples = 3\nvalue = [2, 1]"] ;
985 -> 987 ;
988 [label="entropy = 0.0\nsamples = 2\nvalue = [2, 0]"] ;
987 -> 988 ;
989 [label="entropy = 0.0\nsamples = 1\nvalue = [0, 1]"] ;
987 -> 989 ;
990 [label="entropy = 0.0\nsamples = 50\nvalue = [50, 0]"] ;
974 -> 990 ;
991 [label="entropy = 0.0\nsamples = 1\nvalue = [0, 1]"] ;
973 -> 991 ;
992 [label="hemoglobin <= 0.471\nentropy = 0.869\nsamples = 31\nvalue = [22, 9]"] ;
972 -> 992 ;
993 [label="entropy = 0.0\nsamples = 3\nvalue = [0, 3]"] ;
992 -> 993 ;
994 [label="hematokrit <= 0.832\nentropy = 0.75\nsamples = 28\nvalue = [22, 6]"] ;
992 -> 994 ;
995 [label="erytrocyty <= 0.321\nentropy = 0.619\nsamples = 26\nvalue = [22, 4]"] ;
994 -> 995 ;
996 [label="er-cv <= 0.702\nentropy = 0.918\nsamples = 3\nvalue = [1, 2]"] ;
995 -> 996 ;
997 [label="entropy = 0.0\nsamples = 2\nvalue = [0, 2]"] ;
996 -> 997 ;
998 [label="entropy = 0.0\nsamples = 1\nvalue = [1, 0]"] ;
996 -> 998 ;
999 [label="hbver <= 0.225\nentropy = 0.426\nsamples = 23\nvalue = [21, 2]"] ;
995 -> 999 ;
1000 [label="hematokrit <= 0.631\nentropy = 1.0\nsamples = 2\nvalue = [1, 1]"] ;
999 -> 1000 ;
1001 [label="entropy = 0.0\nsamples = 1\nvalue = [1, 0]"] ;
1000 -> 1001 ;
1002 [label="entropy = 0.0\nsamples = 1\nvalue = [0, 1]"] ;
1000 -> 1002 ;
1003 [label="erytrocyty <= 0.48\nentropy = 0.276\nsamples = 21\nvalue = [20, 1]"] ;
999 -> 1003 ;
1004 [label="entropy = 0.0\nsamples = 19\nvalue = [19, 0]"] ;
1003 -> 1004 ;
1005 [label="er-cv <= 0.374\nentropy = 1.0\nsamples = 2\nvalue = [1, 1]"] ;
1003 -> 1005 ;
1006 [label="entropy = 0.0\nsamples = 1\nvalue = [0, 1]"] ;
1005 -> 1006 ;
1007 [label="entropy = 0.0\nsamples = 1\nvalue = [1, 0]"] ;
1005 -> 1007 ;
1008 [label="entropy = 0.0\nsamples = 2\nvalue = [0, 2]"] ;
994 -> 1008 ;
1009 [label="entropy = 0.0\nsamples = 8\nvalue = [0, 8]"] ;
971 -> 1009 ;
1010 [label="er-cv <= 0.634\nentropy = 0.25\nsamples = 360\nvalue = [345, 15]"] ;
970 -> 1010 ;
1011 [label="hemoglobin <= 0.628\nentropy = 0.154\nsamples = 270\nvalue = [264, 6]"] ;
1010 -> 1011 ;
1012 [label="er-cv <= 0.386\nentropy = 0.076\nsamples = 215\nvalue = [213, 2]"] ;
1011 -> 1012 ;
1013 [label="er-cv <= 0.383\nentropy = 0.164\nsamples = 83\nvalue = [81, 2]"] ;
1012 -> 1013 ;
1014 [label="hbver <= 0.169\nentropy = 0.095\nsamples = 82\nvalue = [81, 1]"] ;
1013 -> 1014 ;
1015 [label="hbver <= 0.156\nentropy = 0.469\nsamples = 10\nvalue = [9, 1]"] ;
1014 -> 1015 ;
1016 [label="entropy = 0.0\nsamples = 9\nvalue = [9, 0]"] ;
1015 -> 1016 ;
1017 [label="entropy = 0.0\nsamples = 1\nvalue = [0, 1]"] ;
1015 -> 1017 ;
1018 [label="entropy = 0.0\nsamples = 72\nvalue = [72, 0]"] ;
1014 -> 1018 ;
1019 [label="entropy = 0.0\nsamples = 1\nvalue = [0, 1]"] ;
1013 -> 1019 ;
1020 [label="entropy = 0.0\nsamples = 132\nvalue = [132, 0]"] ;
1012 -> 1020 ;
1021 [label="erytrocyty <= 0.695\nentropy = 0.376\nsamples = 55\nvalue = [51, 4]"] ;
1011 -> 1021 ;
1022 [label="hematokrit <= 0.697\nentropy = 0.722\nsamples = 20\nvalue = [16, 4]"] ;
1021 -> 1022 ;
1023 [label="erytrocyty <= 0.684\nentropy = 0.337\nsamples = 16\nvalue = [15, 1]"] ;
1022 -> 1023 ;
1024 [label="entropy = 0.0\nsamples = 15\nvalue = [15, 0]"] ;
1023 -> 1024 ;
1025 [label="entropy = 0.0\nsamples = 1\nvalue = [0, 1]"] ;
1023 -> 1025 ;
1026 [label="erytrocyty <= 0.626\nentropy = 0.811\nsamples = 4\nvalue = [1, 3]"] ;
1022 -> 1026 ;
1027 [label="entropy = 0.0\nsamples = 3\nvalue = [0, 3]"] ;
1026 -> 1027 ;
1028 [label="entropy = 0.0\nsamples = 1\nvalue = [1, 0]"] ;
1026 -> 1028 ;
1029 [label="entropy = 0.0\nsamples = 35\nvalue = [35, 0]"] ;
1021 -> 1029 ;
1030 [label="hematokrit <= 0.865\nentropy = 0.469\nsamples = 90\nvalue = [81, 9]"] ;
1010 -> 1030 ;
1031 [label="hematokrit <= 0.708\nentropy = 0.368\nsamples = 85\nvalue = [79, 6]"] ;
1030 -> 1031 ;
1032 [label="hbver <= 0.083\nentropy = 0.559\nsamples = 46\nvalue = [40, 6]"] ;
1031 -> 1032 ;
1033 [label="entropy = 0.0\nsamples = 1\nvalue = [0, 1]"] ;
1032 -> 1033 ;
1034 [label="hbver <= 0.278\nentropy = 0.503\nsamples = 45\nvalue = [40, 5]"] ;
1032 -> 1034 ;
1035 [label="entropy = 0.0\nsamples = 21\nvalue = [21, 0]"] ;
1034 -> 1035 ;
1036 [label="hbver <= 0.34\nentropy = 0.738\nsamples = 24\nvalue = [19, 5]"] ;
1034 -> 1036 ;
1037 [label="hbver <= 0.334\nentropy = 0.918\nsamples = 15\nvalue = [10, 5]"] ;
1036 -> 1037 ;
1038 [label="hematokrit <= 0.681\nentropy = 0.779\nsamples = 13\nvalue = [10, 3]"] ;
1037 -> 1038 ;
1039 [label="hematokrit <= 0.634\nentropy = 0.469\nsamples = 10\nvalue = [9, 1]"] ;
1038 -> 1039 ;
1040 [label="hemoglobin <= 0.64\nentropy = 0.918\nsamples = 3\nvalue = [2, 1]"] ;
1039 -> 1040 ;
1041 [label="entropy = 0.0\nsamples = 1\nvalue = [0, 1]"] ;
1040 -> 1041 ;
1042 [label="entropy = 0.0\nsamples = 2\nvalue = [2, 0]"] ;
1040 -> 1042 ;
1043 [label="entropy = 0.0\nsamples = 7\nvalue = [7, 0]"] ;
1039 -> 1043 ;
1044 [label="er-cv <= 0.944\nentropy = 0.918\nsamples = 3\nvalue = [1, 2]"] ;
1038 -> 1044 ;
1045 [label="entropy = 0.0\nsamples = 2\nvalue = [0, 2]"] ;
1044 -> 1045 ;
1046 [label="entropy = 0.0\nsamples = 1\nvalue = [1, 0]"] ;
1044 -> 1046 ;
1047 [label="entropy = 0.0\nsamples = 2\nvalue = [0, 2]"] ;
1037 -> 1047 ;
1048 [label="entropy = 0.0\nsamples = 9\nvalue = [9, 0]"] ;
1036 -> 1048 ;
1049 [label="entropy = 0.0\nsamples = 39\nvalue = [39, 0]"] ;
1031 -> 1049 ;
1050 [label="hemoglobin <= 0.625\nentropy = 0.971\nsamples = 5\nvalue = [2, 3]"] ;
1030 -> 1050 ;
1051 [label="entropy = 0.0\nsamples = 3\nvalue = [0, 3]"] ;
1050 -> 1051 ;
1052 [label="entropy = 0.0\nsamples = 2\nvalue = [2, 0]"] ;
1050 -> 1052 ;
1053 [label="hemoglobin <= 0.573\nentropy = 0.99\nsamples = 366\nvalue = [204, 162]"] ;
831 -> 1053 ;
1054 [label="erytrocyty <= 0.619\nentropy = 0.923\nsamples = 225\nvalue = [149, 76]"] ;
1053 -> 1054 ;
1055 [label="hematokrit <= 0.807\nentropy = 0.854\nsamples = 197\nvalue = [142, 55]"] ;
1054 -> 1055 ;
1056 [label="hematokrit <= 0.586\nentropy = 0.791\nsamples = 177\nvalue = [135, 42]"] ;
1055 -> 1056 ;
1057 [label="hemoglobin <= 0.477\nentropy = 0.943\nsamples = 75\nvalue = [48, 27]"] ;
1056 -> 1057 ;
1058 [label="erytrocyty <= 0.329\nentropy = 1.0\nsamples = 49\nvalue = [24, 25]"] ;
1057 -> 1058 ;
1059 [label="hemoglobin <= 0.339\nentropy = 0.722\nsamples = 20\nvalue = [16, 4]"] ;
1058 -> 1059 ;
1060 [label="erytrocyty <= 0.25\nentropy = 0.811\nsamples = 4\nvalue = [1, 3]"] ;
1059 -> 1060 ;
1061 [label="entropy = 0.0\nsamples = 1\nvalue = [1, 0]"] ;
1060 -> 1061 ;
1062 [label="entropy = 0.0\nsamples = 3\nvalue = [0, 3]"] ;
1060 -> 1062 ;
1063 [label="hemoglobin <= 0.414\nentropy = 0.337\nsamples = 16\nvalue = [15, 1]"] ;
1059 -> 1063 ;
1064 [label="entropy = 0.0\nsamples = 12\nvalue = [12, 0]"] ;
1063 -> 1064 ;
1065 [label="hemoglobin <= 0.414\nentropy = 0.811\nsamples = 4\nvalue = [3, 1]"] ;
1063 -> 1065 ;
1066 [label="entropy = 0.0\nsamples = 1\nvalue = [0, 1]"] ;
1065 -> 1066 ;
1067 [label="entropy = 0.0\nsamples = 3\nvalue = [3, 0]"] ;
1065 -> 1067 ;
1068 [label="er-cv <= 0.401\nentropy = 0.85\nsamples = 29\nvalue = [8, 21]"] ;
1058 -> 1068 ;
1069 [label="entropy = 0.0\nsamples = 8\nvalue = [0, 8]"] ;
1068 -> 1069 ;
1070 [label="erytrocyty <= 0.444\nentropy = 0.959\nsamples = 21\nvalue = [8, 13]"] ;
1068 -> 1070 ;
1071 [label="hematokrit <= 0.562\nentropy = 0.75\nsamples = 14\nvalue = [3, 11]"] ;
1070 -> 1071 ;
1072 [label="hemoglobin <= 0.323\nentropy = 0.414\nsamples = 12\nvalue = [1, 11]"] ;
1071 -> 1072 ;
1073 [label="entropy = 0.0\nsamples = 1\nvalue = [1, 0]"] ;
1072 -> 1073 ;
1074 [label="entropy = 0.0\nsamples = 11\nvalue = [0, 11]"] ;
1072 -> 1074 ;
1075 [label="entropy = 0.0\nsamples = 2\nvalue = [2, 0]"] ;
1071 -> 1075 ;
1076 [label="hbver <= 0.373\nentropy = 0.863\nsamples = 7\nvalue = [5, 2]"] ;
1070 -> 1076 ;
1077 [label="er-cv <= 0.523\nentropy = 0.918\nsamples = 3\nvalue = [1, 2]"] ;
1076 -> 1077 ;
1078 [label="entropy = 0.0\nsamples = 1\nvalue = [1, 0]"] ;
1077 -> 1078 ;
1079 [label="entropy = 0.0\nsamples = 2\nvalue = [0, 2]"] ;
1077 -> 1079 ;
1080 [label="entropy = 0.0\nsamples = 4\nvalue = [4, 0]"] ;
1076 -> 1080 ;
1081 [label="erytrocyty <= 0.597\nentropy = 0.391\nsamples = 26\nvalue = [24, 2]"] ;
1057 -> 1081 ;
1082 [label="entropy = 0.0\nsamples = 22\nvalue = [22, 0]"] ;
1081 -> 1082 ;
1083 [label="hbver <= 0.405\nentropy = 1.0\nsamples = 4\nvalue = [2, 2]"] ;
1081 -> 1083 ;
1084 [label="entropy = 0.0\nsamples = 2\nvalue = [2, 0]"] ;
1083 -> 1084 ;
1085 [label="entropy = 0.0\nsamples = 2\nvalue = [0, 2]"] ;
1083 -> 1085 ;
1086 [label="hbver <= 0.423\nentropy = 0.602\nsamples = 102\nvalue = [87, 15]"] ;
1056 -> 1086 ;
1087 [label="erytrocyty <= 0.46\nentropy = 0.439\nsamples = 77\nvalue = [70, 7]"] ;
1086 -> 1087 ;
1088 [label="hbver <= 0.411\nentropy = 0.659\nsamples = 41\nvalue = [34, 7]"] ;
1087 -> 1088 ;
1089 [label="erytrocyty <= 0.316\nentropy = 0.797\nsamples = 29\nvalue = [22, 7]"] ;
1088 -> 1089 ;
1090 [label="er-cv <= 0.442\nentropy = 0.985\nsamples = 7\nvalue = [3, 4]"] ;
1089 -> 1090 ;
1091 [label="hemoglobin <= 0.349\nentropy = 0.811\nsamples = 4\nvalue = [3, 1]"] ;
1090 -> 1091 ;
1092 [label="entropy = 0.0\nsamples = 1\nvalue = [0, 1]"] ;
1091 -> 1092 ;
1093 [label="entropy = 0.0\nsamples = 3\nvalue = [3, 0]"] ;
1091 -> 1093 ;
1094 [label="entropy = 0.0\nsamples = 3\nvalue = [0, 3]"] ;
1090 -> 1094 ;
1095 [label="er-cv <= 0.535\nentropy = 0.575\nsamples = 22\nvalue = [19, 3]"] ;
1089 -> 1095 ;
1096 [label="entropy = 0.0\nsamples = 11\nvalue = [11, 0]"] ;
1095 -> 1096 ;
1097 [label="erytrocyty <= 0.407\nentropy = 0.845\nsamples = 11\nvalue = [8, 3]"] ;
1095 -> 1097 ;
1098 [label="hbver <= 0.376\nentropy = 0.544\nsamples = 8\nvalue = [7, 1]"] ;
1097 -> 1098 ;
1099 [label="erytrocyty <= 0.369\nentropy = 1.0\nsamples = 2\nvalue = [1, 1]"] ;
1098 -> 1099 ;
1100 [label="entropy = 0.0\nsamples = 1\nvalue = [0, 1]"] ;
1099 -> 1100 ;
1101 [label="entropy = 0.0\nsamples = 1\nvalue = [1, 0]"] ;
1099 -> 1101 ;
1102 [label="entropy = 0.0\nsamples = 6\nvalue = [6, 0]"] ;
1098 -> 1102 ;
1103 [label="hematokrit <= 0.611\nentropy = 0.918\nsamples = 3\nvalue = [1, 2]"] ;
1097 -> 1103 ;
1104 [label="entropy = 0.0\nsamples = 1\nvalue = [1, 0]"] ;
1103 -> 1104 ;
1105 [label="entropy = 0.0\nsamples = 2\nvalue = [0, 2]"] ;
1103 -> 1105 ;
1106 [label="entropy = 0.0\nsamples = 12\nvalue = [12, 0]"] ;
1088 -> 1106 ;
1107 [label="entropy = 0.0\nsamples = 36\nvalue = [36, 0]"] ;
1087 -> 1107 ;
1108 [label="hematokrit <= 0.698\nentropy = 0.904\nsamples = 25\nvalue = [17, 8]"] ;
1086 -> 1108 ;
1109 [label="entropy = 0.0\nsamples = 10\nvalue = [10, 0]"] ;
1108 -> 1109 ;
1110 [label="hemoglobin <= 0.431\nentropy = 0.997\nsamples = 15\nvalue = [7, 8]"] ;
1108 -> 1110 ;
1111 [label="entropy = 0.0\nsamples = 3\nvalue = [3, 0]"] ;
1110 -> 1111 ;
1112 [label="hematokrit <= 0.783\nentropy = 0.918\nsamples = 12\nvalue = [4, 8]"] ;
1110 -> 1112 ;
1113 [label="hemoglobin <= 0.541\nentropy = 0.722\nsamples = 10\nvalue = [2, 8]"] ;
1112 -> 1113 ;
1114 [label="entropy = 0.0\nsamples = 6\nvalue = [0, 6]"] ;
1113 -> 1114 ;
1115 [label="hematokrit <= 0.761\nentropy = 1.0\nsamples = 4\nvalue = [2, 2]"] ;
1113 -> 1115 ;
1116 [label="entropy = 0.0\nsamples = 2\nvalue = [2, 0]"] ;
1115 -> 1116 ;
1117 [label="entropy = 0.0\nsamples = 2\nvalue = [0, 2]"] ;
1115 -> 1117 ;
1118 [label="entropy = 0.0\nsamples = 2\nvalue = [2, 0]"] ;
1112 -> 1118 ;
1119 [label="hemoglobin <= 0.458\nentropy = 0.934\nsamples = 20\nvalue = [7, 13]"] ;
1055 -> 1119 ;
1120 [label="hematokrit <= 0.917\nentropy = 0.918\nsamples = 9\nvalue = [6, 3]"] ;
1119 -> 1120 ;
1121 [label="er-cv <= 0.722\nentropy = 0.592\nsamples = 7\nvalue = [6, 1]"] ;
1120 -> 1121 ;
1122 [label="entropy = 0.0\nsamples = 6\nvalue = [6, 0]"] ;
1121 -> 1122 ;
1123 [label="entropy = 0.0\nsamples = 1\nvalue = [0, 1]"] ;
1121 -> 1123 ;
1124 [label="entropy = 0.0\nsamples = 2\nvalue = [0, 2]"] ;
1120 -> 1124 ;
1125 [label="hbver <= 0.443\nentropy = 0.439\nsamples = 11\nvalue = [1, 10]"] ;
1119 -> 1125 ;
1126 [label="entropy = 0.0\nsamples = 10\nvalue = [0, 10]"] ;
1125 -> 1126 ;
1127 [label="entropy = 0.0\nsamples = 1\nvalue = [1, 0]"] ;
1125 -> 1127 ;
1128 [label="er-cv <= 0.539\nentropy = 0.811\nsamples = 28\nvalue = [7, 21]"] ;
1054 -> 1128 ;
1129 [label="hemoglobin <= 0.557\nentropy = 0.337\nsamples = 16\nvalue = [1, 15]"] ;
1128 -> 1129 ;
1130 [label="entropy = 0.0\nsamples = 14\nvalue = [0, 14]"] ;
1129 -> 1130 ;
1131 [label="hematokrit <= 0.752\nentropy = 1.0\nsamples = 2\nvalue = [1, 1]"] ;
1129 -> 1131 ;
1132 [label="entropy = 0.0\nsamples = 1\nvalue = [0, 1]"] ;
1131 -> 1132 ;
1133 [label="entropy = 0.0\nsamples = 1\nvalue = [1, 0]"] ;
1131 -> 1133 ;
1134 [label="hemoglobin <= 0.553\nentropy = 1.0\nsamples = 12\nvalue = [6, 6]"] ;
1128 -> 1134 ;
1135 [label="hematokrit <= 0.785\nentropy = 0.918\nsamples = 9\nvalue = [6, 3]"] ;
1134 -> 1135 ;
1136 [label="entropy = 0.0\nsamples = 4\nvalue = [4, 0]"] ;
1135 -> 1136 ;
1137 [label="hbver <= 0.402\nentropy = 0.971\nsamples = 5\nvalue = [2, 3]"] ;
1135 -> 1137 ;
1138 [label="entropy = 0.0\nsamples = 2\nvalue = [2, 0]"] ;
1137 -> 1138 ;
1139 [label="entropy = 0.0\nsamples = 3\nvalue = [0, 3]"] ;
1137 -> 1139 ;
1140 [label="entropy = 0.0\nsamples = 3\nvalue = [0, 3]"] ;
1134 -> 1140 ;
1141 [label="erytrocyty <= 0.394\nentropy = 0.965\nsamples = 141\nvalue = [55, 86]"] ;
1053 -> 1141 ;
1142 [label="hematokrit <= 0.588\nentropy = 0.365\nsamples = 43\nvalue = [3, 40]"] ;
1141 -> 1142 ;
1143 [label="hemoglobin <= 0.699\nentropy = 0.779\nsamples = 13\nvalue = [3, 10]"] ;
1142 -> 1143 ;
1144 [label="entropy = 0.0\nsamples = 3\nvalue = [3, 0]"] ;
1143 -> 1144 ;
1145 [label="entropy = 0.0\nsamples = 10\nvalue = [0, 10]"] ;
1143 -> 1145 ;
1146 [label="entropy = 0.0\nsamples = 30\nvalue = [0, 30]"] ;
1142 -> 1146 ;
1147 [label="hematokrit <= 0.602\nentropy = 0.997\nsamples = 98\nvalue = [52, 46]"] ;
1141 -> 1147 ;
1148 [label="hemoglobin <= 0.588\nentropy = 0.876\nsamples = 44\nvalue = [31, 13]"] ;
1147 -> 1148 ;
1149 [label="entropy = 0.0\nsamples = 3\nvalue = [0, 3]"] ;
1148 -> 1149 ;
1150 [label="erytrocyty <= 0.559\nentropy = 0.801\nsamples = 41\nvalue = [31, 10]"] ;
1148 -> 1150 ;
1151 [label="erytrocyty <= 0.412\nentropy = 0.426\nsamples = 23\nvalue = [21, 2]"] ;
1150 -> 1151 ;
1152 [label="entropy = 0.0\nsamples = 1\nvalue = [0, 1]"] ;
1151 -> 1152 ;
1153 [label="er-cv <= 0.588\nentropy = 0.267\nsamples = 22\nvalue = [21, 1]"] ;
1151 -> 1153 ;
1154 [label="entropy = 0.0\nsamples = 18\nvalue = [18, 0]"] ;
1153 -> 1154 ;
1155 [label="er-cv <= 0.613\nentropy = 0.811\nsamples = 4\nvalue = [3, 1]"] ;
1153 -> 1155 ;
1156 [label="entropy = 0.0\nsamples = 1\nvalue = [0, 1]"] ;
1155 -> 1156 ;
1157 [label="entropy = 0.0\nsamples = 3\nvalue = [3, 0]"] ;
1155 -> 1157 ;
1158 [label="hbver <= 0.432\nentropy = 0.991\nsamples = 18\nvalue = [10, 8]"] ;
1150 -> 1158 ;
1159 [label="hemoglobin <= 0.75\nentropy = 0.918\nsamples = 15\nvalue = [10, 5]"] ;
1158 -> 1159 ;
1160 [label="hemoglobin <= 0.737\nentropy = 1.0\nsamples = 10\nvalue = [5, 5]"] ;
1159 -> 1160 ;
1161 [label="hemoglobin <= 0.647\nentropy = 0.863\nsamples = 7\nvalue = [5, 2]"] ;
1160 -> 1161 ;
1162 [label="erytrocyty <= 0.606\nentropy = 0.918\nsamples = 3\nvalue = [1, 2]"] ;
1161 -> 1162 ;
1163 [label="entropy = 0.0\nsamples = 1\nvalue = [1, 0]"] ;
1162 -> 1163 ;
1164 [label="entropy = 0.0\nsamples = 2\nvalue = [0, 2]"] ;
1162 -> 1164 ;
1165 [label="entropy = 0.0\nsamples = 4\nvalue = [4, 0]"] ;
1161 -> 1165 ;
1166 [label="entropy = 0.0\nsamples = 3\nvalue = [0, 3]"] ;
1160 -> 1166 ;
1167 [label="entropy = 0.0\nsamples = 5\nvalue = [5, 0]"] ;
1159 -> 1167 ;
1168 [label="entropy = 0.0\nsamples = 3\nvalue = [0, 3]"] ;
1158 -> 1168 ;
1169 [label="erytrocyty <= 0.684\nentropy = 0.964\nsamples = 54\nvalue = [21, 33]"] ;
1147 -> 1169 ;
1170 [label="hbver <= 0.377\nentropy = 0.876\nsamples = 44\nvalue = [13, 31]"] ;
1169 -> 1170 ;
1171 [label="entropy = 0.0\nsamples = 6\nvalue = [0, 6]"] ;
1170 -> 1171 ;
1172 [label="hemoglobin <= 0.707\nentropy = 0.927\nsamples = 38\nvalue = [13, 25]"] ;
1170 -> 1172 ;
1173 [label="erytrocyty <= 0.622\nentropy = 0.845\nsamples = 33\nvalue = [9, 24]"] ;
1172 -> 1173 ;
1174 [label="erytrocyty <= 0.598\nentropy = 0.906\nsamples = 28\nvalue = [9, 19]"] ;
1173 -> 1174 ;
1175 [label="hbver <= 0.431\nentropy = 0.795\nsamples = 25\nvalue = [6, 19]"] ;
1174 -> 1175 ;
1176 [label="er-cv <= 0.483\nentropy = 0.918\nsamples = 18\nvalue = [6, 12]"] ;
1175 -> 1176 ;
1177 [label="hbver <= 0.424\nentropy = 0.619\nsamples = 13\nvalue = [2, 11]"] ;
1176 -> 1177 ;
1178 [label="entropy = 0.0\nsamples = 10\nvalue = [0, 10]"] ;
1177 -> 1178 ;
1179 [label="hemoglobin <= 0.684\nentropy = 0.918\nsamples = 3\nvalue = [2, 1]"] ;
1177 -> 1179 ;
1180 [label="entropy = 0.0\nsamples = 2\nvalue = [2, 0]"] ;
1179 -> 1180 ;
1181 [label="entropy = 0.0\nsamples = 1\nvalue = [0, 1]"] ;
1179 -> 1181 ;
1182 [label="hbver <= 0.421\nentropy = 0.722\nsamples = 5\nvalue = [4, 1]"] ;
1176 -> 1182 ;
1183 [label="entropy = 0.0\nsamples = 4\nvalue = [4, 0]"] ;
1182 -> 1183 ;
1184 [label="entropy = 0.0\nsamples = 1\nvalue = [0, 1]"] ;
1182 -> 1184 ;
1185 [label="entropy = 0.0\nsamples = 7\nvalue = [0, 7]"] ;
1175 -> 1185 ;
1186 [label="entropy = 0.0\nsamples = 3\nvalue = [3, 0]"] ;
1174 -> 1186 ;
1187 [label="entropy = 0.0\nsamples = 5\nvalue = [0, 5]"] ;
1173 -> 1187 ;
1188 [label="hematokrit <= 0.625\nentropy = 0.722\nsamples = 5\nvalue = [4, 1]"] ;
1172 -> 1188 ;
1189 [label="entropy = 0.0\nsamples = 1\nvalue = [0, 1]"] ;
1188 -> 1189 ;
1190 [label="entropy = 0.0\nsamples = 4\nvalue = [4, 0]"] ;
1188 -> 1190 ;
